{"learner":{"attributes":{},"feature_names":["day_of_week","hour_of_day"],"feature_types":[],"gradient_booster":{"model":{"cats":{"enc":[],"feature_segments":[],"sorted_idx":[]},"gbtree_model_param":{"num_parallel_tree":"1","num_trees":"50"},"iteration_indptr":[0,1,2,3,4,5,6,7,8,9,10,11,12,13,14,15,16,17,18,19,20,21,22,23,24,25,26,27,28,29,30,31,32,33,34,35,36,37,38,39,40,41,42,43,44,45,46,47,48,49,50],"tree_info":[0,0,0,0,0,0,0,0,0,0,0,0,0,0,0,0,0,0,0,0,0,0,0,0,0,0,0,0,0,0,0,0,0,0,0,0,0,0,0,0,0,0,0,0,0,0,0,0,0,0],"trees":[{"base_weights":[-4.141936E-8,-9.466514E0,1.4312922E0,-9.904689E0,-6.360308E0,2.9168956E0,-4.449328E0,-1.1358079E0,-8.498766E-1,-1.8332975E-1,-8.273488E-1,-2.796882E0,3.7973902E0,-1.627443E0,-6.1301403E0,3.2731986E-1,-5.780398E-1,4.490736E-1,7.011058E-2,-6.682579E-1,-5.1274933E-2,-1.0532703E0,-5.184407E-1],"categories":[],"categories_nodes":[],"categories_segments":[],"categories_sizes":[],"default_left":[0,0,0,0,0,0,0,0,0,0,0,0,0,0,0,0,0,0,0,0,0,0,0],"id":0,"left_children":[1,3,5,7,9,11,13,-1,-1,-1,-1,15,17,19,21,-1,-1,-1,-1,-1,-1,-1,-1],"loss_changes":[5.024098E4,5.9983984E2,2.81525E4,7.7189453E2,5.304741E2,1.2950227E4,3.0730127E3,0E0,0E0,0E0,0E0,6.248824E3,4.7820605E3,1.371496E3,1.639999E3,0E0,0E0,0E0,0E0,0E0,0E0,0E0,0E0],"parents":[2147483647,0,0,1,1,2,2,3,3,4,4,5,5,6,6,11,11,12,12,13,13,14,14],"right_children":[2,4,6,8,10,12,14,-1,-1,-1,-1,16,18,20,22,-1,-1,-1,-1,-1,-1,-1,-1],"split_conditions":[4E0,3E0,2.1E1,5E0,4E0,7E0,2.2E1,-1.1358079E0,-8.498766E-1,-1.8332975E-1,-8.273488E-1,5E0,1.9E1,4E0,4E0,3.2731986E-1,-5.780398E-1,4.490736E-1,7.011058E-2,-6.682579E-1,-5.1274933E-2,-1.0532703E0,-5.184407E-1],"split_indices":[1,1,1,0,0,1,1,0,0,0,0,0,1,0,0,0,0,0,0,0,0,0,0],"split_type":[0,0,0,0,0,0,0,0,0,0,0,0,0,0,0,0,0,0,0,0,0,0,0],"sum_hessian":[3.706E3,4.86E2,3.22E3,4.24E2,6.2E1,2.571E3,6.49E2,2.05E2,2.19E2,1.9E1,4.3E1,3.43E2,2.228E3,2.43E2,4.06E2,1.13E2,2.3E2,1.82E3,4.08E2,4.3E1,2E2,7E1,3.36E2],"tree_param":{"num_deleted":"0","num_feature":"2","num_nodes":"23","size_leaf_vector":"1"}},{"base_weights":[-1.3540102E-3,-6.782426E0,1.6354569E0,-8.918892E0,-3.7023563E0,3.203703E0,-4.00792E0,-1.0227784E0,-7.652753E-1,1.5338982E0,-6.7907085E0,3.7472074E0,6.311669E-1,-1.4676474E0,-5.5209875E0,-1.6591345E-1,2.2113629E-1,-5.0214523E-1,-8.451237E-1,5.5293816E-1,2.8209502E-1,-3.6276636E-1,1.4910735E-1,-6.029509E-1,-4.617293E-2,-9.494268E-1,-4.6675044E-1],"categories":[],"categories_nodes":[],"categories_segments":[],"categories_sizes":[],"default_left":[0,0,0,0,0,0,0,0,0,0,0,0,0,0,0,0,0,0,0,0,0,0,0,0,0,0,0],"id":1,"left_children":[1,3,5,7,9,11,13,-1,-1,15,17,19,21,23,25,-1,-1,-1,-1,-1,-1,-1,-1,-1,-1,-1,-1],"loss_changes":[4.1156316E4,4.711496E3,2.6448398E4,6.260547E2,4.8133213E3,3.2665898E3,2.4902393E3,0E0,0E0,2.4378049E2,5.069502E2,3.1703535E3,1.5032474E3,1.1168977E3,1.335875E3,0E0,0E0,0E0,0E0,0E0,0E0,0E0,0E0,0E0,0E0,0E0,0E0],"parents":[2147483647,0,0,1,1,2,2,3,3,4,4,5,5,6,6,9,9,10,10,11,11,12,12,13,13,14,14],"right_children":[2,4,6,8,10,12,14,-1,-1,16,18,20,22,24,26,-1,-1,-1,-1,-1,-1,-1,-1,-1,-1,-1,-1],"split_conditions":[6E0,3E0,2.1E1,5E0,5E0,1.9E1,2.2E1,-1.0227784E0,-7.652753E-1,4E0,7E0,5E0,4E0,4E0,4E0,-1.6591345E-1,2.2113629E-1,-5.0214523E-1,-8.451237E-1,5.5293816E-1,2.8209502E-1,-3.6276636E-1,1.4910735E-1,-6.029509E-1,-4.617293E-2,-9.494268E-1,-4.6675044E-1],"split_indices":[1,1,1,0,0,1,1,0,0,1,0,0,0,0,0,0,0,0,0,0,0,0,0,0,0,0,0],"split_type":[0,0,0,0,0,0,0,0,0,0,0,0,0,0,0,0,0,0,0,0,0,0,0,0,0,0,0],"sum_hessian":[3.706E3,7.2E2,2.986E3,4.24E2,2.96E2,2.337E3,6.49E2,2.05E2,2.19E2,1.1E2,1.86E2,1.929E3,4.08E2,2.43E2,4.06E2,1.9E1,9.1E1,9.2E1,9.4E1,6.58E2,1.271E3,6.8E1,3.4E2,4.3E1,2E2,7E1,3.36E2],"tree_param":{"num_deleted":"0","num_feature":"2","num_nodes":"27","size_leaf_vector":"1"}},{"base_weights":[-2.4392582E-3,-6.108455E0,1.4714276E0,-8.03121E0,-3.3364713E0,2.883598E0,-3.6103053E0,-9.209971E-1,-6.890957E-1,1.3810059E0,-6.1188426E0,3.3729188E0,5.6752795E-1,-1.3235428E0,-4.9723687E0,-1.5015166E-1,1.9926302E-1,-4.5247063E-1,-7.6150095E-1,-1.4992055E-1,3.6653742E-1,-3.270155E-1,1.3424036E-1,-5.440261E-1,-4.1578595E-2,-8.558213E-1,-4.2021394E-1],"categories":[],"categories_nodes":[],"categories_segments":[],"categories_sizes":[],"default_left":[0,0,0,0,0,0,0,0,0,0,0,0,0,0,0,0,0,0,0,0,0,0,0,0,0,0,0],"id":2,"left_children":[1,3,5,7,9,11,13,-1,-1,15,17,19,21,23,25,-1,-1,-1,-1,-1,-1,-1,-1,-1,-1,-1,-1],"loss_changes":[3.3369965E4,3.8160215E3,2.1445941E4,5.0776953E2,3.9068052E3,2.647746E3,2.0179834E3,0E0,0E0,1.986873E2,4.1155664E2,2.7555078E3,1.2206442E3,9.09561E2,1.0881396E3,0E0,0E0,0E0,0E0,0E0,0E0,0E0,0E0,0E0,0E0,0E0,0E0],"parents":[2147483647,0,0,1,1,2,2,3,3,4,4,5,5,6,6,9,9,10,10,11,11,12,12,13,13,14,14],"right_children":[2,4,6,8,10,12,14,-1,-1,16,18,20,22,24,26,-1,-1,-1,-1,-1,-1,-1,-1,-1,-1,-1,-1],"split_conditions":[6E0,3E0,2.1E1,5E0,5E0,1.9E1,2.2E1,-9.209971E-1,-6.890957E-1,4E0,7E0,7E0,4E0,4E0,4E0,-1.5015166E-1,1.9926302E-1,-4.5247063E-1,-7.6150095E-1,-1.4992055E-1,3.6653742E-1,-3.270155E-1,1.3424036E-1,-5.440261E-1,-4.1578595E-2,-8.558213E-1,-4.2021394E-1],"split_indices":[1,1,1,0,0,1,1,0,0,1,0,1,0,0,0,0,0,0,0,0,0,0,0,0,0,0,0],"split_type":[0,0,0,0,0,0,0,0,0,0,0,0,0,0,0,0,0,0,0,0,0,0,0,0,0,0,0],"sum_hessian":[3.706E3,7.2E2,2.986E3,4.24E2,2.96E2,2.337E3,6.49E2,2.05E2,2.19E2,1.1E2,1.86E2,1.929E3,4.08E2,2.43E2,4.06E2,1.9E1,9.1E1,9.2E1,9.4E1,1.09E2,1.82E3,6.8E1,3.4E2,4.3E1,2E2,7E1,3.36E2],"tree_param":{"num_deleted":"0","num_feature":"2","num_nodes":"27","size_leaf_vector":"1"}},{"base_weights":[-3.439359E-3,-5.5014586E0,1.3236699E0,-7.231878E0,-3.0067458E0,2.5952492E0,-3.252139E0,-8.13205E0,-5.985319E-1,1.2433482E0,-5.51345E0,3.03574E0,5.103041E-1,-6.6991577E0,-2.5143137E0,-8.535693E-1,-7.4546355E-1,-1.3588728E-1,1.7955337E-1,-4.0771008E-1,-6.861524E-1,4.628542E-1,2.2081517E-1,-2.9478785E-1,1.2085571E-1,-4.908599E-1,-7.714445E-1,-1.4988048E-1,-5.4975504E-1],"categories":[],"categories_nodes":[],"categories_segments":[],"categories_sizes":[],"default_left":[0,0,0,0,0,0,0,0,0,0,0,0,0,0,0,0,0,0,0,0,0,0,0,0,0,0,0,0,0],"id":3,"left_children":[1,3,5,7,9,11,13,15,-1,17,19,21,23,25,27,-1,-1,-1,-1,-1,-1,-1,-1,-1,-1,-1,-1,-1,-1],"loss_changes":[2.7055307E4,3.0907402E3,1.738831E4,4.2822656E2,3.1710127E3,2.145668E3,1.6363003E3,3.086914E0,0E0,1.6193677E2,3.3411426E2,2.533875E3,9.9116943E2,1.6937744E2,1.6186033E3,0E0,0E0,0E0,0E0,0E0,0E0,0E0,0E0,0E0,0E0,0E0,0E0,0E0,0E0],"parents":[2147483647,0,0,1,1,2,2,3,3,4,4,5,5,6,6,7,7,9,9,10,10,11,11,12,12,13,13,14,14],"right_children":[2,4,6,8,10,12,14,16,-1,18,20,22,24,26,28,-1,-1,-1,-1,-1,-1,-1,-1,-1,-1,-1,-1,-1,-1],"split_conditions":[6E0,3E0,2.1E1,6E0,5E0,1.9E1,4E0,2E0,-5.985319E-1,4E0,7E0,5E0,4E0,2.2E1,7E0,-8.535693E-1,-7.4546355E-1,-1.3588728E-1,1.7955337E-1,-4.0771008E-1,-6.861524E-1,4.628542E-1,2.2081517E-1,-2.9478785E-1,1.2085571E-1,-4.908599E-1,-7.714445E-1,-1.4988048E-1,-5.4975504E-1],"split_indices":[1,1,1,0,0,1,0,1,0,1,0,0,0,1,0,0,0,0,0,0,0,0,0,0,0,0,0,0,0],"split_type":[0,0,0,0,0,0,0,0,0,0,0,0,0,0,0,0,0,0,0,0,0,0,0,0,0,0,0,0,0],"sum_hessian":[3.706E3,7.2E2,2.986E3,4.24E2,2.96E2,2.337E3,6.49E2,2.43E2,1.81E2,1.1E2,1.86E2,1.929E3,4.08E2,1.13E2,5.36E2,1.45E2,9.8E1,1.9E1,9.1E1,9.2E1,9.4E1,6.58E2,1.271E3,6.8E1,3.4E2,4.3E1,7E1,4.01E2,1.35E2],"tree_param":{"num_deleted":"0","num_feature":"2","num_nodes":"29","size_leaf_vector":"1"}},{"base_weights":[-4.363264E-3,-4.955817E0,1.1908168E0,-6.251037E0,-2.2505927E0,2.3359423E0,-2.9299436E0,-6.513861E0,-4.378794E0,1.6179322E0,-4.7065215E0,-1.617863E0,2.5300126E0,-9.137622E-1,-4.1314626E0,-7.3253983E-1,-5.390076E-1,-1.22977994E-1,-5.7106465E-1,1.7476663E-1,1.1527448E-1,-3.1256625E-1,-6.1192364E-1,4.9418646E-1,-3.3139524E-1,2.9938105E-1,4.5884874E-2,-4.428895E-1,-1.3973436E-2,-3.379274E-1,-6.6347754E-1],"categories":[],"categories_nodes":[],"categories_segments":[],"categories_sizes":[],"default_left":[0,0,0,0,0,0,0,0,0,0,0,0,0,0,0,0,0,0,0,0,0,0,0,0,0,0,0,0,0,0,0],"id":4,"left_children":[1,3,5,7,9,11,13,15,17,19,21,23,25,27,29,-1,-1,-1,-1,-1,-1,-1,-1,-1,-1,-1,-1,-1,-1,-1,-1],"loss_changes":[2.1943479E4,2.5122168E3,1.4101863E4,2.1111328E2,2.2403079E3,1.7980791E3,1.5708369E3,3.4811328E2,2.5720044E2,3.5376434E0,3.0246875E2,1.2402244E3,2.1398066E3,6.632589E2,7.439458E2,0E0,0E0,0E0,0E0,0E0,0E0,0E0,0E0,0E0,0E0,0E0,0E0,0E0,0E0,0E0,0E0],"parents":[2147483647,0,0,1,1,2,2,3,3,4,4,5,5,6,6,7,7,8,8,9,9,10,10,11,11,12,12,13,13,14,14],"right_children":[2,4,6,8,10,12,14,16,18,20,22,24,26,28,30,-1,-1,-1,-1,-1,-1,-1,-1,-1,-1,-1,-1,-1,-1,-1,-1],"split_conditions":[6E0,4E0,2.1E1,3E0,5E0,7E0,2.2E1,6E0,4E0,4E0,7E0,4E0,1.9E1,4E0,7E0,-7.3253983E-1,-5.390076E-1,-1.22977994E-1,-5.7106465E-1,1.7476663E-1,1.1527448E-1,-3.1256625E-1,-6.1192364E-1,4.9418646E-1,-3.3139524E-1,2.9938105E-1,4.5884874E-2,-4.428895E-1,-1.3973436E-2,-3.379274E-1,-6.6347754E-1],"split_indices":[1,1,1,1,0,1,1,0,0,0,0,0,1,0,0,0,0,0,0,0,0,0,0,0,0,0,0,0,0,0,0],"split_type":[0,0,0,0,0,0,0,0,0,0,0,0,0,0,0,0,0,0,0,0,0,0,0,0,0,0,0,0,0,0,0],"sum_hessian":[3.706E3,7.2E2,2.986E3,4.86E2,2.34E2,2.337E3,6.49E2,4.24E2,6.2E1,9.1E1,1.43E2,1.09E2,2.228E3,2.43E2,4.06E2,2.43E2,1.81E2,1.9E1,4.3E1,6.9E1,2.2E1,6.9E1,7.4E1,2.2E1,8.7E1,1.82E3,4.08E2,4.3E1,2E2,3.14E2,9.2E1],"tree_param":{"num_deleted":"0","num_feature":"2","num_nodes":"31","size_leaf_vector":"1"}},{"base_weights":[-4.884762E-3,-4.463842E0,1.0714169E0,-5.6299696E0,-2.0282335E0,2.102565E0,-2.6391926E0,-5.865467E0,-3.9519312E0,1.4592917E0,-4.2422895E0,-1.4545969E0,2.277166E0,-8.242586E-1,-3.7207766E0,-6.754919E-1,-5.005955E-1,-1.1129507E-1,-5.1525605E-1,1.5753964E-1,1.04248226E-1,-2.817562E-1,-5.515472E-1,4.4691643E-1,-2.9863232E-1,2.8935066E-1,9.462413E-2,-3.9960715E-1,-1.2583065E-2,-6.620698E-1,-3.098773E-1],"categories":[],"categories_nodes":[],"categories_segments":[],"categories_sizes":[],"default_left":[0,0,0,0,0,0,0,0,0,0,0,0,0,0,0,0,0,0,0,0,0,0,0,0,0,0,0,0,0,0,0],"id":5,"left_children":[1,3,5,7,9,11,13,15,17,19,21,23,25,27,29,-1,-1,-1,-1,-1,-1,-1,-1,-1,-1,-1,-1,-1,-1,-1,-1],"loss_changes":[1.7795355E4,2.0363857E3,1.1434375E4,1.6926953E2,1.8207615E3,1.4554062E3,1.2728853E3,2.9109473E2,2.0900488E2,2.8098755E0,2.456665E2,1.01144025E3,1.8257168E3,5.400261E2,7.1361475E2,0E0,0E0,0E0,0E0,0E0,0E0,0E0,0E0,0E0,0E0,0E0,0E0,0E0,0E0,0E0,0E0],"parents":[2147483647,0,0,1,1,2,2,3,3,4,4,5,5,6,6,7,7,8,8,9,9,10,10,11,11,12,12,13,13,14,14],"right_children":[2,4,6,8,10,12,14,16,18,20,22,24,26,28,30,-1,-1,-1,-1,-1,-1,-1,-1,-1,-1,-1,-1,-1,-1,-1,-1],"split_conditions":[6E0,4E0,2.1E1,3E0,5E0,7E0,2.2E1,5E0,4E0,4E0,7E0,4E0,1.7E1,4E0,4E0,-6.754919E-1,-5.005955E-1,-1.1129507E-1,-5.1525605E-1,1.5753964E-1,1.04248226E-1,-2.817562E-1,-5.515472E-1,4.4691643E-1,-2.9863232E-1,2.8935066E-1,9.462413E-2,-3.9960715E-1,-1.2583065E-2,-6.620698E-1,-3.098773E-1],"split_indices":[1,1,1,1,0,1,1,0,0,0,0,0,1,0,0,0,0,0,0,0,0,0,0,0,0,0,0,0,0,0,0],"split_type":[0,0,0,0,0,0,0,0,0,0,0,0,0,0,0,0,0,0,0,0,0,0,0,0,0,0,0,0,0,0,0],"sum_hessian":[3.706E3,7.2E2,2.986E3,4.86E2,2.34E2,2.337E3,6.49E2,4.24E2,6.2E1,9.1E1,1.43E2,1.09E2,2.228E3,2.43E2,4.06E2,2.05E2,2.19E2,1.9E1,4.3E1,6.9E1,2.2E1,6.9E1,7.4E1,2.2E1,8.7E1,1.522E3,7.06E2,4.3E1,2E2,7E1,3.36E2],"tree_param":{"num_deleted":"0","num_feature":"2","num_nodes":"31","size_leaf_vector":"1"}},{"base_weights":[-5.266537E-3,-4.0207505E0,9.6399003E-1,-5.0706744E0,-1.827842E0,1.8925364E0,-2.3774028E0,-5.597095E0,-4.432811E0,1.3162082E0,-3.8238475E0,2.2250822E0,3.186827E-1,-7.4352235E-1,-3.3510869E0,-5.950375E-1,-1.00722075E-1,-3.780819E-1,-4.6969557E-1,1.4201075E-1,9.427668E-2,-2.5398305E-1,-4.9712786E-1,3.60136E-1,1.5103085E-1,-2.7958366E-1,9.4795875E-2,-3.6055467E-1,-1.1331049E-2,-2.6552603E-1,-5.671886E-1],"categories":[],"categories_nodes":[],"categories_segments":[],"categories_sizes":[],"default_left":[0,0,0,0,0,0,0,0,0,0,0,0,0,0,0,0,0,0,0,0,0,0,0,0,0,0,0,0,0,0,0],"id":6,"left_children":[1,3,5,7,9,11,13,15,17,19,21,23,25,27,29,-1,-1,-1,-1,-1,-1,-1,-1,-1,-1,-1,-1,-1,-1,-1,-1],"loss_changes":[1.4431647E4,1.6507529E3,9.27208E3,1.3871582E2,1.4797852E3,1.2229492E3,1.0315828E3,4.2046387E2,2.099121E1,2.2307892E0,1.9953198E2,1.8931553E3,8.0424634E2,4.3968982E2,6.421929E2,0E0,0E0,0E0,0E0,0E0,0E0,0E0,0E0,0E0,0E0,0E0,0E0,0E0,0E0,0E0,0E0],"parents":[2147483647,0,0,1,1,2,2,3,3,4,4,5,5,6,6,7,7,8,8,9,9,10,10,11,11,12,12,13,13,14,14],"right_children":[2,4,6,8,10,12,14,16,18,20,22,24,26,28,30,-1,-1,-1,-1,-1,-1,-1,-1,-1,-1,-1,-1,-1,-1,-1,-1],"split_conditions":[6E0,4E0,2.1E1,6E0,5E0,1.9E1,2.2E1,3E0,1E0,4E0,7E0,5E0,4E0,4E0,7E0,-5.950375E-1,-1.00722075E-1,-3.780819E-1,-4.6969557E-1,1.4201075E-1,9.427668E-2,-2.5398305E-1,-4.9712786E-1,3.60136E-1,1.5103085E-1,-2.7958366E-1,9.4795875E-2,-3.6055467E-1,-1.1331049E-2,-2.6552603E-1,-5.671886E-1],"split_indices":[1,1,1,0,0,1,1,1,1,0,0,0,0,0,0,0,0,0,0,0,0,0,0,0,0,0,0,0,0,0,0],"split_type":[0,0,0,0,0,0,0,0,0,0,0,0,0,0,0,0,0,0,0,0,0,0,0,0,0,0,0,0,0,0,0],"sum_hessian":[3.706E3,7.2E2,2.986E3,4.86E2,2.34E2,2.337E3,6.49E2,2.62E2,2.24E2,9.1E1,1.43E2,1.929E3,4.08E2,2.43E2,4.06E2,2.43E2,1.9E1,6.9E1,1.55E2,6.9E1,2.2E1,6.9E1,7.4E1,6.58E2,1.271E3,6.8E1,3.4E2,4.3E1,2E2,3.14E2,9.2E1],"tree_param":{"num_deleted":"0","num_feature":"2","num_nodes":"31","size_leaf_vector":"1"}},{"base_weights":[-5.532104E-3,-3.34463E0,9.57448E-1,-4.5667763E0,-1.6047175E0,1.8607092E0,-2.141516E0,-5.040031E0,-3.9932976E0,1.7039822E0,-3.2306354E0,2.3821566E0,7.347896E-1,-4.8094573E0,-1.5711496E0,-5.357777E-1,-9.115345E-2,-3.408138E-1,-4.2302713E-1,1.187156E-1,3.6972007E-1,-2.3997243E-1,-4.047905E-1,1.1066256E-1,2.8780922E-1,-6.607293E-2,1.0805275E-1,-3.2531863E-1,-5.706168E-1,-7.801406E-2,-3.8977265E-1],"categories":[],"categories_nodes":[],"categories_segments":[],"categories_sizes":[],"default_left":[0,0,0,0,0,0,0,0,0,0,0,0,0,0,0,0,0,0,0,0,0,0,0,0,0,0,0,0,0,0,0],"id":7,"left_children":[1,3,5,7,9,11,13,15,17,19,21,23,25,27,29,-1,-1,-1,-1,-1,-1,-1,-1,-1,-1,-1,-1,-1,-1,-1,-1],"loss_changes":[1.1923005E4,1.7576074E3,8.060007E3,1.120459E2,1.856113E3,1.3069136E3,9.815513E2,3.4012207E2,1.6782959E1,1.1304767E2,1.4715332E2,9.602363E2,3.4183002E2,1.4052637E2,9.852235E2,0E0,0E0,0E0,0E0,0E0,0E0,0E0,0E0,0E0,0E0,0E0,0E0,0E0,0E0,0E0,0E0],"parents":[2147483647,0,0,1,1,2,2,3,3,4,4,5,5,6,6,7,7,8,8,9,9,10,10,11,11,12,12,13,13,14,14],"right_children":[2,4,6,8,10,12,14,16,18,20,22,24,26,28,30,-1,-1,-1,-1,-1,-1,-1,-1,-1,-1,-1,-1,-1,-1,-1,-1],"split_conditions":[7E0,4E0,2.1E1,6E0,5E0,1.7E1,4E0,3E0,1E0,5E0,7E0,1E1,4E0,2.2E1,7E0,-5.357777E-1,-9.115345E-2,-3.408138E-1,-4.2302713E-1,1.187156E-1,3.6972007E-1,-2.3997243E-1,-4.047905E-1,1.1066256E-1,2.8780922E-1,-6.607293E-2,1.0805275E-1,-3.2531863E-1,-5.706168E-1,-7.801406E-2,-3.8977265E-1],"split_indices":[1,1,1,0,0,1,0,1,1,1,0,1,0,1,0,0,0,0,0,0,0,0,0,0,0,0,0,0,0,0,0],"split_type":[0,0,0,0,0,0,0,0,0,0,0,0,0,0,0,0,0,0,0,0,0,0,0,0,0,0,0,0,0,0,0],"sum_hessian":[3.706E3,8.29E2,2.877E3,4.86E2,3.43E2,2.228E3,6.49E2,2.62E2,2.24E2,1.13E2,2.3E2,1.522E3,7.06E2,1.13E2,5.36E2,2.43E2,1.9E1,6.9E1,1.55E2,9.1E1,2.2E1,1.16E2,1.14E2,4.27E2,1.095E3,1.4E2,5.66E2,4.3E1,7E1,4.01E2,1.35E2],"tree_param":{"num_deleted":"0","num_feature":"2","num_nodes":"31","size_leaf_vector":"1"}},{"base_weights":[-5.6453007E-3,-3.012031E0,8.613824E-1,-4.1129546E0,-1.4447001E0,1.6748359E0,-1.9294623E0,-4.6120853E0,-3.670303E0,1.5378686E0,-2.910363E0,2.0034773E0,2.0752333E-1,-1.2354369E0,-3.961989E0,-4.957381E-1,-8.249391E-2,-3.313375E-1,-3.822132E-1,1.06973104E-1,3.3435553E-1,-2.1618031E-1,-3.646634E-1,3.0420312E-1,1.4435092E-1,-2.4551897E-1,7.457042E-2,-3.829225E-1,-6.681995E-2,-3.360449E-1,-6.912066E-1],"categories":[],"categories_nodes":[],"categories_segments":[],"categories_sizes":[],"default_left":[0,0,0,0,0,0,0,0,0,0,0,0,0,0,0,0,0,0,0,0,0,0,0,0,0,0,0,0,0,0,0],"id":8,"left_children":[1,3,5,7,9,11,13,15,17,19,21,23,25,27,29,-1,-1,-1,-1,-1,-1,-1,-1,-1,-1,-1,-1,-1,-1,-1,-1],"loss_changes":[9.665333E3,1.4262334E3,6.536931E3,9.066992E1,1.5082512E3,1.0744517E3,9.120115E2,2.9013916E2,1.5881348E0,9.2788605E1,1.1943091E2,1.054624E3,5.879365E2,7.124901E2,2.6957983E2,0E0,0E0,0E0,0E0,0E0,0E0,0E0,0E0,0E0,0E0,0E0,0E0,0E0,0E0,0E0,0E0],"parents":[2147483647,0,0,1,1,2,2,3,3,4,4,5,5,6,6,7,7,8,8,9,9,10,10,11,11,12,12,13,13,14,14],"right_children":[2,4,6,8,10,12,14,16,18,20,22,24,26,28,30,-1,-1,-1,-1,-1,-1,-1,-1,-1,-1,-1,-1,-1,-1,-1,-1],"split_conditions":[7E0,4E0,2.1E1,5E0,5E0,1.9E1,2.3E1,3E0,1E0,5E0,7E0,5E0,4E0,4E0,7E0,-4.957381E-1,-8.249391E-2,-3.313375E-1,-3.822132E-1,1.06973104E-1,3.3435553E-1,-2.1618031E-1,-3.646634E-1,3.0420312E-1,1.4435092E-1,-2.4551897E-1,7.457042E-2,-3.829225E-1,-6.681995E-2,-3.360449E-1,-6.912066E-1],"split_indices":[1,1,1,0,0,1,1,1,1,1,0,0,0,0,0,0,0,0,0,0,0,0,0,0,0,0,0,0,0,0,0],"split_type":[0,0,0,0,0,0,0,0,0,0,0,0,0,0,0,0,0,0,0,0,0,0,0,0,0,0,0,0,0,0,0],"sum_hessian":[3.706E3,8.29E2,2.877E3,4.86E2,3.43E2,2.228E3,6.49E2,2.24E2,2.62E2,1.13E2,2.3E2,1.82E3,4.08E2,4.85E2,1.64E2,2.05E2,1.9E1,8.5E1,1.77E2,9.1E1,2.2E1,1.16E2,1.14E2,6.36E2,1.184E3,6.8E1,3.4E2,8.6E1,3.99E2,1.38E2,2.6E1],"tree_param":{"num_deleted":"0","num_feature":"2","num_nodes":"31","size_leaf_vector":"1"}},{"base_weights":[-5.790471E-3,-2.7125523E0,7.7482736E-1,-3.7043116E0,-1.3006357E0,1.5074767E0,-1.7387882E0,-4.0939107E0,-3.23245E0,1.3879533E0,-2.6218414E0,1.945473E0,5.61825E-1,-1.1128186E0,-3.5720155E0,-4.3515047E-1,-7.465699E-2,-2.7455887E-1,-3.4301928E-1,9.639212E-2,3.0237362E-1,-1.9474709E-1,-3.2851416E-1,7.7639E-2,2.4002376E-1,-6.3205704E-2,8.577254E-2,-3.450704E-1,-6.0154647E-2,-3.0268213E-1,-6.246459E-1],"categories":[],"categories_nodes":[],"categories_segments":[],"categories_sizes":[],"default_left":[0,0,0,0,0,0,0,0,0,0,0,0,0,0,0,0,0,0,0,0,0,0,0,0,0,0,0,0,0,0,0],"id":9,"left_children":[1,3,5,7,9,11,13,15,17,19,21,23,25,27,29,-1,-1,-1,-1,-1,-1,-1,-1,-1,-1,-1,-1,-1,-1,-1,-1],"loss_changes":[7.8347944E3,1.157416E3,5.3027427E3,7.629541E1,1.2255886E3,9.2214014E2,7.419292E2,2.2352393E2,1.2243408E1,7.6158554E1,9.693091E1,8.078511E2,2.5030417E2,5.788379E2,2.2167822E2,0E0,0E0,0E0,0E0,0E0,0E0,0E0,0E0,0E0,0E0,0E0,0E0,0E0,0E0,0E0,0E0],"parents":[2147483647,0,0,1,1,2,2,3,3,4,4,5,5,6,6,7,7,8,8,9,9,10,10,11,11,12,12,13,13,14,14],"right_children":[2,4,6,8,10,12,14,16,18,20,22,24,26,28,30,-1,-1,-1,-1,-1,-1,-1,-1,-1,-1,-1,-1,-1,-1,-1,-1],"split_conditions":[7E0,4E0,2.1E1,6E0,5E0,1.7E1,2.3E1,3E0,1E0,5E0,7E0,1E1,4E0,4E0,7E0,-4.3515047E-1,-7.465699E-2,-2.7455887E-1,-3.4301928E-1,9.639212E-2,3.0237362E-1,-1.9474709E-1,-3.2851416E-1,7.7639E-2,2.4002376E-1,-6.3205704E-2,8.577254E-2,-3.450704E-1,-6.0154647E-2,-3.0268213E-1,-6.246459E-1],"split_indices":[1,1,1,0,0,1,1,1,1,1,0,1,0,0,0,0,0,0,0,0,0,0,0,0,0,0,0,0,0,0,0],"split_type":[0,0,0,0,0,0,0,0,0,0,0,0,0,0,0,0,0,0,0,0,0,0,0,0,0,0,0,0,0,0,0],"sum_hessian":[3.706E3,8.29E2,2.877E3,4.86E2,3.43E2,2.228E3,6.49E2,2.62E2,2.24E2,1.13E2,2.3E2,1.522E3,7.06E2,4.85E2,1.64E2,2.43E2,1.9E1,6.9E1,1.55E2,9.1E1,2.2E1,1.16E2,1.14E2,4.27E2,1.095E3,1.4E2,5.66E2,8.6E1,3.99E2,1.38E2,2.6E1],"tree_param":{"num_deleted":"0","num_feature":"2","num_nodes":"31","size_leaf_vector":"1"}},{"base_weights":[-5.8168E-3,-2.4428053E0,6.9699985E-1,-3.3361952E0,-1.1709341E0,1.1976277E0,-2.3453808E0,-3.7506716E0,-2.96892E0,1.2526561E0,-2.3619225E0,1.6326939E0,-1.9325133E-2,-1.7705318E0,-4.267231E0,-4.0310106E-1,-6.756454E-2,-2.6846462E-1,-3.0895865E-1,8.685771E-2,2.7345088E-1,-1.7543885E-1,-2.9594842E-1,2.595578E-1,1.11371495E-1,-2.1987736E-1,4.3190878E-2,-4.4597945E-1,-9.839677E-2,-3.6483416E-1,-5.644948E-1],"categories":[],"categories_nodes":[],"categories_segments":[],"categories_sizes":[],"default_left":[0,0,0,0,0,0,0,0,0,0,0,0,0,0,0,0,0,0,0,0,0,0,0,0,0,0,0,0,0,0,0],"id":10,"left_children":[1,3,5,7,9,11,13,15,17,19,21,23,25,27,29,-1,-1,-1,-1,-1,-1,-1,-1,-1,-1,-1,-1,-1,-1,-1,-1],"loss_changes":[6.3508896E3,9.392031E2,4.3862915E3,6.2999023E1,9.959037E2,1.3088445E3,4.4208765E2,1.912378E2,7.270508E-1,6.2507812E1,7.866992E1,9.0709326E2,6.4215326E2,6.619242E2,5.870215E1,0E0,0E0,0E0,0E0,0E0,0E0,0E0,0E0,0E0,0E0,0E0,0E0,0E0,0E0,0E0,0E0],"parents":[2147483647,0,0,1,1,2,2,3,3,4,4,5,5,6,6,7,7,8,8,9,9,10,10,11,11,12,12,13,13,14,14],"right_children":[2,4,6,8,10,12,14,16,18,20,22,24,26,28,30,-1,-1,-1,-1,-1,-1,-1,-1,-1,-1,-1,-1,-1,-1,-1,-1],"split_conditions":[7E0,4E0,2.2E1,5E0,5E0,1.9E1,7E0,3E0,1E0,5E0,7E0,5E0,4E0,4E0,2.3E1,-4.0310106E-1,-6.756454E-2,-2.6846462E-1,-3.0895865E-1,8.685771E-2,2.7345088E-1,-1.7543885E-1,-2.9594842E-1,2.595578E-1,1.11371495E-1,-2.1987736E-1,4.3190878E-2,-4.4597945E-1,-9.839677E-2,-3.6483416E-1,-5.644948E-1],"split_indices":[1,1,1,0,0,1,0,1,1,1,0,0,0,0,1,0,0,0,0,0,0,0,0,0,0,0,0,0,0,0,0],"split_type":[0,0,0,0,0,0,0,0,0,0,0,0,0,0,0,0,0,0,0,0,0,0,0,0,0,0,0,0,0,0,0],"sum_hessian":[3.706E3,8.29E2,2.877E3,4.86E2,3.43E2,2.471E3,4.06E2,2.24E2,2.62E2,1.13E2,2.3E2,1.82E3,6.51E2,3.14E2,9.2E1,2.05E2,1.9E1,8.5E1,1.77E2,9.1E1,2.2E1,1.16E2,1.14E2,6.36E2,1.184E3,1.11E2,5.4E2,7E1,2.44E2,6.6E1,2.6E1],"tree_param":{"num_deleted":"0","num_feature":"2","num_nodes":"31","size_leaf_vector":"1"}},{"base_weights":[-5.892841E-3,-2.1999214E0,6.268555E-1,-3.0047278E0,-1.0541636E0,1.0779437E0,-2.114464E0,-3.3251958E0,-2.6167824E0,1.130551E0,-2.127771E0,1.5360521E0,1.343463E-1,-1.5952071E0,-3.850501E0,-3.5340056E-1,-6.114587E-2,-2.2103225E-1,-2.782394E-1,7.826634E-2,2.4729471E-1,-1.5804492E-1,-2.6661092E-1,2.444196E-1,1.0631781E-1,-1.8781047E-1,5.366374E-2,-4.0200964E-1,-8.85973E-2,-3.288953E-1,-5.1013607E-1],"categories":[],"categories_nodes":[],"categories_segments":[],"categories_sizes":[],"default_left":[0,0,0,0,0,0,0,0,0,0,0,0,0,0,0,0,0,0,0,0,0,0,0,0,0,0,0,0,0,0,0],"id":11,"left_children":[1,3,5,7,9,11,13,15,17,19,21,23,25,27,29,-1,-1,-1,-1,-1,-1,-1,-1,-1,-1,-1,-1,-1,-1,-1,-1],"loss_changes":[5.1476875E3,7.6218726E2,3.5611475E3,5.184424E1,8.092664E2,1.068365E3,3.6074744E2,1.4686914E2,8.99585E0,5.1302856E1,6.384912E1,7.119851E2,6.559671E2,5.3817975E2,4.854663E1,0E0,0E0,0E0,0E0,0E0,0E0,0E0,0E0,0E0,0E0,0E0,0E0,0E0,0E0,0E0,0E0],"parents":[2147483647,0,0,1,1,2,2,3,3,4,4,5,5,6,6,7,7,8,8,9,9,10,10,11,11,12,12,13,13,14,14],"right_children":[2,4,6,8,10,12,14,16,18,20,22,24,26,28,30,-1,-1,-1,-1,-1,-1,-1,-1,-1,-1,-1,-1,-1,-1,-1,-1],"split_conditions":[7E0,4E0,2.2E1,6E0,5E0,1.8E1,7E0,3E0,1E0,5E0,7E0,5E0,4E0,4E0,2.3E1,-3.5340056E-1,-6.114587E-2,-2.2103225E-1,-2.782394E-1,7.826634E-2,2.4729471E-1,-1.5804492E-1,-2.6661092E-1,2.444196E-1,1.0631781E-1,-1.8781047E-1,5.366374E-2,-4.0200964E-1,-8.85973E-2,-3.288953E-1,-5.1013607E-1],"split_indices":[1,1,1,0,0,1,0,1,1,1,0,0,0,0,1,0,0,0,0,0,0,0,0,0,0,0,0,0,0,0,0],"split_type":[0,0,0,0,0,0,0,0,0,0,0,0,0,0,0,0,0,0,0,0,0,0,0,0,0,0,0,0,0,0,0],"sum_hessian":[3.706E3,8.29E2,2.877E3,4.86E2,3.43E2,2.471E3,4.06E2,2.62E2,2.24E2,1.13E2,2.3E2,1.663E3,8.08E2,3.14E2,9.2E1,2.43E2,1.9E1,6.9E1,1.55E2,9.1E1,2.2E1,1.16E2,1.14E2,5.68E2,1.095E3,1.34E2,6.74E2,7E1,2.44E2,6.6E1,2.6E1],"tree_param":{"num_deleted":"0","num_feature":"2","num_nodes":"31","size_leaf_vector":"1"}},{"base_weights":[-5.8769374E-3,-1.9811497E0,5.637833E-1,-2.7061315E0,-9.490353E-1,1.1055273E0,-1.2948489E0,-3.0534008E0,-2.372873E0,1.0203518E0,-1.9168322E0,1.4360288E0,3.9200616E-1,-7.857459E-1,-2.786541E0,-3.5426182E-1,-2.2258548E-1,-2.5106514E-1,-1.9174993E-1,7.05248E-2,2.2364037E-1,-1.4237551E-1,-2.4018164E-1,3.4596656E-2,1.8603998E-1,-5.595283E-2,6.279398E-2,-2.4889775E-1,-4.133287E-2,-2.4122739E-1,-4.6101186E-1],"categories":[],"categories_nodes":[],"categories_segments":[],"categories_sizes":[],"default_left":[0,0,0,0,0,0,0,0,0,0,0,0,0,0,0,0,0,0,0,0,0,0,0,0,0,0,0,0,0,0,0],"id":12,"left_children":[1,3,5,7,9,11,13,15,17,19,21,23,25,27,29,-1,-1,-1,-1,-1,-1,-1,-1,-1,-1,-1,-1,-1,-1,-1,-1],"loss_changes":[4.172361E3,6.184912E2,2.899297E3,4.9115234E1,6.576084E2,5.250796E2,4.9143677E2,8.725415E1,1.1059326E1,4.21056E1,5.1820557E1,7.038821E2,1.5907208E2,3.0724722E2,1.0149243E2,0E0,0E0,0E0,0E0,0E0,0E0,0E0,0E0,0E0,0E0,0E0,0E0,0E0,0E0,0E0,0E0],"parents":[2147483647,0,0,1,1,2,2,3,3,4,4,5,5,6,6,7,7,8,8,9,9,10,10,11,11,12,12,13,13,14,14],"right_children":[2,4,6,8,10,12,14,16,18,20,22,24,26,28,30,-1,-1,-1,-1,-1,-1,-1,-1,-1,-1,-1,-1,-1,-1,-1,-1],"split_conditions":[7E0,4E0,2.1E1,2E0,5E0,1.7E1,2.3E1,6E0,3E0,5E0,7E0,1E1,4E0,4E0,7E0,-3.5426182E-1,-2.2258548E-1,-2.5106514E-1,-1.9174993E-1,7.05248E-2,2.2364037E-1,-1.4237551E-1,-2.4018164E-1,3.4596656E-2,1.8603998E-1,-5.595283E-2,6.279398E-2,-2.4889775E-1,-4.133287E-2,-2.4122739E-1,-4.6101186E-1],"split_indices":[1,1,1,1,0,1,1,0,1,1,0,1,0,0,0,0,0,0,0,0,0,0,0,0,0,0,0,0,0,0,0],"split_type":[0,0,0,0,0,0,0,0,0,0,0,0,0,0,0,0,0,0,0,0,0,0,0,0,0,0,0,0,0,0,0],"sum_hessian":[3.706E3,8.29E2,2.877E3,4.86E2,3.43E2,2.228E3,6.49E2,2.34E2,2.52E2,1.13E2,2.3E2,1.522E3,7.06E2,4.85E2,1.64E2,1.45E2,8.9E1,1.9E2,6.2E1,9.1E1,2.2E1,1.16E2,1.14E2,4.27E2,1.095E3,1.4E2,5.66E2,8.6E1,3.99E2,1.38E2,2.6E1],"tree_param":{"num_deleted":"0","num_feature":"2","num_nodes":"31","size_leaf_vector":"1"}},{"base_weights":[-5.794735E-3,-1.9508668E0,4.6370736E-1,-2.437612E0,-9.338633E-1,8.1237817E-1,-1.7485361E0,-2.7505152E0,-2.1373358E0,6.3548934E-1,-1.9300201E0,1.0958406E0,-2.7951242E-2,-1.280135E0,-3.3162541E0,-3.0315477E-1,-1.5618856E-1,-2.2609006E-1,-1.7287931E-1,7.303643E-2,3.191095E-2,-1.17881335E-1,-2.605413E-1,2.0231974E-1,6.145323E-2,-1.6651951E-1,3.1104926E-2,-3.3812737E-1,-6.660086E-2,-2.92425E-1,-4.166181E-1],"categories":[],"categories_nodes":[],"categories_segments":[],"categories_sizes":[],"default_left":[0,0,0,0,0,0,0,0,0,0,0,0,0,0,0,0,0,0,0,0,0,0,0,0,0,0,0,0,0,0,0],"id":13,"left_children":[1,3,5,7,9,11,13,15,17,19,21,23,25,27,29,-1,-1,-1,-1,-1,-1,-1,-1,-1,-1,-1,-1,-1,-1,-1,-1],"loss_changes":[3.3861938E3,3.5463403E2,2.3054272E3,3.9878662E1,3.6860693E2,6.148292E2,2.946233E2,7.376526E1,8.863159E0,2.5284538E0,6.9988525E1,8.6020166E2,3.623952E2,4.04213E2,1.8802307E1,0E0,0E0,0E0,0E0,0E0,0E0,0E0,0E0,0E0,0E0,0E0,0E0,0E0,0E0,0E0,0E0],"parents":[2147483647,0,0,1,1,2,2,3,3,4,4,5,5,6,6,7,7,8,8,9,9,10,10,11,11,12,12,13,13,14,14],"right_children":[2,4,6,8,10,12,14,16,18,20,22,24,26,28,30,-1,-1,-1,-1,-1,-1,-1,-1,-1,-1,-1,-1,-1,-1,-1,-1],"split_conditions":[6E0,4E0,2.2E1,2E0,5E0,1.9E1,7E0,7E0,3E0,4E0,7E0,5E0,4E0,4E0,2.3E1,-3.0315477E-1,-1.5618856E-1,-2.2609006E-1,-1.7287931E-1,7.303643E-2,3.191095E-2,-1.17881335E-1,-2.605413E-1,2.0231974E-1,6.145323E-2,-1.6651951E-1,3.1104926E-2,-3.3812737E-1,-6.660086E-2,-2.92425E-1,-4.166181E-1],"split_indices":[1,1,1,1,0,1,0,0,1,0,0,0,0,0,1,0,0,0,0,0,0,0,0,0,0,0,0,0,0,0,0],"split_type":[0,0,0,0,0,0,0,0,0,0,0,0,0,0,0,0,0,0,0,0,0,0,0,0,0,0,0,0,0,0,0],"sum_hessian":[3.706E3,7.2E2,2.986E3,4.86E2,2.34E2,2.58E3,4.06E2,2.34E2,2.52E2,9.1E1,1.43E2,1.929E3,6.51E2,3.14E2,9.2E1,1.88E2,4.6E1,1.9E2,6.2E1,6.9E1,2.2E1,6.9E1,7.4E1,6.58E2,1.271E3,1.11E2,5.4E2,7E1,2.44E2,6.6E1,2.6E1],"tree_param":{"num_deleted":"0","num_feature":"2","num_nodes":"31","size_leaf_vector":"1"}},{"base_weights":[-5.7863416E-3,-1.6280704E0,4.6207383E-1,-2.1956134E0,-8.198685E-1,7.9751253E-1,-1.5764191E0,-2.4774182E0,-1.9251794E0,8.314881E-1,-1.6312745E0,1.0917014E0,-2.5363933E-2,-1.1534065E0,-2.9922528E0,-2.95948E-1,-1.8628387E-1,-2.0359944E-1,-1.558658E-1,5.7308137E-2,1.8289633E-1,-1.2377622E-1,-2.0174456E-1,1.8180446E-1,7.0033245E-2,-1.5001625E-1,2.800017E-2,-3.047909E-1,-5.9967965E-2,-2.6361895E-1,-3.7649935E-1],"categories":[],"categories_nodes":[],"categories_segments":[],"categories_sizes":[],"default_left":[0,0,0,0,0,0,0,0,0,0,0,0,0,0,0,0,0,0,0,0,0,0,0,0,0,0,0,0,0,0,0],"id":14,"left_children":[1,3,5,7,9,11,13,15,17,19,21,23,25,27,29,-1,-1,-1,-1,-1,-1,-1,-1,-1,-1,-1,-1,-1,-1,-1,-1],"loss_changes":[2.814373E3,3.7891187E2,1.9692032E3,3.2344727E1,4.6228912E2,5.984523E2,2.4030737E2,6.410925E1,7.102417E0,2.8335838E1,3.2606262E1,5.1637915E2,2.9405005E2,3.2861893E2,1.5663208E1,0E0,0E0,0E0,0E0,0E0,0E0,0E0,0E0,0E0,0E0,0E0,0E0,0E0,0E0,0E0,0E0],"parents":[2147483647,0,0,1,1,2,2,3,3,4,4,5,5,6,6,7,7,8,8,9,9,10,10,11,11,12,12,13,13,14,14],"right_children":[2,4,6,8,10,12,14,16,18,20,22,24,26,28,30,-1,-1,-1,-1,-1,-1,-1,-1,-1,-1,-1,-1,-1,-1,-1,-1],"split_conditions":[7E0,4E0,2.2E1,2E0,5E0,1.9E1,7E0,5E0,3E0,5E0,7E0,5E0,4E0,4E0,2.3E1,-2.95948E-1,-1.8628387E-1,-2.0359944E-1,-1.558658E-1,5.7308137E-2,1.8289633E-1,-1.2377622E-1,-2.0174456E-1,1.8180446E-1,7.0033245E-2,-1.5001625E-1,2.800017E-2,-3.047909E-1,-5.9967965E-2,-2.6361895E-1,-3.7649935E-1],"split_indices":[1,1,1,1,0,1,0,0,1,1,0,0,0,0,1,0,0,0,0,0,0,0,0,0,0,0,0,0,0,0,0],"split_type":[0,0,0,0,0,0,0,0,0,0,0,0,0,0,0,0,0,0,0,0,0,0,0,0,0,0,0,0,0,0,0],"sum_hessian":[3.706E3,8.29E2,2.877E3,4.86E2,3.43E2,2.471E3,4.06E2,2.34E2,2.52E2,1.13E2,2.3E2,1.82E3,6.51E2,3.14E2,9.2E1,1.29E2,1.05E2,1.9E2,6.2E1,9.1E1,2.2E1,1.16E2,1.14E2,6.36E2,1.184E3,1.11E2,5.4E2,7E1,2.44E2,6.6E1,2.6E1],"tree_param":{"num_deleted":"0","num_feature":"2","num_nodes":"31","size_leaf_vector":"1"}},{"base_weights":[-5.693965E-3,-1.4663801E0,4.1556218E-1,-1.9777802E0,-7.381295E-1,7.178136E-1,-1.4212462E0,-2.2317283E0,-1.7340822E0,7.504465E-1,-1.4695561E0,1.075077E0,1.443083E-1,-1.0392238E0,-2.6999106E0,-2.4698482E-1,-1.2266997E-1,-1.833461E-1,-1.4052664E-1,5.1639616E-2,1.6540197E-1,-1.1150437E-1,-1.8174551E-1,6.044536E-3,1.470321E-1,5.598082E-2,-4.0902685E-2,-2.747411E-1,-5.3995647E-2,-2.3765051E-1,-3.4024388E-1],"categories":[],"categories_nodes":[],"categories_segments":[],"categories_sizes":[],"default_left":[0,0,0,0,0,0,0,0,0,0,0,0,0,0,0,0,0,0,0,0,0,0,0,0,0,0,0,0,0,0,0],"id":15,"left_children":[1,3,5,7,9,11,13,15,17,19,21,23,25,27,29,-1,-1,-1,-1,-1,-1,-1,-1,-1,-1,-1,-1,-1,-1,-1,-1],"loss_changes":[2.281612E3,3.076549E2,1.5988223E3,2.6268677E1,3.7564453E2,5.06339E2,1.96005E2,5.3209717E1,5.690857E0,2.3254768E1,2.6463745E1,6.1067505E2,2.1864415E2,2.6716177E2,1.3043823E1,0E0,0E0,0E0,0E0,0E0,0E0,0E0,0E0,0E0,0E0,0E0,0E0,0E0,0E0,0E0,0E0],"parents":[2147483647,0,0,1,1,2,2,3,3,4,4,5,5,6,6,7,7,8,8,9,9,10,10,11,11,12,12,13,13,14,14],"right_children":[2,4,6,8,10,12,14,16,18,20,22,24,26,28,30,-1,-1,-1,-1,-1,-1,-1,-1,-1,-1,-1,-1,-1,-1,-1,-1],"split_conditions":[7E0,4E0,2.2E1,2E0,5E0,1.7E1,7E0,7E0,3E0,5E0,7E0,1E1,6E0,4E0,2.3E1,-2.4698482E-1,-1.2266997E-1,-1.833461E-1,-1.4052664E-1,5.1639616E-2,1.6540197E-1,-1.1150437E-1,-1.8174551E-1,6.044536E-3,1.470321E-1,5.598082E-2,-4.0902685E-2,-2.747411E-1,-5.3995647E-2,-2.3765051E-1,-3.4024388E-1],"split_indices":[1,1,1,1,0,1,0,0,1,1,0,1,0,0,1,0,0,0,0,0,0,0,0,0,0,0,0,0,0,0,0],"split_type":[0,0,0,0,0,0,0,0,0,0,0,0,0,0,0,0,0,0,0,0,0,0,0,0,0,0,0,0,0,0,0],"sum_hessian":[3.706E3,8.29E2,2.877E3,4.86E2,3.43E2,2.471E3,4.06E2,2.34E2,2.52E2,1.13E2,2.3E2,1.522E3,9.49E2,3.14E2,9.2E1,1.88E2,4.6E1,1.9E2,6.2E1,9.1E1,2.2E1,1.16E2,1.14E2,4.27E2,1.095E3,5.42E2,4.07E2,7E1,2.44E2,6.6E1,2.6E1],"tree_param":{"num_deleted":"0","num_feature":"2","num_nodes":"31","size_leaf_vector":"1"}},{"base_weights":[-5.531185E-3,-1.3206694E0,3.7374967E-1,-1.7814262E0,-6.6453797E-1,8.8979644E-1,-5.148089E-1,-2.0101285E0,-1.561954E0,6.7730576E-1,-1.3238698E0,-3.7885007E-1,1.083545E0,-2.2869249E-1,-2.0619195E0,-2.4207234E-1,-1.4876051E-1,-1.6510746E-1,-1.2669702E-1,4.653178E-2,1.4958094E-1,-1.0044922E-1,-1.63729E-1,1.3933618E-1,-1.8911317E-1,1.5820748E-1,8.339619E-2,-1.5718849E-1,5.296092E-3,-3.2061577E-1,-1.8148139E-1],"categories":[],"categories_nodes":[],"categories_segments":[],"categories_sizes":[],"default_left":[0,0,0,0,0,0,0,0,0,0,0,0,0,0,0,0,0,0,0,0,0,0,0,0,0,0,0,0,0,0,0],"id":16,"left_children":[1,3,5,7,9,11,13,15,17,19,21,23,25,27,29,-1,-1,-1,-1,-1,-1,-1,-1,-1,-1,-1,-1,-1,-1,-1,-1],"loss_changes":[1.8495702E3,2.4973938E2,1.3201298E3,2.1304565E1,3.0524048E2,4.4800928E2,4.678561E2,4.681714E1,4.559326E0,1.9084442E1,2.1478302E1,6.5121515E2,1.9527173E2,3.3829663E2,4.0834778E1,0E0,0E0,0E0,0E0,0E0,0E0,0E0,0E0,0E0,0E0,0E0,0E0,0E0,0E0,0E0,0E0],"parents":[2147483647,0,0,1,1,2,2,3,3,4,4,5,5,6,6,7,7,8,8,9,9,10,10,11,11,12,12,13,13,14,14],"right_children":[2,4,6,8,10,12,14,16,18,20,22,24,26,28,30,-1,-1,-1,-1,-1,-1,-1,-1,-1,-1,-1,-1,-1,-1,-1,-1],"split_conditions":[7E0,4E0,1.9E1,2E0,5E0,9E0,2.3E1,5E0,3E0,5E0,7E0,5E0,5E0,4E0,4E0,-2.4207234E-1,-1.4876051E-1,-1.6510746E-1,-1.2669702E-1,4.653178E-2,1.4958094E-1,-1.0044922E-1,-1.63729E-1,1.3933618E-1,-1.8911317E-1,1.5820748E-1,8.339619E-2,-1.5718849E-1,5.296092E-3,-3.2061577E-1,-1.8148139E-1],"split_indices":[1,1,1,1,0,1,1,0,1,1,0,0,0,0,0,0,0,0,0,0,0,0,0,0,0,0,0,0,0,0,0],"split_type":[0,0,0,0,0,0,0,0,0,0,0,0,0,0,0,0,0,0,0,0,0,0,0,0,0,0,0,0,0,0,0],"sum_hessian":[3.706E3,8.29E2,2.877E3,4.86E2,3.43E2,1.82E3,1.057E3,2.34E2,2.52E2,1.13E2,2.3E2,2.41E2,1.579E3,8.93E2,1.64E2,1.29E2,1.05E2,1.9E2,6.2E1,9.1E1,2.2E1,1.16E2,1.14E2,1.11E2,1.3E2,5.25E2,1.054E3,1.54E2,7.39E2,2.7E1,1.37E2],"tree_param":{"num_deleted":"0","num_feature":"2","num_nodes":"31","size_leaf_vector":"1"}},{"base_weights":[-5.3052255E-3,-1.1895069E0,3.3621413E-1,-1.6046854E0,-5.9828186E-1,6.696173E-1,-8.0761945E-1,-1.8107789E0,-1.4069121E0,6.1129576E-1,-1.1926262E0,-2.8643057E-1,8.769521E-1,-4.4908535E-1,-1.8587706E0,-2.0125078E-1,-9.610443E-2,-1.4868318E-1,-1.1422843E-1,4.1929197E-2,1.3527331E-1,-9.049012E-2,-1.4749847E-1,-9.902202E-2,3.945015E-2,2.5960243E-1,4.4011716E-2,1.6809467E-2,-1.1960762E-1,-2.8969926E-1,-1.6346477E-1],"categories":[],"categories_nodes":[],"categories_segments":[],"categories_sizes":[],"default_left":[0,0,0,0,0,0,0,0,0,0,0,0,0,0,0,0,0,0,0,0,0,0,0,0,0,0,0,0,0,0,0],"id":17,"left_children":[1,3,5,7,9,11,13,15,17,19,21,23,25,27,29,-1,-1,-1,-1,-1,-1,-1,-1,-1,-1,-1,-1,-1,-1,-1,-1],"loss_changes":[1.4996139E3,2.027749E2,1.0980883E3,1.7302368E1,2.4803261E2,4.4208807E2,2.4413312E2,3.8348633E1,3.6522827E0,1.5661713E1,1.7432098E1,1.9112537E2,1.3745994E3,2.2426057E2,3.3658142E1,0E0,0E0,0E0,0E0,0E0,0E0,0E0,0E0,0E0,0E0,0E0,0E0,0E0,0E0,0E0,0E0],"parents":[2147483647,0,0,1,1,2,2,3,3,4,4,5,5,6,6,7,7,8,8,9,9,10,10,11,11,12,12,13,13,14,14],"right_children":[2,4,6,8,10,12,14,16,18,20,22,24,26,28,30,-1,-1,-1,-1,-1,-1,-1,-1,-1,-1,-1,-1,-1,-1,-1,-1],"split_conditions":[7E0,4E0,2.1E1,2E0,5E0,4E0,2.3E1,7E0,3E0,5E0,7E0,1.4E1,5E0,6E0,4E0,-2.0125078E-1,-9.610443E-2,-1.4868318E-1,-1.1422843E-1,4.1929197E-2,1.3527331E-1,-9.049012E-2,-1.4749847E-1,-9.902202E-2,3.945015E-2,2.5960243E-1,4.4011716E-2,1.6809467E-2,-1.1960762E-1,-2.8969926E-1,-1.6346477E-1],"split_indices":[1,1,1,1,0,0,1,0,1,1,0,1,0,0,0,0,0,0,0,0,0,0,0,0,0,0,0,0,0,0,0],"split_type":[0,0,0,0,0,0,0,0,0,0,0,0,0,0,0,0,0,0,0,0,0,0,0,0,0,0,0,0,0,0,0],"sum_hessian":[3.706E3,8.29E2,2.877E3,4.86E2,3.43E2,2.228E3,6.49E2,2.34E2,2.52E2,1.13E2,2.3E2,3.97E2,1.831E3,4.85E2,1.64E2,1.88E2,4.6E1,1.9E2,6.2E1,9.1E1,2.2E1,1.16E2,1.14E2,1.95E2,2.02E2,3.7E2,1.461E3,2.66E2,2.19E2,2.7E1,1.37E2],"tree_param":{"num_deleted":"0","num_feature":"2","num_nodes":"31","size_leaf_vector":"1"}},{"base_weights":[-5.0264397E-3,-9.174735E-1,3.655598E-1,-1.4453675E0,-4.764448E-1,9.8287547E-1,-3.5773715E-1,-1.6309663E0,-1.2672602E0,8.815102E-1,-1.3214959E0,6.097595E-1,1.2677424E0,-1.6468636E0,-9.5987745E-2,-1.9808106E-1,-1.1865256E-1,-1.3389271E-1,-1.02986924E-1,-3.9242613E-4,2.9258797E-1,-9.61486E-2,-1.7991619E-1,-6.2658705E-2,8.9065254E-2,1.4538796E-1,3.871159E-2,-1.4849052E-1,-2.61764E-1,7.8460835E-2,-8.443995E-2],"categories":[],"categories_nodes":[],"categories_segments":[],"categories_sizes":[],"default_left":[0,0,0,0,0,0,0,0,0,0,0,0,0,0,0,0,0,0,0,0,0,0,0,0,0,0,0,0,0,0,0],"id":18,"left_children":[1,3,5,7,9,11,13,15,17,19,21,23,25,27,29,-1,-1,-1,-1,-1,-1,-1,-1,-1,-1,-1,-1,-1,-1,-1,-1],"loss_changes":[1.2538215E3,2.4865771E2,1.1777789E3,1.4031677E1,6.724766E2,1.5047534E2,4.0981705E2,3.418866E1,2.9253845E0,4.072964E2,6.0349243E1,2.1517783E2,1.3155444E2,2.83443E1,6.669605E2,0E0,0E0,0E0,0E0,0E0,0E0,0E0,0E0,0E0,0E0,0E0,0E0,0E0,0E0,0E0,0E0],"parents":[2147483647,0,0,1,1,2,2,3,3,4,4,5,5,6,6,7,7,8,8,9,9,10,10,11,11,12,12,13,13,14,14],"right_children":[2,4,6,8,10,12,14,16,18,20,22,24,26,28,30,-1,-1,-1,-1,-1,-1,-1,-1,-1,-1,-1,-1,-1,-1,-1,-1],"split_conditions":[9E0,4E0,1.8E1,2E0,5E0,1.3E1,4E0,5E0,3E0,4E0,7E0,4E0,1.7E1,2.3E1,6E0,-1.9808106E-1,-1.1865256E-1,-1.3389271E-1,-1.02986924E-1,-3.9242613E-4,2.9258797E-1,-9.61486E-2,-1.7991619E-1,-6.2658705E-2,8.9065254E-2,1.4538796E-1,3.871159E-2,-1.4849052E-1,-2.61764E-1,7.8460835E-2,-8.443995E-2],"split_indices":[1,1,1,1,0,1,0,0,1,0,0,0,1,1,0,0,0,0,0,0,0,0,0,0,0,0,0,0,0,0,0],"split_type":[0,0,0,0,0,0,0,0,0,0,0,0,0,0,0,0,0,0,0,0,0,0,0,0,0,0,0,0,0,0,0],"sum_hessian":[3.706E3,1.07E3,2.636E3,4.86E2,5.84E2,1.422E3,1.214E3,2.34E2,2.52E2,2.24E2,3.6E2,6.17E2,8.05E2,2.04E2,1.01E3,1.29E2,1.05E2,1.9E2,6.2E1,1.57E2,6.7E1,2.07E2,1.53E2,1.14E2,5.03E2,6.64E2,1.41E2,1.77E2,2.7E1,4.64E2,5.46E2],"tree_param":{"num_deleted":"0","num_feature":"2","num_nodes":"31","size_leaf_vector":"1"}},{"base_weights":[-4.724229E-3,-8.26228E-1,3.2892585E-1,-1.3019675E0,-4.287727E-1,8.218049E-1,-4.0744254E-1,-1.4692177E0,-1.1414706E0,7.94658E-1,-1.190111E0,1.2480817E0,6.0849357E-1,-1.8210721E-1,-1.6258811E0,-1.7444277E-1,-1.0064413E-1,-1.2057354E-1,-9.28517E-2,-3.5341663E-4,2.637595E-1,-8.657998E-2,-1.6204138E-1,1.7876016E-2,2.3167236E-1,-4.442338E-2,1.1010676E-1,-1.2948115E-1,5.120532E-3,-1.4130567E-1,-2.661314E-1],"categories":[],"categories_nodes":[],"categories_segments":[],"categories_sizes":[],"default_left":[0,0,0,0,0,0,0,0,0,0,0,0,0,0,0,0,0,0,0,0,0,0,0,0,0,0,0,0,0,0,0],"id":19,"left_children":[1,3,5,7,9,11,13,15,17,19,21,23,25,27,29,-1,-1,-1,-1,-1,-1,-1,-1,-1,-1,-1,-1,-1,-1,-1,-1],"loss_changes":[1.0163412E3,2.0195203E2,9.5740894E2,1.1395508E1,5.458408E2,1.4290942E2,2.901855E2,2.8174072E1,2.3428955E0,3.3098834E2,4.8975372E1,6.006574E2,5.475553E2,2.3215575E2,3.259964E1,0E0,0E0,0E0,0E0,0E0,0E0,0E0,0E0,0E0,0E0,0E0,0E0,0E0,0E0,0E0,0E0],"parents":[2147483647,0,0,1,1,2,2,3,3,4,4,5,5,6,6,7,7,8,8,9,9,10,10,11,11,12,12,13,13,14,14],"right_children":[2,4,6,8,10,12,14,16,18,20,22,24,26,28,30,-1,-1,-1,-1,-1,-1,-1,-1,-1,-1,-1,-1,-1,-1,-1,-1],"split_conditions":[9E0,4E0,1.9E1,2E0,5E0,5E0,2.3E1,6E0,3E0,4E0,7E0,4E0,6E0,4E0,7E0,-1.7444277E-1,-1.0064413E-1,-1.2057354E-1,-9.28517E-2,-3.5341663E-4,2.637595E-1,-8.657998E-2,-1.6204138E-1,1.7876016E-2,2.3167236E-1,-4.442338E-2,1.1010676E-1,-1.2948115E-1,5.120532E-3,-1.4130567E-1,-2.661314E-1],"split_indices":[1,1,1,1,0,0,1,0,1,0,0,0,0,0,0,0,0,0,0,0,0,0,0,0,0,0,0,0,0,0,0],"split_type":[0,0,0,0,0,0,0,0,0,0,0,0,0,0,0,0,0,0,0,0,0,0,0,0,0,0,0,0,0,0,0],"sum_hessian":[3.706E3,1.07E3,2.636E3,4.86E2,5.84E2,1.579E3,1.057E3,2.34E2,2.52E2,2.24E2,3.6E2,5.25E2,1.054E3,8.93E2,1.64E2,1.45E2,8.9E1,1.9E2,6.2E1,1.57E2,6.7E1,2.07E2,1.53E2,2.63E2,2.62E2,3.36E2,7.18E2,1.54E2,7.39E2,1.38E2,2.6E1],"tree_param":{"num_deleted":"0","num_feature":"2","num_nodes":"31","size_leaf_vector":"1"}},{"base_weights":[-4.4379747E-3,-7.440475E-1,2.959512E-1,-1.1727738E0,-3.8587007E-1,8.0593103E-1,-3.015774E-1,-1.3234664E0,-1.0281671E0,7.163627E-1,-1.0717884E0,5.258327E-1,1.1138003E0,-1.370304E0,-8.457387E-2,-1.4833544E-1,-6.5235384E-2,-1.0857933E-1,-8.371391E-2,-3.183208E-4,2.3777142E-1,-8.138755E-2,-1.5183997E-1,-8.530457E-2,8.150371E-2,1.9023232E-1,7.672971E-2,-1.11428514E-1,-1.8378006E-1,7.0167355E-2,-7.5280145E-2],"categories":[],"categories_nodes":[],"categories_segments":[],"categories_sizes":[],"default_left":[0,0,0,0,0,0,0,0,0,0,0,0,0,0,0,0,0,0,0,0,0,0,0,0,0,0,0,0,0,0,0],"id":20,"left_children":[1,3,5,7,9,11,13,15,17,19,21,23,25,27,29,-1,-1,-1,-1,-1,-1,-1,-1,-1,-1,-1,-1,-1,-1,-1,-1],"loss_changes":[8.23807E2,1.6401031E2,8.038095E2,9.251587E0,4.4305212E2,1.2212488E2,2.816638E2,2.4248474E1,1.8760986E0,2.6897675E2,4.034662E1,2.9858228E2,1.8351416E2,2.248816E1,5.316997E2,0E0,0E0,0E0,0E0,0E0,0E0,0E0,0E0,0E0,0E0,0E0,0E0,0E0,0E0,0E0,0E0],"parents":[2147483647,0,0,1,1,2,2,3,3,4,4,5,5,6,6,7,7,8,8,9,9,10,10,11,11,12,12,13,13,14,14],"right_children":[2,4,6,8,10,12,14,16,18,20,22,24,26,28,30,-1,-1,-1,-1,-1,-1,-1,-1,-1,-1,-1,-1,-1,-1,-1,-1],"split_conditions":[9E0,4E0,1.8E1,2E0,5E0,1.4E1,4E0,7E0,3E0,4E0,7E0,4E0,5E0,2.2E1,6E0,-1.4833544E-1,-6.5235384E-2,-1.0857933E-1,-8.371391E-2,-3.183208E-4,2.3777142E-1,-8.138755E-2,-1.5183997E-1,-8.530457E-2,8.150371E-2,1.9023232E-1,7.672971E-2,-1.11428514E-1,-1.8378006E-1,7.0167355E-2,-7.5280145E-2],"split_indices":[1,1,1,1,0,1,0,0,1,0,1,0,0,1,0,0,0,0,0,0,0,0,0,0,0,0,0,0,0,0,0],"split_type":[0,0,0,0,0,0,0,0,0,0,0,0,0,0,0,0,0,0,0,0,0,0,0,0,0,0,0,0,0,0,0],"sum_hessian":[3.706E3,1.07E3,2.636E3,4.86E2,5.84E2,1.422E3,1.214E3,2.34E2,2.52E2,2.24E2,3.6E2,7.46E2,6.76E2,2.04E2,1.01E3,1.88E2,4.6E1,1.9E2,6.2E1,1.57E2,6.7E1,2.3E2,1.3E2,1.29E2,6.17E2,2.05E2,4.71E2,1.34E2,7E1,4.64E2,5.46E2],"tree_param":{"num_deleted":"0","num_feature":"2","num_nodes":"31","size_leaf_vector":"1"}},{"base_weights":[-4.1123643E-3,-6.700177E-1,2.6634222E-1,-1.0563298E0,-3.4727576E-1,4.8335522E-1,-9.2388463E-1,-1.1920285E0,-9.261105E-1,6.4578193E-1,-9.6525556E-1,7.8263646E-1,7.89743E-2,-5.9444267E-1,-2.0298024E-1,-1.4639579E-1,-8.472847E-2,-8.2831286E-2,-1.0399456E-1,-2.8666484E-4,2.143439E-1,-6.678164E-2,-1.3607237E-1,4.7324494E-2,1.2123618E-1,3.6657605E-2,-3.0398337E-2,-1.3094398E-1,1.4269823E-2],"categories":[],"categories_nodes":[],"categories_segments":[],"categories_sizes":[],"default_left":[0,0,0,0,0,0,0,0,0,0,0,0,0,0,0,0,0,0,0,0,0,0,0,0,0,0,0,0,0],"id":21,"left_children":[1,3,5,7,9,11,13,15,17,19,21,23,25,27,-1,-1,-1,-1,-1,-1,-1,-1,-1,-1,-1,-1,-1,-1,-1],"loss_changes":[6.6779865E2,1.3316452E2,6.815697E2,7.501648E0,3.5963174E2,2.699419E2,1.4707806E2,2.0789917E1,1.9551849E0,2.1858313E2,4.155487E1,1.698725E2,1.0474376E2,1.6620874E2,0E0,0E0,0E0,0E0,0E0,0E0,0E0,0E0,0E0,0E0,0E0,0E0,0E0,0E0,0E0],"parents":[2147483647,0,0,1,1,2,2,3,3,4,4,5,5,6,6,7,7,8,8,9,9,10,10,11,11,12,12,13,13],"right_children":[2,4,6,8,10,12,14,16,18,20,22,24,26,28,-1,-1,-1,-1,-1,-1,-1,-1,-1,-1,-1,-1,-1,-1,-1],"split_conditions":[9E0,4E0,2.2E1,2E0,5E0,1.7E1,7E0,5E0,7E0,4E0,7E0,1.4E1,6E0,5E0,-2.0298024E-1,-1.4639579E-1,-8.472847E-2,-8.2831286E-2,-1.0399456E-1,-2.8666484E-4,2.143439E-1,-6.678164E-2,-1.3607237E-1,4.7324494E-2,1.2123618E-1,3.6657605E-2,-3.0398337E-2,-1.3094398E-1,1.4269823E-2],"split_indices":[1,1,1,1,0,1,0,0,0,0,0,1,0,0,0,0,0,0,0,0,0,0,0,0,0,0,0,0,0],"split_type":[0,0,0,0,0,0,0,0,0,0,0,0,0,0,0,0,0,0,0,0,0,0,0,0,0,0,0,0,0],"sum_hessian":[3.706E3,1.07E3,2.636E3,4.86E2,5.84E2,2.23E3,4.06E2,2.34E2,2.52E2,2.24E2,3.6E2,1.281E3,9.49E2,3.14E2,9.2E1,1.29E2,1.05E2,1.4E2,1.12E2,1.57E2,6.7E1,2.07E2,1.53E2,7.46E2,5.35E2,5.42E2,4.07E2,1.59E2,1.55E2],"tree_param":{"num_deleted":"0","num_feature":"2","num_nodes":"29","size_leaf_vector":"1"}},{"base_weights":[-3.8501376E-3,-6.0339576E-1,2.396528E-1,-9.5155525E-1,-3.1252903E-1,4.3509772E-1,-8.322816E-1,-1.0738094E0,-8.3423793E-1,5.8215487E-1,-8.692918E-1,7.0450366E-1,7.108352E-2,-5.353688E-1,-1.8290048E0,-1.2094333E-1,-5.055807E-2,-7.460689E-2,-9.3687154E-2,-2.5820252E-4,1.9322471E-1,-6.3215226E-2,-1.280818E-1,4.259832E-2,1.0913513E-1,-6.1761703E-2,2.3620715E-2,-1.1793142E-1,1.2851983E-2,-1.6775545E-1,-2.137085E-1],"categories":[],"categories_nodes":[],"categories_segments":[],"categories_sizes":[],"default_left":[0,0,0,0,0,0,0,0,0,0,0,0,0,0,0,0,0,0,0,0,0,0,0,0,0,0,0,0,0,0,0],"id":22,"left_children":[1,3,5,7,9,11,13,15,17,19,21,23,25,27,29,-1,-1,-1,-1,-1,-1,-1,-1,-1,-1,-1,-1,-1,-1,-1,-1],"loss_changes":[5.413337E2,1.08160645E2,5.528246E2,6.08902E0,2.919102E2,2.1873868E2,1.1946835E2,1.7498901E1,1.5904541E0,1.7763098E2,3.4420013E1,1.3766425E2,1.08180565E2,1.3481656E2,7.541809E-1,0E0,0E0,0E0,0E0,0E0,0E0,0E0,0E0,0E0,0E0,0E0,0E0,0E0,0E0,0E0,0E0],"parents":[2147483647,0,0,1,1,2,2,3,3,4,4,5,5,6,6,7,7,8,8,9,9,10,10,11,11,12,12,13,13,14,14],"right_children":[2,4,6,8,10,12,14,16,18,20,22,24,26,28,30,-1,-1,-1,-1,-1,-1,-1,-1,-1,-1,-1,-1,-1,-1,-1,-1],"split_conditions":[9E0,4E0,2.2E1,2E0,5E0,1.7E1,7E0,7E0,7E0,4E0,7E0,1.4E1,4E0,5E0,2.3E1,-1.2094333E-1,-5.055807E-2,-7.460689E-2,-9.3687154E-2,-2.5820252E-4,1.9322471E-1,-6.3215226E-2,-1.280818E-1,4.259832E-2,1.0913513E-1,-6.1761703E-2,2.3620715E-2,-1.1793142E-1,1.2851983E-2,-1.6775545E-1,-2.137085E-1],"split_indices":[1,1,1,1,0,1,0,0,0,0,1,1,0,0,1,0,0,0,0,0,0,0,0,0,0,0,0,0,0,0,0],"split_type":[0,0,0,0,0,0,0,0,0,0,0,0,0,0,0,0,0,0,0,0,0,0,0,0,0,0,0,0,0,0,0],"sum_hessian":[3.706E3,1.07E3,2.636E3,4.86E2,5.84E2,2.23E3,4.06E2,2.34E2,2.52E2,2.24E2,3.6E2,1.281E3,9.49E2,3.14E2,9.2E1,1.88E2,4.6E1,1.4E2,1.12E2,1.57E2,6.7E1,2.3E2,1.3E2,7.46E2,5.35E2,1.83E2,7.66E2,1.59E2,1.55E2,6.6E1,2.6E1],"tree_param":{"num_deleted":"0","num_feature":"2","num_nodes":"31","size_leaf_vector":"1"}},{"base_weights":[-3.6569017E-3,-5.4337186E-1,2.1554612E-1,-8.5709745E-1,-2.8127316E-1,3.9163888E-1,-7.502488E-1,-9.671582E-1,-7.514793E-1,5.247971E-1,-7.8289235E-1,6.341716E-1,6.3935146E-2,-4.8216537E-1,-1.650206E0,-1.1986754E-1,-6.740978E-2,-8.017843E-2,-5.8703925E-2,-2.3256858E-4,1.7418648E-1,-5.1006485E-2,-1.146303E-1,3.8344145E-2,9.8242015E-2,3.351843E-2,-2.9722232E-2,-1.0621198E-1,1.157505E-2,-1.5123028E-1,-1.9312917E-1],"categories":[],"categories_nodes":[],"categories_segments":[],"categories_sizes":[],"default_left":[0,0,0,0,0,0,0,0,0,0,0,0,0,0,0,0,0,0,0,0,0,0,0,0,0,0,0,0,0,0,0],"id":23,"left_children":[1,3,5,7,9,11,13,15,17,19,21,23,25,27,29,-1,-1,-1,-1,-1,-1,-1,-1,-1,-1,-1,-1,-1,-1,-1,-1],"loss_changes":[4.386817E2,8.782413E1,4.4876712E2,4.9342957E0,2.3694994E2,1.772768E2,9.739862E1,1.5136368E1,1.6221619E0,1.4435147E2,3.52079E1,1.1156293E2,9.31651E1,1.0935359E2,6.8421936E-1,0E0,0E0,0E0,0E0,0E0,0E0,0E0,0E0,0E0,0E0,0E0,0E0,0E0,0E0,0E0,0E0],"parents":[2147483647,0,0,1,1,2,2,3,3,4,4,5,5,6,6,7,7,8,8,9,9,10,10,11,11,12,12,13,13,14,14],"right_children":[2,4,6,8,10,12,14,16,18,20,22,24,26,28,30,-1,-1,-1,-1,-1,-1,-1,-1,-1,-1,-1,-1,-1,-1,-1,-1],"split_conditions":[9E0,4E0,2.2E1,2E0,5E0,1.7E1,7E0,5E0,3E0,4E0,7E0,1.4E1,6E0,5E0,2.3E1,-1.1986754E-1,-6.740978E-2,-8.017843E-2,-5.8703925E-2,-2.3256858E-4,1.7418648E-1,-5.1006485E-2,-1.146303E-1,3.8344145E-2,9.8242015E-2,3.351843E-2,-2.9722232E-2,-1.0621198E-1,1.157505E-2,-1.5123028E-1,-1.9312917E-1],"split_indices":[1,1,1,1,0,1,0,0,1,0,0,1,0,0,1,0,0,0,0,0,0,0,0,0,0,0,0,0,0,0,0],"split_type":[0,0,0,0,0,0,0,0,0,0,0,0,0,0,0,0,0,0,0,0,0,0,0,0,0,0,0,0,0,0,0],"sum_hessian":[3.706E3,1.07E3,2.636E3,4.86E2,5.84E2,2.23E3,4.06E2,2.34E2,2.52E2,2.24E2,3.6E2,1.281E3,9.49E2,3.14E2,9.2E1,1.29E2,1.05E2,1.9E2,6.2E1,1.57E2,6.7E1,2.07E2,1.53E2,7.46E2,5.35E2,5.42E2,4.07E2,1.59E2,1.55E2,6.6E1,2.6E1],"tree_param":{"num_deleted":"0","num_feature":"2","num_nodes":"31","size_leaf_vector":"1"}},{"base_weights":[-3.4573162E-3,-4.8933142E-1,1.9387853E-1,-7.720574E-1,-2.5313163E-1,3.5253823E-1,-6.7630243E-1,-8.712392E-1,-6.768804E-1,4.7309053E-1,-7.05062E-1,-2.7688515E-1,4.7945327E-1,-4.342492E-1,-1.4888881E0,-9.862722E-2,-3.9012264E-2,-5.9877794E-2,-7.683457E-2,-2.0944621E-4,1.5702397E-1,-4.870263E-2,-1.08415484E-1,1.3606896E-2,-1.01203375E-1,1.4764951E-1,2.2616906E-2,7.6260655E-3,-1.0811988E-1,-1.3633296E-1,-1.7453156E-1],"categories":[],"categories_nodes":[],"categories_segments":[],"categories_sizes":[],"default_left":[0,0,0,0,0,0,0,0,0,0,0,0,0,0,0,0,0,0,0,0,0,0,0,0,0,0,0,0,0,0,0],"id":24,"left_children":[1,3,5,7,9,11,13,15,17,19,21,23,25,27,29,-1,-1,-1,-1,-1,-1,-1,-1,-1,-1,-1,-1,-1,-1,-1,-1],"loss_changes":[3.555234E2,7.1325775E1,3.643096E2,4.0074463E0,1.9233162E2,1.7835239E2,7.940588E1,1.262114E1,1.3472748E0,1.17306755E2,2.9310715E1,1.13981186E2,4.686236E2,1.04118805E2,6.148529E-1,0E0,0E0,0E0,0E0,0E0,0E0,0E0,0E0,0E0,0E0,0E0,0E0,0E0,0E0,0E0,0E0],"parents":[2147483647,0,0,1,1,2,2,3,3,4,4,5,5,6,6,7,7,8,8,9,9,10,10,11,11,12,12,13,13,14,14],"right_children":[2,4,6,8,10,12,14,16,18,20,22,24,26,28,30,-1,-1,-1,-1,-1,-1,-1,-1,-1,-1,-1,-1,-1,-1,-1,-1],"split_conditions":[9E0,4E0,2.2E1,2E0,5E0,4E0,7E0,7E0,7E0,4E0,7E0,1.8E1,5E0,2.3E1,2.3E1,-9.862722E-2,-3.9012264E-2,-5.9877794E-2,-7.683457E-2,-2.0944621E-4,1.5702397E-1,-4.870263E-2,-1.08415484E-1,1.3606896E-2,-1.01203375E-1,1.4764951E-1,2.2616906E-2,7.6260655E-3,-1.0811988E-1,-1.3633296E-1,-1.7453156E-1],"split_indices":[1,1,1,1,0,0,0,0,0,0,1,1,0,1,1,0,0,0,0,0,0,0,0,0,0,0,0,0,0,0,0],"split_type":[0,0,0,0,0,0,0,0,0,0,0,0,0,0,0,0,0,0,0,0,0,0,0,0,0,0,0,0,0,0,0],"sum_hessian":[3.706E3,1.07E3,2.636E3,4.86E2,5.84E2,2.23E3,4.06E2,2.34E2,2.52E2,2.24E2,3.6E2,3.74E2,1.856E3,3.14E2,9.2E1,1.88E2,4.6E1,1.4E2,1.12E2,1.57E2,6.7E1,2.3E2,1.3E2,2.4E2,1.34E2,3.75E2,1.481E3,1.76E2,1.38E2,6.6E1,2.6E1],"tree_param":{"num_deleted":"0","num_feature":"2","num_nodes":"31","size_leaf_vector":"1"}},{"base_weights":[-3.2745523E-3,-5.7551366E-1,1.3485323E-1,-2.7592912E-1,-7.170836E-1,2.5220752E-1,-6.0968304E-1,-7.829197E-1,5.5316705E-1,-1.1190815E0,-4.9934462E-1,-2.7309024E-1,3.6686566E-1,-3.9114344E-1,-1.3433421E0,-6.88086E-2,-8.577328E-2,8.312725E-2,4.6580598E-2,-1.3284916E-1,-9.064733E-2,2.325461E-3,-6.9233514E-2,-1.0265849E-3,-9.115801E-2,1.4904477E-1,8.82342E-3,-9.127881E-2,1.4638399E-2,-1.22903146E-1,-1.5772483E-1],"categories":[],"categories_nodes":[],"categories_segments":[],"categories_sizes":[],"default_left":[0,0,0,0,0,0,0,0,0,0,0,0,0,0,0,0,0,0,0,0,0,0,0,0,0,0,0,0,0,0,0],"id":25,"left_children":[1,3,5,7,9,11,13,15,17,19,21,23,25,27,29,-1,-1,-1,-1,-1,-1,-1,-1,-1,-1,-1,-1,-1,-1,-1,-1],"loss_changes":[2.9308676E2,3.0381302E1,2.6114145E2,9.837323E1,4.2243652E1,1.55553E2,6.473033E1,4.3854523E-1,1.7750969E0,6.409073E0,3.2189392E1,7.7687E1,6.632539E2,8.845906E1,5.481262E-1,0E0,0E0,0E0,0E0,0E0,0E0,0E0,0E0,0E0,0E0,0E0,0E0,0E0,0E0,0E0,0E0],"parents":[2147483647,0,0,1,1,2,2,3,3,4,4,5,5,6,6,7,7,8,8,9,9,10,10,11,11,12,12,13,13,14,14],"right_children":[2,4,6,8,10,12,14,16,18,20,22,24,26,28,30,-1,-1,-1,-1,-1,-1,-1,-1,-1,-1,-1,-1,-1,-1,-1,-1],"split_conditions":[6E0,4E0,2.2E1,3E0,6E0,4E0,7E0,2E0,4E0,5E0,7E0,1.8E1,5E0,5E0,2.3E1,-6.88086E-2,-8.577328E-2,8.312725E-2,4.6580598E-2,-1.3284916E-1,-9.064733E-2,2.325461E-3,-6.9233514E-2,-1.0265849E-3,-9.115801E-2,1.4904477E-1,8.82342E-3,-9.127881E-2,1.4638399E-2,-1.22903146E-1,-1.5772483E-1],"split_indices":[1,0,1,1,0,0,0,1,1,0,0,1,0,0,1,0,0,0,0,0,0,0,0,0,0,0,0,0,0,0,0],"split_type":[0,0,0,0,0,0,0,0,0,0,0,0,0,0,0,0,0,0,0,0,0,0,0,0,0,0,0,0,0,0,0],"sum_hessian":[3.706E3,7.2E2,2.986E3,2.32E2,4.88E2,2.58E3,4.06E2,1.44E2,8.8E1,1.7E2,3.18E2,4.62E2,2.118E3,3.14E2,9.2E1,6.8E1,7.6E1,1.9E1,6.9E1,8.3E1,8.7E1,8.6E1,2.32E2,3.28E2,1.34E2,4.2E2,1.698E3,1.59E2,1.55E2,6.6E1,2.6E1],"tree_param":{"num_deleted":"0","num_feature":"2","num_nodes":"31","size_leaf_vector":"1"}},{"base_weights":[-3.1107613E-3,-4.1017112E-1,1.6221528E-1,-1.5654829E-1,-5.923003E-1,4.639946E-1,-1.9136018E-1,-8.465332E-1,4.2662156E-1,-4.866649E-1,-9.8532295E-1,1.8417849E-1,7.955366E-1,-9.494168E-1,-3.74601E-2,-7.056939E-2,-1.16226174E-1,6.567405E-3,1.3598728E-1,-8.168559E-2,-4.1389775E-2,-4.3411335E-1,-3.7727352E-2,8.034394E-2,-7.139407E-2,-1.6036709E-1,9.84885E-2,-8.5478984E-2,-1.5170662E-1,5.488664E-2,-5.358227E-2],"categories":[],"categories_nodes":[],"categories_segments":[],"categories_sizes":[],"default_left":[0,0,0,0,0,0,0,0,0,0,0,0,0,0,0,0,0,0,0,0,0,0,0,0,0,0,0,0,0,0,0],"id":26,"left_children":[1,3,5,7,9,11,13,15,17,19,21,23,25,27,29,-1,-1,-1,-1,-1,-1,-1,-1,-1,-1,-1,-1,-1,-1,-1,-1],"loss_changes":[2.4953903E2,4.937903E1,2.814613E2,1.8102905E2,2.538565E1,1.318663E2,1.4171237E2,8.340012E0,8.210324E1,1.1507233E1,2.6566754E2,4.3049307E2,2.973196E2,9.714798E0,2.957115E2,0E0,0E0,0E0,0E0,0E0,0E0,0E0,0E0,0E0,0E0,0E0,0E0,0E0,0E0,0E0,0E0],"parents":[2147483647,0,0,1,1,2,2,3,3,4,4,5,5,6,6,7,7,8,8,9,9,10,10,11,11,12,12,13,13,14,14],"right_children":[2,4,6,8,10,12,14,16,18,20,22,24,26,28,30,-1,-1,-1,-1,-1,-1,-1,-1,-1,-1,-1,-1,-1,-1,-1,-1],"split_conditions":[9E0,5E0,1.8E1,3E0,7E0,6E0,4E0,4E0,4E0,6E0,8E0,5E0,1E1,2.3E1,6E0,-7.056939E-2,-1.16226174E-1,6.567405E-3,1.3598728E-1,-8.168559E-2,-4.1389775E-2,-4.3411335E-1,-3.7727352E-2,8.034394E-2,-7.139407E-2,-1.6036709E-1,9.84885E-2,-8.5478984E-2,-1.5170662E-1,5.488664E-2,-5.358227E-2],"split_indices":[1,0,1,1,1,0,0,0,0,0,1,0,1,1,0,0,0,0,0,0,0,0,0,0,0,0,0,0,0,0,0],"split_type":[0,0,0,0,0,0,0,0,0,0,0,0,0,0,0,0,0,0,0,0,0,0,0,0,0,0,0,0,0,0,0],"sum_hessian":[3.706E3,1.07E3,2.636E3,4.48E2,6.22E2,1.422E3,1.214E3,2.05E2,2.43E2,4.92E2,1.3E2,7.72E2,6.5E2,2.04E2,1.01E3,1.44E2,6.1E1,1.76E2,6.7E1,8.7E1,4.05E2,1.9E1,1.11E2,4.57E2,3.15E2,4.7E1,6.03E2,1.77E2,2.7E1,4.64E2,5.46E2],"tree_param":{"num_deleted":"0","num_feature":"2","num_nodes":"31","size_leaf_vector":"1"}},{"base_weights":[-3.0498148E-3,-3.697507E-1,1.4588447E-1,-2.3700906E-1,-6.919107E-1,4.499887E-1,-1.4173168E-1,-7.042306E-1,4.6386693E-2,-4.7985289E-1,-2.1219075E-1,2.3331544E-1,7.5111735E-1,-2.3768554E-2,-9.9306697E-1,-7.627867E-2,-5.4853797E-2,3.845439E-2,-3.1100182E-2,-5.8218654E-2,1.1340556E-2,-9.878876E-2,4.8982527E-2,1.4767547E-1,4.4933792E-2,1.30657405E-2,-5.541247E-2,-1.3707776E-1,-9.092339E-2],"categories":[],"categories_nodes":[],"categories_segments":[],"categories_sizes":[],"default_left":[0,0,0,0,0,0,0,0,0,0,0,0,0,0,0,0,0,0,0,0,0,0,0,0,0,0,0,0,0],"id":27,"left_children":[1,3,5,7,9,11,13,15,17,19,-1,21,23,25,27,-1,-1,-1,-1,-1,-1,-1,-1,-1,-1,-1,-1,-1,-1],"loss_changes":[2.0250928E2,4.5636322E1,2.3070975E2,1.006632E2,9.359329E1,8.3470764E1,1.361543E2,2.1980896E0,5.7404156E1,1.6639938E1,0E0,2.3448206E2,1.16711E2,9.76981E1,3.978302E0,0E0,0E0,0E0,0E0,0E0,0E0,0E0,0E0,0E0,0E0,0E0,0E0,0E0,0E0],"parents":[2147483647,0,0,1,1,2,2,3,3,4,4,5,5,6,6,7,7,8,8,9,9,11,11,12,12,13,13,14,14],"right_children":[2,4,6,8,10,12,14,16,18,20,-1,22,24,26,28,-1,-1,-1,-1,-1,-1,-1,-1,-1,-1,-1,-1,-1,-1],"split_conditions":[9E0,7E0,1.7E1,3E0,7E0,1.4E1,2.3E1,5E0,5E0,5E0,-2.1219075E-1,4E0,5E0,7E0,4E0,-7.627867E-2,-5.4853797E-2,3.845439E-2,-3.1100182E-2,-5.8218654E-2,1.1340556E-2,-9.878876E-2,4.8982527E-2,1.4767547E-1,4.4933792E-2,1.30657405E-2,-5.541247E-2,-1.3707776E-1,-9.092339E-2],"split_indices":[1,0,1,1,1,1,1,0,0,1,0,0,0,0,0,0,0,0,0,0,0,0,0,0,0,0,0,0,0],"split_type":[0,0,0,0,0,0,0,0,0,0,0,0,0,0,0,0,0,0,0,0,0,0,0,0,0,0,0,0,0],"sum_hessian":[3.706E3,1.07E3,2.636E3,7.59E2,3.11E2,1.281E3,1.355E3,2.86E2,4.73E2,2.72E2,3.9E1,7.46E2,5.35E2,1.191E3,1.64E2,2.05E2,8.1E1,2.43E2,2.3E2,2.32E2,4E1,1.29E2,6.17E2,1.56E2,3.79E2,9.23E2,2.68E2,2.7E1,1.37E2],"tree_param":{"num_deleted":"0","num_feature":"2","num_nodes":"29","size_leaf_vector":"1"}},{"base_weights":[-2.8823381E-3,-3.3313304E-1,1.3124788E-1,-2.1347089E-1,-6.2355006E-1,2.86218E-1,-3.4292415E-1,-6.342644E-1,4.1763723E-2,-4.3203938E-1,-1.9150215E-1,-1.9005838E-1,3.8147298E-1,-4.7801252E-2,-7.023476E-1,-6.8687834E-2,-4.9435306E-2,3.462474E-2,-2.8003618E-2,-5.242179E-2,1.02341985E-2,-8.898582E-2,2.5902558E-2,1.0475353E-1,2.1817135E-2,-8.55071E-2,3.2802146E-2,-5.363995E-2,-8.8997595E-2],"categories":[],"categories_nodes":[],"categories_segments":[],"categories_sizes":[],"default_left":[0,0,0,0,0,0,0,0,0,0,0,0,0,0,0,0,0,0,0,0,0,0,0,0,0,0,0,0,0],"id":28,"left_children":[1,3,5,7,9,11,13,15,17,19,-1,21,23,25,27,-1,-1,-1,-1,-1,-1,-1,-1,-1,-1,-1,-1,-1,-1],"loss_changes":[1.6425122E2,3.7086205E1,1.9387148E2,8.1651306E1,7.633976E1,9.026352E1,6.891457E1,1.7731247E0,4.6540817E1,1.3501217E1,0E0,1.04567764E2,1.800018E2,1.088942E2,8.645645E0,0E0,0E0,0E0,0E0,0E0,0E0,0E0,0E0,0E0,0E0,0E0,0E0,0E0,0E0],"parents":[2147483647,0,0,1,1,2,2,3,3,4,4,5,5,6,6,7,7,8,8,9,9,11,11,12,12,13,13,14,14],"right_children":[2,4,6,8,10,12,14,16,18,20,-1,22,24,26,28,-1,-1,-1,-1,-1,-1,-1,-1,-1,-1,-1,-1,-1,-1],"split_conditions":[9E0,7E0,2.1E1,3E0,7E0,4E0,6E0,5E0,5E0,5E0,-1.9150215E-1,1.4E1,5E0,4E0,7E0,-6.8687834E-2,-4.9435306E-2,3.462474E-2,-2.8003618E-2,-5.242179E-2,1.02341985E-2,-8.898582E-2,2.5902558E-2,1.0475353E-1,2.1817135E-2,-8.55071E-2,3.2802146E-2,-5.363995E-2,-8.8997595E-2],"split_indices":[1,0,1,1,1,0,0,0,0,1,0,1,0,0,0,0,0,0,0,0,0,0,0,0,0,0,0,0,0],"split_type":[0,0,0,0,0,0,0,0,0,0,0,0,0,0,0,0,0,0,0,0,0,0,0,0,0,0,0,0,0],"sum_hessian":[3.706E3,1.07E3,2.636E3,7.59E2,3.11E2,1.987E3,6.49E2,2.86E2,4.73E2,2.72E2,3.9E1,3.31E2,1.656E3,3.57E2,2.92E2,2.05E2,8.1E1,2.43E2,2.3E2,2.32E2,4E1,1.29E2,2.02E2,3.25E2,1.331E3,1.13E2,2.44E2,1.57E2,1.35E2],"tree_param":{"num_deleted":"0","num_feature":"2","num_nodes":"29","size_leaf_vector":"1"}},{"base_weights":[-2.7225486E-3,1.0898277E-1,-3.456831E-1,-2.854249E-1,2.573413E-1,-1.937705E-1,-9.489541E-1,-9.2048354E-2,-8.13224E-1,-5.1851E-1,3.9352712E-1,-5.9518206E-1,4.989381E-1,-1.3465948E-1,-8.0163276E-1,-3.9529826E-2,1.12718835E-1,-1.2450899E-1,-7.518064E-2,-8.6053245E-2,-7.817901E-3,1.0372193E-1,2.0603012E-2,-3.8899012E-2,-8.883148E-2,9.69599E-2,1.442308E-2,-3.5096046E-2,-1.0062343E-1],"categories":[],"categories_nodes":[],"categories_segments":[],"categories_sizes":[],"default_left":[0,0,0,0,0,0,0,0,0,0,0,0,0,0,0,0,0,0,0,0,0,0,0,0,0,0,0,0,0],"id":29,"left_children":[1,3,5,7,9,11,13,15,17,19,21,23,25,-1,27,-1,-1,-1,-1,-1,-1,-1,-1,-1,-1,-1,-1,-1,-1],"loss_changes":[1.4205476E2,1.6373639E2,8.330423E1,7.8004074E1,2.150107E2,2.0300363E2,9.640823E0,2.0786601E2,4.5013885E0,4.5716064E1,2.085806E2,2.7578476E1,4.4601906E1,0E0,1.218718E1,0E0,0E0,0E0,0E0,0E0,0E0,0E0,0E0,0E0,0E0,0E0,0E0,0E0,0E0],"parents":[2147483647,0,0,1,1,2,2,3,3,4,4,5,5,6,6,7,7,8,8,9,9,10,10,11,11,12,12,14,14],"right_children":[2,4,6,8,10,12,14,16,18,20,22,24,26,-1,28,-1,-1,-1,-1,-1,-1,-1,-1,-1,-1,-1,-1,-1,-1],"split_conditions":[7E0,4E0,2E1,1.8E1,7E0,1.3E1,2.1E1,1.4E1,1.9E1,6E0,1.2E1,7E0,1.6E1,-1.3465948E-1,2.2E1,-3.9529826E-2,1.12718835E-1,-1.2450899E-1,-7.518064E-2,-8.6053245E-2,-7.817901E-3,1.0372193E-1,2.0603012E-2,-3.8899012E-2,-8.883148E-2,9.69599E-2,1.442308E-2,-3.5096046E-2,-1.0062343E-1],"split_indices":[0,0,1,1,1,1,1,1,1,0,1,1,1,0,1,0,0,0,0,0,0,0,0,0,0,0,0,0,0],"split_type":[0,0,0,0,0,0,0,0,0,0,0,0,0,0,0,0,0,0,0,0,0,0,0,0,0,0,0,0,0],"sum_hessian":[3.706E3,2.796E3,9.1E2,7.64E2,2.032E3,7.28E2,1.82E2,5.6E2,2.04E2,3.03E2,1.729E3,4.61E2,2.67E2,4.7E1,1.35E2,4.49E2,1.11E2,2.3E1,1.81E2,1.7E2,1.33E2,3.89E2,1.34E3,2.72E2,1.89E2,1.14E2,1.53E2,4.3E1,9.2E1],"tree_param":{"num_deleted":"0","num_feature":"2","num_nodes":"29","size_leaf_vector":"1"}},{"base_weights":[-2.5535887E-3,3.6925998E-2,-8.502725E-1,-2.73758E-1,1.7146124E-1,-7.949453E-1,-1.1036136E-1,-8.066992E-2,-4.124784E-1,-2.5183535E-1,2.5743717E-1,-1.0836466E-1,-7.156723E-2,-5.6540962E-2,3.2890815E-2,-3.1537708E-2,-7.747568E-2,6.0706334E-3,-6.73581E-2,7.757997E-2,1.2388701E-2],"categories":[],"categories_nodes":[],"categories_segments":[],"categories_sizes":[],"default_left":[0,0,0,0,0,0,0,0,0,0,0,0,0,0,0,0,0,0,0,0,0],"id":30,"left_children":[1,3,5,7,9,11,-1,13,15,17,19,-1,-1,-1,-1,-1,-1,-1,-1,-1,-1],"loss_changes":[1.2409576E2,1.4813707E2,1.4354401E0,2.865374E1,9.00655E1,2.405655E0,0E0,8.932986E1,2.1671364E1,5.513876E1,1.4223541E2,0E0,0E0,0E0,0E0,0E0,0E0,0E0,0E0,0E0,0E0],"parents":[2147483647,0,0,1,1,2,2,3,3,4,4,5,5,7,7,8,8,9,9,10,10],"right_children":[2,4,6,8,10,12,-1,14,16,18,20,-1,-1,-1,-1,-1,-1,-1,-1,-1,-1],"split_conditions":[2.3E1,9E0,7E0,5E0,4E0,4E0,-1.1036136E-1,3E0,7E0,1.8E1,5E0,-1.0836466E-1,-7.156723E-2,-5.6540962E-2,3.2890815E-2,-3.1537708E-2,-7.747568E-2,6.0706334E-3,-6.73581E-2,7.757997E-2,1.2388701E-2],"split_indices":[1,1,0,0,0,0,0,1,1,1,0,0,0,0,0,0,0,0,0,0,0],"split_type":[0,0,0,0,0,0,0,0,0,0,0,0,0,0,0,0,0,0,0,0,0],"sum_hessian":[3.706E3,3.542E3,1.64E2,1.07E3,2.472E3,1.38E2,2.6E1,4.48E2,6.22E2,4.17E2,2.055E3,2.7E1,1.11E2,2.05E2,2.43E2,4.92E2,1.3E2,2.4E2,1.77E2,4.2E2,1.635E3],"tree_param":{"num_deleted":"0","num_feature":"2","num_nodes":"21","size_leaf_vector":"1"}},{"base_weights":[-2.4043592E-3,9.561272E-2,-3.033389E-1,-2.3646699E-1,2.2052436E-1,-1.6559044E-1,-8.5041696E-1,-8.111577E-2,-6.6044533E-1,-4.3517917E-1,3.3561876E-1,-5.148549E-1,4.3711764E-1,-1.22687064E-1,-7.1129787E-1,-3.5236754E-2,1.0094593E-1,-1.0612174E-1,-6.039675E-2,-7.429989E-2,-3.9116926E-3,9.288102E-2,1.6285198E-2,-3.188115E-2,-7.938285E-2,8.612015E-2,1.1759322E-2,-3.287686E-2,-8.846311E-2],"categories":[],"categories_nodes":[],"categories_segments":[],"categories_sizes":[],"default_left":[0,0,0,0,0,0,0,0,0,0,0,0,0,0,0,0,0,0,0,0,0,0,0,0,0,0,0,0,0],"id":31,"left_children":[1,3,5,7,9,11,13,15,17,19,21,23,25,-1,27,-1,-1,-1,-1,-1,-1,-1,-1,-1,-1,-1,-1,-1,-1],"loss_changes":[1.0937336E2,1.1607344E2,6.851137E1,5.0333576E1,1.5357213E2,1.5368283E2,8.71138E0,1.6631093E2,3.9991913E0,3.703332E1,1.771457E2,2.501413E1,3.6214115E1,0E0,8.726646E0,0E0,0E0,0E0,0E0,0E0,0E0,0E0,0E0,0E0,0E0,0E0,0E0,0E0,0E0],"parents":[2147483647,0,0,1,1,2,2,3,3,4,4,5,5,6,6,7,7,8,8,9,9,10,10,11,11,12,12,14,14],"right_children":[2,4,6,8,10,12,14,16,18,20,22,24,26,-1,28,-1,-1,-1,-1,-1,-1,-1,-1,-1,-1,-1,-1,-1,-1],"split_conditions":[7E0,4E0,2E1,1.8E1,7E0,1.3E1,2.1E1,1.4E1,1.9E1,6E0,1.2E1,7E0,1.6E1,-1.22687064E-1,2.2E1,-3.5236754E-2,1.0094593E-1,-1.0612174E-1,-6.039675E-2,-7.429989E-2,-3.9116926E-3,9.288102E-2,1.6285198E-2,-3.188115E-2,-7.938285E-2,8.612015E-2,1.1759322E-2,-3.287686E-2,-8.846311E-2],"split_indices":[0,0,1,1,1,1,1,1,1,0,1,1,1,0,1,0,0,0,0,0,0,0,0,0,0,0,0,0,0],"split_type":[0,0,0,0,0,0,0,0,0,0,0,0,0,0,0,0,0,0,0,0,0,0,0,0,0,0,0,0,0],"sum_hessian":[3.706E3,2.796E3,9.1E2,7.64E2,2.032E3,7.28E2,1.82E2,5.6E2,2.04E2,3.03E2,1.729E3,4.61E2,2.67E2,4.7E1,1.35E2,4.49E2,1.11E2,2.3E1,1.81E2,1.7E2,1.33E2,3.89E2,1.34E3,2.72E2,1.89E2,1.14E2,1.53E2,4.3E1,9.2E1],"tree_param":{"num_deleted":"0","num_feature":"2","num_nodes":"29","size_leaf_vector":"1"}},{"base_weights":[-2.252116E-3,3.2764327E-2,-7.54137E-1,-2.2450532E-1,1.441687E-1,-9.209125E-2,-7.1483374E-1,-4.311654E-2,-3.54873E-1,3.0339086E-1,-2.71962E-2,-6.608833E-2,-9.1215305E-2,-4.6251014E-2,3.1113837E-2,-2.5214667E-2,-7.3876016E-2,4.8434497E-3,5.8950342E-2,8.042646E-3,-3.9677292E-2],"categories":[],"categories_nodes":[],"categories_segments":[],"categories_sizes":[],"default_left":[0,0,0,0,0,0,0,0,0,0,0,0,0,0,0,0,0,0,0,0,0],"id":32,"left_children":[1,3,5,7,9,-1,11,13,15,17,19,-1,-1,-1,-1,-1,-1,-1,-1,-1,-1],"loss_changes":[9.762384E1,1.0157817E2,4.232483E-1,2.5310886E1,6.748427E1,0E0,8.662491E-1,6.685284E1,2.438192E1,9.34885E1,4.744351E1,0E0,0E0,0E0,0E0,0E0,0E0,0E0,0E0,0E0,0E0],"parents":[2147483647,0,0,1,1,2,2,3,3,4,4,6,6,7,7,8,8,9,9,10,10],"right_children":[2,4,6,8,10,-1,12,14,16,18,20,-1,-1,-1,-1,-1,-1,-1,-1,-1,-1],"split_conditions":[2.3E1,9E0,4E0,5E0,1.7E1,-9.209125E-2,7E0,3E0,7E0,6E0,7E0,-6.608833E-2,-9.1215305E-2,-4.6251014E-2,3.1113837E-2,-2.5214667E-2,-7.3876016E-2,4.8434497E-3,5.8950342E-2,8.042646E-3,-3.9677292E-2],"split_indices":[1,1,0,0,1,0,0,1,1,0,0,0,0,0,0,0,0,0,0,0,0],"split_type":[0,0,0,0,0,0,0,0,0,0,0,0,0,0,0,0,0,0,0,0,0],"sum_hessian":[3.706E3,3.542E3,1.64E2,1.07E3,2.472E3,2.7E1,1.37E2,4.48E2,6.22E2,1.281E3,1.191E3,1.11E2,2.6E1,2.05E2,2.43E2,4.92E2,1.3E2,6.78E2,6.03E2,9.23E2,2.68E2],"tree_param":{"num_deleted":"0","num_feature":"2","num_nodes":"21","size_leaf_vector":"1"}},{"base_weights":[-2.1161982E-3,8.450322E-2,-2.6805735E-1,-2.1173929E-1,1.959351E-1,-1.542577E-1,-7.199256E-1,-7.3128045E-2,-5.900279E-1,-3.6664218E-1,2.9467934E-1,-4.4462243E-1,4.1070217E-1,-1.0678883E-1,-5.918217E-1,-3.159663E-2,9.0321444E-2,-9.672245E-2,-5.370458E-2,-6.43809E-2,-1.0208134E-3,8.339101E-2,1.3763635E-2,-1.0320182E-2,-5.8128763E-2,8.791269E-2,1.19072E-2,-2.5786301E-2,-7.4346E-2],"categories":[],"categories_nodes":[],"categories_segments":[],"categories_sizes":[],"default_left":[0,0,0,0,0,0,0,0,0,0,0,0,0,0,0,0,0,0,0,0,0,0,0,0,0,0,0,0,0],"id":33,"left_children":[1,3,5,7,9,11,13,15,17,19,21,23,25,-1,27,-1,-1,-1,-1,-1,-1,-1,-1,-1,-1,-1,-1,-1,-1],"loss_changes":[8.541587E1,9.2372856E1,4.6734802E1,4.006967E1,1.1304377E2,1.1977098E2,7.5252914E0,1.3329474E2,3.5774155E0,3.0026096E1,1.4638583E2,2.243029E1,3.3773808E1,0E0,6.6954536E0,0E0,0E0,0E0,0E0,0E0,0E0,0E0,0E0,0E0,0E0,0E0,0E0,0E0,0E0],"parents":[2147483647,0,0,1,1,2,2,3,3,4,4,5,5,6,6,7,7,8,8,9,9,10,10,11,11,12,12,14,14],"right_children":[2,4,6,8,10,12,14,16,18,20,22,24,26,-1,28,-1,-1,-1,-1,-1,-1,-1,-1,-1,-1,-1,-1,-1,-1],"split_conditions":[7E0,4E0,2E1,1.8E1,7E0,1.4E1,2.1E1,1.4E1,1.9E1,6E0,1.2E1,3E0,1.6E1,-1.0678883E-1,2.2E1,-3.159663E-2,9.0321444E-2,-9.672245E-2,-5.370458E-2,-6.43809E-2,-1.0208134E-3,8.339101E-2,1.3763635E-2,-1.0320182E-2,-5.8128763E-2,8.791269E-2,1.19072E-2,-2.5786301E-2,-7.4346E-2],"split_indices":[0,0,1,1,1,1,1,1,1,0,1,1,1,0,1,0,0,0,0,0,0,0,0,0,0,0,0,0,0],"split_type":[0,0,0,0,0,0,0,0,0,0,0,0,0,0,0,0,0,0,0,0,0,0,0,0,0,0,0,0,0],"sum_hessian":[3.706E3,2.796E3,9.1E2,7.64E2,2.032E3,7.28E2,1.82E2,5.6E2,2.04E2,3.03E2,1.729E3,4.81E2,2.47E2,4.7E1,1.35E2,4.49E2,1.11E2,2.3E1,1.81E2,1.7E2,1.33E2,3.89E2,1.34E3,1.38E2,3.43E2,9.4E1,1.53E2,4.3E1,9.2E1],"tree_param":{"num_deleted":"0","num_feature":"2","num_nodes":"29","size_leaf_vector":"1"}},{"base_weights":[-1.9680823E-3,2.9096173E-2,-6.6899043E-1,1.138474E-1,-2.2557344E-1,-7.803237E-2,-6.4155334E-1,-1.6805555E-1,2.2203186E-1,-5.0745267E-1,-3.3125196E-2,-6.0902517E-2,-7.527236E-2,1.0733782E-2,-3.1280197E-2,-3.3019315E-2,3.2558616E-2,-2.2817591E-2,-1.3779712E-1,2.183239E-2,-6.271028E-2],"categories":[],"categories_nodes":[],"categories_segments":[],"categories_sizes":[],"default_left":[0,0,0,0,0,0,0,0,0,0,0,0,0,0,0,0,0,0,0,0,0],"id":34,"left_children":[1,3,5,7,9,-1,11,13,15,17,19,-1,-1,-1,-1,-1,-1,-1,-1,-1,-1],"loss_changes":[7.683055E1,7.649624E1,3.3950806E-3,8.11302E1,4.7991932E1,0E0,4.0603638E-2,2.9451878E1,1.10017586E2,8.696407E1,7.884706E1,0E0,0E0,0E0,0E0,0E0,0E0,0E0,0E0,0E0,0E0],"parents":[2147483647,0,0,1,1,2,2,3,3,4,4,6,6,7,7,8,8,9,9,10,10],"right_children":[2,4,6,8,10,-1,12,14,16,18,20,-1,-1,-1,-1,-1,-1,-1,-1,-1,-1],"split_conditions":[2.3E1,7E0,4E0,4E0,1E1,-7.803237E-2,7E0,7E0,7E0,7E0,2E1,-6.0902517E-2,-7.527236E-2,1.0733782E-2,-3.1280197E-2,-3.3019315E-2,3.2558616E-2,-2.2817591E-2,-1.3779712E-1,2.183239E-2,-6.271028E-2],"split_indices":[1,0,0,0,1,0,0,1,1,1,1,0,0,0,0,0,0,0,0,0,0],"split_type":[0,0,0,0,0,0,0,0,0,0,0,0,0,0,0,0,0,0,0,0,0],"sum_hessian":[3.706E3,3.542E3,1.64E2,2.658E3,8.84E2,2.7E1,1.37E2,7.37E2,1.921E3,3.58E2,5.26E2,1.11E2,2.6E1,2.54E2,4.83E2,3.03E2,1.618E3,2.72E2,8.6E1,3.7E2,1.56E2],"tree_param":{"num_deleted":"0","num_feature":"2","num_nodes":"21","size_leaf_vector":"1"}},{"base_weights":[-1.8889073E-3,2.6123933E-2,-6.0338956E-1,1.0245492E-1,-2.0324355E-1,-7.050783E-2,-5.783847E-1,-1.5745576E-3,3.763161E-1,-4.5715487E-1,-2.9889844E-2,-5.4866638E-2,-6.802391E-2,-2.3820458E-2,2.7467284E-2,8.50239E-2,-1.7560706E-2,-2.0544188E-2,-1.24175824E-1,1.9655101E-2,-5.6479216E-2],"categories":[],"categories_nodes":[],"categories_segments":[],"categories_sizes":[],"default_left":[0,0,0,0,0,0,0,0,0,0,0,0,0,0,0,0,0,0,0,0,0],"id":35,"left_children":[1,3,5,7,9,-1,11,13,15,17,19,-1,-1,-1,-1,-1,-1,-1,-1,-1,-1],"loss_changes":[6.247776E1,6.205113E1,1.1741638E-2,7.575454E1,3.8940914E1,0E0,4.449463E-2,1.2609574E2,1.9161786E2,7.064554E1,6.3943226E1,0E0,0E0,0E0,0E0,0E0,0E0,0E0,0E0,0E0,0E0],"parents":[2147483647,0,0,1,1,2,2,3,3,4,4,6,6,7,7,8,8,9,9,10,10],"right_children":[2,4,6,8,10,-1,12,14,16,18,20,-1,-1,-1,-1,-1,-1,-1,-1,-1,-1],"split_conditions":[2.3E1,7E0,4E0,6E0,1E1,-7.050783E-2,7E0,1.5E1,1.5E1,7E0,2E1,-5.4866638E-2,-6.802391E-2,-2.3820458E-2,2.7467284E-2,8.50239E-2,-1.7560706E-2,-2.0544188E-2,-1.24175824E-1,1.9655101E-2,-5.6479216E-2],"split_indices":[1,0,0,0,1,0,0,1,1,1,1,0,0,0,0,0,0,0,0,0,0],"split_type":[0,0,0,0,0,0,0,0,0,0,0,0,0,0,0,0,0,0,0,0,0],"sum_hessian":[3.706E3,3.542E3,1.64E2,2.658E3,8.84E2,2.7E1,1.37E2,1.927E3,7.31E2,3.58E2,5.26E2,1.11E2,2.6E1,1.038E3,8.89E2,3.93E2,3.38E2,2.72E2,8.6E1,3.7E2,1.56E2],"tree_param":{"num_deleted":"0","num_feature":"2","num_nodes":"21","size_leaf_vector":"1"}},{"base_weights":[-1.7819853E-3,2.348036E-2,-5.4422265E-1,-1.5861712E-1,1.0233314E-1,-6.3708864E-2,-5.214366E-1,1.23576615E-2,-2.8158513E-1,-1.9069475E-1,1.618581E-1,-4.9428944E-2,-6.147346E-2,-3.493533E-2,3.176859E-2,-1.7673345E-2,-6.740301E-2,-6.521645E-2,1.754667E-3,5.938837E-2,5.0583887E-3],"categories":[],"categories_nodes":[],"categories_segments":[],"categories_sizes":[],"default_left":[0,0,0,0,0,0,0,0,0,0,0,0,0,0,0,0,0,0,0,0,0],"id":36,"left_children":[1,3,5,7,9,-1,11,13,15,17,19,-1,-1,-1,-1,-1,-1,-1,-1,-1,-1],"loss_changes":[5.0810997E1,5.0889786E1,1.6944885E-2,2.2520645E1,4.3166107E1,0E0,4.5669556E-2,4.9698795E1,2.55164E1,4.018004E1,9.880868E1,0E0,0E0,0E0,0E0,0E0,0E0,0E0,0E0,0E0,0E0],"parents":[2147483647,0,0,1,1,2,2,3,3,4,4,6,6,7,7,8,8,9,9,10,10],"right_children":[2,4,6,8,10,-1,12,14,16,18,20,-1,-1,-1,-1,-1,-1,-1,-1,-1,-1],"split_conditions":[2.3E1,9E0,4E0,5E0,4E0,-6.3708864E-2,7E0,3E0,7E0,1.4E1,5E0,-4.9428944E-2,-6.147346E-2,-3.493533E-2,3.176859E-2,-1.7673345E-2,-6.740301E-2,-6.521645E-2,1.754667E-3,5.938837E-2,5.0583887E-3],"split_indices":[1,1,0,0,0,0,0,1,1,1,0,0,0,0,0,0,0,0,0,0,0],"split_type":[0,0,0,0,0,0,0,0,0,0,0,0,0,0,0,0,0,0,0,0,0],"sum_hessian":[3.706E3,3.542E3,1.64E2,1.07E3,2.472E3,2.7E1,1.37E2,4.48E2,6.22E2,4.17E2,2.055E3,1.11E2,2.6E1,2.05E2,2.43E2,4.92E2,1.3E2,1.29E2,2.88E2,4.2E2,1.635E3],"tree_param":{"num_deleted":"0","num_feature":"2","num_nodes":"21","size_leaf_vector":"1"}},{"base_weights":[-1.6744566E-3,5.946368E-2,-1.8938212E-1,-3.2343034E-2,2.9733053E-1,-1.0545527E-1,-5.2267885E-1,-2.106207E-1,1.5650798E-1,7.7688664E-1,-1.9293484E-1,-3.2603443E-1,3.2367623E-1,-8.515711E-2,-4.0275598E-1,3.3603588E-3,-1.1865053E-1,7.1573965E-2,-4.2105681E-4,-2.3837115E-3,1.4574258E-1,1.3269896E-2,-3.6860522E-2,-3.2359888E-3,-4.4375166E-2,7.460838E-2,6.0998374E-3,-1.2112557E-2,-5.3166974E-2],"categories":[],"categories_nodes":[],"categories_segments":[],"categories_sizes":[],"default_left":[0,0,0,0,0,0,0,0,0,0,0,0,0,0,0,0,0,0,0,0,0,0,0,0,0,0,0,0,0],"id":37,"left_children":[1,3,5,7,9,11,13,15,17,19,21,23,25,-1,27,-1,-1,-1,-1,-1,-1,-1,-1,-1,-1,-1,-1,-1,-1],"loss_changes":[4.255315E1,6.1089874E1,2.5427872E1,6.800849E1,1.833004E2,6.9110825E1,6.874851E0,2.4766965E2,8.8174225E1,2.1473474E2,2.2129734E1,1.6648643E1,2.7471848E1,0E0,4.8732224E0,0E0,0E0,0E0,0E0,0E0,0E0,0E0,0E0,0E0,0E0,0E0,0E0,0E0,0E0],"parents":[2147483647,0,0,1,1,2,2,3,3,4,4,5,5,6,6,7,7,8,8,9,9,10,10,11,11,12,12,14,14],"right_children":[2,4,6,8,10,12,14,16,18,20,22,24,26,-1,28,-1,-1,-1,-1,-1,-1,-1,-1,-1,-1,-1,-1,-1,-1],"split_conditions":[7E0,6E0,2E1,1.5E1,1.5E1,1.4E1,2.1E1,1.2E1,1.7E1,9E0,1.9E1,3E0,1.6E1,-8.515711E-2,2.2E1,3.3603588E-3,-1.1865053E-1,7.1573965E-2,-4.2105681E-4,-2.3837115E-3,1.4574258E-1,1.3269896E-2,-3.6860522E-2,-3.2359888E-3,-4.4375166E-2,7.460838E-2,6.0998374E-3,-1.2112557E-2,-5.3166974E-2],"split_indices":[0,0,1,1,1,1,1,1,1,1,1,1,1,0,1,0,0,0,0,0,0,0,0,0,0,0,0,0,0],"split_type":[0,0,0,0,0,0,0,0,0,0,0,0,0,0,0,0,0,0,0,0,0,0,0,0,0,0,0,0,0],"sum_hessian":[3.706E3,2.796E3,9.1E2,2.018E3,7.78E2,7.28E2,1.82E2,1.038E3,9.8E2,3.93E2,3.85E2,4.81E2,2.47E2,4.7E1,1.35E2,8.31E2,2.07E2,2.18E2,7.62E2,1.81E2,2.12E2,1.35E2,2.5E2,1.38E2,3.43E2,9.4E1,1.53E2,4.3E1,9.2E1],"tree_param":{"num_deleted":"0","num_feature":"2","num_nodes":"29","size_leaf_vector":"1"}},{"base_weights":[-1.5181602E-3,2.0381238E-2,-4.717488E-1,-1.5351737E-1,8.4979646E-2,-5.2538645E-2,-4.25646E-1,7.761634E-3,-2.9465166E-1,1.6331862E-1,-1.6717279E-1,-3.8814023E-2,-5.043403E-2,-3.179316E-2,2.8270034E-2,-1.46078495E-2,-3.9422476E-1,5.565408E-2,5.7511437E-3,-1.0476617E-1,-2.1499738E-3],"categories":[],"categories_nodes":[],"categories_segments":[],"categories_sizes":[],"default_left":[0,0,0,0,0,0,0,0,0,0,0,0,0,0,0,0,0,0,0,0,0],"id":38,"left_children":[1,3,5,7,9,-1,11,13,15,17,19,-1,-1,-1,-1,-1,-1,-1,-1,-1,-1],"loss_changes":[3.818344E1,3.9813595E1,1.8439102E-1,2.1853807E1,5.1069992E1,0E0,8.168411E-2,4.0295883E1,2.768948E2,8.2014496E1,7.8603004E1,0E0,0E0,0E0,0E0,0E0,0E0,0E0,0E0,0E0,0E0],"parents":[2147483647,0,0,1,1,2,2,3,3,4,4,6,6,7,7,8,8,9,9,10,10],"right_children":[2,4,6,8,10,-1,12,14,16,18,20,-1,-1,-1,-1,-1,-1,-1,-1,-1,-1],"split_conditions":[2.3E1,8E0,5E0,5E0,7E0,-5.2538645E-2,7E0,3E0,7E0,1.2E1,1E1,-3.8814023E-2,-5.043403E-2,-3.179316E-2,2.8270034E-2,-1.46078495E-2,-3.9422476E-1,5.565408E-2,5.7511437E-3,-1.0476617E-1,-2.1499738E-3],"split_indices":[1,1,0,0,0,0,0,1,1,1,1,0,0,0,0,0,0,0,0,0,0],"split_type":[0,0,0,0,0,0,0,0,0,0,0,0,0,0,0,0,0,0,0,0,0],"sum_hessian":[3.706E3,3.542E3,1.64E2,9.59E2,2.583E3,7.1E1,9.3E1,4.48E2,5.11E2,1.971E3,6.12E2,6.7E1,2.6E1,2.05E2,2.43E2,4.92E2,1.9E1,4.17E2,1.554E3,8.6E1,5.26E2],"tree_param":{"num_deleted":"0","num_feature":"2","num_nodes":"21","size_leaf_vector":"1"}},{"base_weights":[-1.5282179E-3,1.8213773E-2,-4.2543334E-1,-1.3859528E-1,7.646396E-2,-5.2458692E-2,-4.0223237E-2,6.9774226E-3,-2.6598504E-1,1.4701787E-1,-1.5063025E-1,-2.8629279E-2,2.545458E-2,-1.3150034E-2,-3.5677338E-1,5.0101943E-2,5.176406E-3,-9.4409995E-2,-1.9354171E-3],"categories":[],"categories_nodes":[],"categories_segments":[],"categories_sizes":[],"default_left":[0,0,0,0,0,0,0,0,0,0,0,0,0,0,0,0,0,0,0],"id":39,"left_children":[1,3,5,7,9,-1,-1,11,13,15,17,-1,-1,-1,-1,-1,-1,-1,-1],"loss_changes":[3.1030634E1,3.2372917E1,1.6856956E-1,1.7804546E1,4.142398E1,0E0,0E0,3.2672268E1,2.2687662E2,6.646989E1,6.3834007E1,0E0,0E0,0E0,0E0,0E0,0E0,0E0,0E0],"parents":[2147483647,0,0,1,1,2,2,3,3,4,4,7,7,8,8,9,9,10,10],"right_children":[2,4,6,8,10,-1,-1,12,14,16,18,-1,-1,-1,-1,-1,-1,-1,-1],"split_conditions":[2.3E1,8E0,4E0,5E0,7E0,-5.2458692E-2,-4.0223237E-2,3E0,7E0,1.2E1,1E1,-2.8629279E-2,2.545458E-2,-1.3150034E-2,-3.5677338E-1,5.0101943E-2,5.176406E-3,-9.4409995E-2,-1.9354171E-3],"split_indices":[1,1,0,0,0,0,0,1,1,1,1,0,0,0,0,0,0,0,0],"split_type":[0,0,0,0,0,0,0,0,0,0,0,0,0,0,0,0,0,0,0],"sum_hessian":[3.706E3,3.542E3,1.64E2,9.59E2,2.583E3,2.7E1,1.37E2,4.48E2,5.11E2,1.971E3,6.12E2,2.05E2,2.43E2,4.92E2,1.9E1,4.17E2,1.554E3,8.6E1,5.26E2],"tree_param":{"num_deleted":"0","num_feature":"2","num_nodes":"19","size_leaf_vector":"1"}},{"base_weights":[-1.5122041E-3,-1.701385E-1,4.2320833E-2,1.3399556E-1,-3.21575E-1,3.8892236E-1,-4.5121543E-2,-1.7957236E-1,5.424041E-1,-7.5575984E-1,-5.125282E-2,1.0627173E0,5.612656E-2,-2.833523E-1,5.9377886E-2,-9.817739E-3,-2.5017861E-2,3.8752314E-2,1.1181434E-1,-6.0671788E-2,-2.3945616E-1,1.2705551E-1,-3.7890103E-2,-6.8266176E-2,2.3507626E-1,-1.4355381E-1,1.8603703E-2,-1.1837681E-2,-6.435726E-2,2.4871435E-2,-6.774512E-3],"categories":[],"categories_nodes":[],"categories_segments":[],"categories_sizes":[],"default_left":[0,0,0,0,0,0,0,0,0,0,0,0,0,0,0,0,0,0,0,0,0,0,0,0,0,0,0,0,0,0,0],"id":40,"left_children":[1,3,5,7,9,11,13,15,17,19,21,23,25,27,29,-1,-1,-1,-1,-1,-1,-1,-1,-1,-1,-1,-1,-1,-1,-1,-1],"loss_changes":[2.740713E1,3.5276688E1,8.9213E1,3.2753677E1,5.993723E1,1.3291235E2,5.8544918E1,8.0875206E-1,9.464684E0,4.6420197E1,1.3733722E2,4.4223773E2,7.739264E1,4.2533344E1,3.9369694E1,0E0,0E0,0E0,0E0,0E0,0E0,0E0,0E0,0E0,0E0,0E0,0E0,0E0,0E0,0E0,0E0],"parents":[2147483647,0,0,1,1,2,2,3,3,4,4,5,5,6,6,7,7,8,8,9,9,10,10,11,11,12,12,13,13,14,14],"right_children":[2,4,6,8,10,12,14,16,18,20,22,24,26,28,30,-1,-1,-1,-1,-1,-1,-1,-1,-1,-1,-1,-1,-1,-1,-1,-1],"split_conditions":[4E0,7E0,5E0,3E0,1.4E1,1.2E1,1E1,2E0,5E0,1.3E1,1.7E1,5E0,1.3E1,7E0,1.6E1,-9.817739E-3,-2.5017861E-2,3.8752314E-2,1.1181434E-1,-6.0671788E-2,-2.3945616E-1,1.2705551E-1,-3.7890103E-2,-6.8266176E-2,2.3507626E-1,-1.4355381E-1,1.8603703E-2,-1.1837681E-2,-6.435726E-2,2.4871435E-2,-6.774512E-3],"split_indices":[0,1,0,1,1,1,1,1,1,1,1,1,1,1,1,0,0,0,0,0,0,0,0,0,0,0,0,0,0,0,0],"split_type":[0,0,0,0,0,0,0,0,0,0,0,0,0,0,0,0,0,0,0,0,0,0,0,0,0,0,0,0,0,0,0],"sum_hessian":[3.706E3,7.64E2,2.942E3,2.54E2,5.1E2,5.92E2,2.35E3,1.44E2,1.1E2,1.95E2,3.15E2,1.95E2,3.97E2,7.16E2,1.634E3,6.8E1,7.6E1,8.8E1,2.2E1,1.8E2,1.5E1,6.2E1,2.53E2,8.3E1,1.12E2,3.1E1,3.66E2,4.92E2,2.24E2,6.56E2,9.78E2],"tree_param":{"num_deleted":"0","num_feature":"2","num_nodes":"31","size_leaf_vector":"1"}},{"base_weights":[-1.3911417E-3,1.6166538E-2,-3.7839395E-1,-1.2216862E-1,6.7554146E-2,-4.2648446E-2,-3.375332E-1,-3.102445E-3,-2.2634546E-1,1.2957808E-1,-1.3208495E-1,-3.0359058E-2,-4.1051716E-2,-1.3945313E-2,3.184641E-2,-1.0656323E-2,-3.1676602E-1,4.3676164E-2,4.692066E-3,-7.8715816E-2,-2.3691307E-3],"categories":[],"categories_nodes":[],"categories_segments":[],"categories_sizes":[],"default_left":[0,0,0,0,0,0,0,0,0,0,0,0,0,0,0,0,0,0,0,0,0],"id":41,"left_children":[1,3,5,7,9,-1,11,13,15,17,19,-1,-1,-1,-1,-1,-1,-1,-1,-1,-1],"loss_changes":[2.4543842E1,2.5194424E1,1.8027306E-1,1.1907078E1,3.2013245E1,0E0,1.0823536E-1,1.9731184E1,1.8004887E2,5.0050564E1,4.350789E1,0E0,0E0,0E0,0E0,0E0,0E0,0E0,0E0,0E0,0E0],"parents":[2147483647,0,0,1,1,2,2,3,3,4,4,6,6,7,7,8,8,9,9,10,10],"right_children":[2,4,6,8,10,-1,12,14,16,18,20,-1,-1,-1,-1,-1,-1,-1,-1,-1,-1],"split_conditions":[2.3E1,8E0,5E0,5E0,7E0,-4.2648446E-2,7E0,5E0,7E0,1.2E1,1E1,-3.0359058E-2,-4.1051716E-2,-1.3945313E-2,3.184641E-2,-1.0656323E-2,-3.1676602E-1,4.3676164E-2,4.692066E-3,-7.8715816E-2,-2.3691307E-3],"split_indices":[1,1,0,0,0,0,0,1,1,1,1,0,0,0,0,0,0,0,0,0,0],"split_type":[0,0,0,0,0,0,0,0,0,0,0,0,0,0,0,0,0,0,0,0,0],"sum_hessian":[3.706E3,3.542E3,1.64E2,9.59E2,2.583E3,7.1E1,9.3E1,4.48E2,5.11E2,1.971E3,6.12E2,6.7E1,2.6E1,3.15E2,1.33E2,4.92E2,1.9E1,4.17E2,1.554E3,8.6E1,5.26E2],"tree_param":{"num_deleted":"0","num_feature":"2","num_nodes":"21","size_leaf_vector":"1"}},{"base_weights":[-1.3751787E-3,-1.5842439E-1,3.9448477E-2,1.3098978E-1,-3.0253825E-1,3.4507236E-1,-3.7656754E-2,-1.4800616E-1,4.942638E-1,-9.148954E-2,-1.2637936E-1,9.409596E-1,5.075333E-2,-2.5826657E-1,4.896371E-2,-7.475873E-3,-2.1172129E-2,3.629948E-2,9.807282E-2,2.2463586E-2,-4.5794312E-2,-6.0142923E-2,2.0791869E-1,-1.3010149E-1,1.684804E-2,-7.348218E-2,8.7274626E-2,1.8229516E-2,-2.8822487E-2],"categories":[],"categories_nodes":[],"categories_segments":[],"categories_sizes":[],"default_left":[0,0,0,0,0,0,0,0,0,0,0,0,0,0,0,0,0,0,0,0,0,0,0,0,0,0,0,0,0],"id":42,"left_children":[1,3,5,7,9,11,13,15,17,-1,19,21,23,25,27,-1,-1,-1,-1,-1,-1,-1,-1,-1,-1,-1,-1,-1,-1],"loss_changes":[2.3773026E1,3.1946703E1,6.936538E1,2.5917906E1,5.5007042E1,1.0395315E2,4.493867E1,6.608827E-1,6.73221E0,0E0,4.6423668E1,3.4534595E2,6.35568E1,3.5799164E2,7.5986336E1,0E0,0E0,0E0,0E0,0E0,0E0,0E0,0E0,0E0,0E0,0E0,0E0,0E0,0E0],"parents":[2147483647,0,0,1,1,2,2,3,3,4,4,5,5,6,6,7,7,8,8,10,10,11,11,12,12,13,13,14,14],"right_children":[2,4,6,8,10,12,14,16,18,-1,20,22,24,26,28,-1,-1,-1,-1,-1,-1,-1,-1,-1,-1,-1,-1,-1,-1],"split_conditions":[4E0,7E0,5E0,3E0,1E1,1.2E1,6E0,2E0,5E0,-9.148954E-2,1.8E1,5E0,1.3E1,1.9E1,1.9E1,-7.475873E-3,-2.1172129E-2,3.629948E-2,9.807282E-2,2.2463586E-2,-4.5794312E-2,-6.0142923E-2,2.0791869E-1,-1.3010149E-1,1.684804E-2,-7.348218E-2,8.7274626E-2,1.8229516E-2,-2.8822487E-2],"split_indices":[0,1,0,1,1,1,0,1,1,0,1,1,1,1,1,0,0,0,0,0,0,0,0,0,0,0,0,0,0],"split_type":[0,0,0,0,0,0,0,0,0,0,0,0,0,0,0,0,0,0,0,0,0,0,0,0,0,0,0,0,0],"sum_hessian":[3.706E3,7.64E2,2.942E3,2.54E2,5.1E2,5.92E2,2.35E3,1.44E2,1.1E2,1.13E2,3.97E2,1.95E2,3.97E2,6.62E2,1.688E3,6.8E1,7.6E1,8.8E1,2.2E1,1.93E2,2.04E2,8.3E1,1.12E2,3.1E1,3.66E2,4.66E2,1.96E2,1.21E3,4.78E2],"tree_param":{"num_deleted":"0","num_feature":"2","num_nodes":"29","size_leaf_vector":"1"}},{"base_weights":[-1.2298919E-3,1.4364275E-2,-3.3607173E-1,-6.840149E-2,8.9630574E-2,-3.8656306E-2,-2.687572E-1,-1.2665617E-2,-6.614207E-1,3.8905236E-1,-1.2765474E-2,-2.2126656E-2,-3.4323107E-2,2.0026391E-2,-1.5081768E-2,-1.1532003E-1,3.256004E-2,-5.7472666E-3,7.710128E-2,1.0039433E-2,-1.5992722E-2],"categories":[],"categories_nodes":[],"categories_segments":[],"categories_sizes":[],"default_left":[0,0,0,0,0,0,0,0,0,0,0,0,0,0,0,0,0,0,0,0,0],"id":43,"left_children":[1,3,5,7,9,-1,11,13,15,17,19,-1,-1,-1,-1,-1,-1,-1,-1,-1,-1],"loss_changes":[1.9361221E1,2.2077154E1,4.569111E-1,5.578415E1,5.690919E1,0E0,1.8577862E-1,4.5449516E1,7.075801E1,8.0716774E1,2.3063522E1,0E0,0E0,0E0,0E0,0E0,0E0,0E0,0E0,0E0,0E0],"parents":[2147483647,0,0,1,1,2,2,3,3,4,4,6,6,7,7,8,8,9,9,10,10],"right_children":[2,4,6,8,10,-1,12,14,16,18,20,-1,-1,-1,-1,-1,-1,-1,-1,-1,-1],"split_conditions":[2.3E1,1.3E1,6E0,1.2E1,1.6E1,-3.8656306E-2,7E0,5E0,6E0,6E0,6E0,-2.2126656E-2,-3.4323107E-2,2.0026391E-2,-1.5081768E-2,-1.1532003E-1,3.256004E-2,-5.7472666E-3,7.710128E-2,1.0039433E-2,-1.5992722E-2],"split_indices":[1,1,0,1,1,0,0,0,0,0,0,0,0,0,0,0,0,0,0,0,0],"split_type":[0,0,0,0,0,0,0,0,0,0,0,0,0,0,0,0,0,0,0,0,0],"sum_hessian":[3.706E3,3.542E3,1.64E2,1.687E3,1.855E3,9.1E1,7.3E1,1.543E3,1.44E2,4.72E2,1.383E3,4.7E1,2.6E1,6.07E2,9.36E2,9.6E1,4.8E1,2.18E2,2.54E2,7.82E2,6.01E2],"tree_param":{"num_deleted":"0","num_feature":"2","num_nodes":"21","size_leaf_vector":"1"}},{"base_weights":[-1.1359977E-3,-1.5153998E-1,3.7960224E-2,9.8357484E-2,-2.7594763E-1,3.0940008E-1,-3.0522035E-2,-1.5329148E-1,4.2620203E-1,-6.7323834E-1,-2.8653592E-2,5.8649695E-1,-2.2584271E-1,-2.1772774E-1,5.1592346E-2,-8.712745E-3,-2.1059055E-2,3.0730179E-2,8.677637E-2,-5.354279E-2,-2.1901415E-1,1.1189344E-1,-3.1317875E-2,-5.6179065E-2,8.977621E-2,-1.6510145E-1,1.450404E-2,-1.3873294E-2,-7.3347546E-2,-1.6779227E-2,1.4426134E-2],"categories":[],"categories_nodes":[],"categories_segments":[],"categories_sizes":[],"default_left":[0,0,0,0,0,0,0,0,0,0,0,0,0,0,0,0,0,0,0,0,0,0,0,0,0,0,0,0,0,0,0],"id":44,"left_children":[1,3,5,7,9,11,13,15,17,19,21,23,25,27,29,-1,-1,-1,-1,-1,-1,-1,-1,-1,-1,-1,-1,-1,-1,-1,-1],"loss_changes":[2.1803757E1,2.381035E1,5.4716328E1,2.1103277E1,5.018524E1,8.808273E1,3.6151466E1,5.313666E-1,5.5610313E0,3.980018E1,1.03530014E2,1.4025633E2,1.0753961E2,2.9109818E1,3.3264E1,0E0,0E0,0E0,0E0,0E0,0E0,0E0,0E0,0E0,0E0,0E0,0E0,0E0,0E0,0E0,0E0],"parents":[2147483647,0,0,1,1,2,2,3,3,4,4,5,5,6,6,7,7,8,8,9,9,10,10,11,11,12,12,13,13,14,14],"right_children":[2,4,6,8,10,12,14,16,18,20,22,24,26,28,30,-1,-1,-1,-1,-1,-1,-1,-1,-1,-1,-1,-1,-1,-1,-1,-1],"split_conditions":[4E0,7E0,5E0,3E0,1.4E1,1.9E1,1E1,2E0,5E0,1.3E1,1.7E1,5E0,2E1,9E0,6E0,-8.712745E-3,-2.1059055E-2,3.0730179E-2,8.677637E-2,-5.354279E-2,-2.1901415E-1,1.1189344E-1,-3.1317875E-2,-5.6179065E-2,8.977621E-2,-1.6510145E-1,1.450404E-2,-1.3873294E-2,-7.3347546E-2,-1.6779227E-2,1.4426134E-2],"split_indices":[0,1,0,1,1,1,1,1,1,1,1,1,1,1,0,0,0,0,0,0,0,0,0,0,0,0,0,0,0,0,0],"split_type":[0,0,0,0,0,0,0,0,0,0,0,0,0,0,0,0,0,0,0,0,0,0,0,0,0,0,0,0,0,0,0],"sum_hessian":[3.706E3,7.64E2,2.942E3,2.54E2,5.1E2,5.92E2,2.35E3,1.44E2,1.1E2,1.95E2,3.15E2,3.9E2,2.02E2,7.16E2,1.634E3,6.8E1,7.6E1,8.8E1,2.2E1,1.8E2,1.5E1,6.2E1,2.53E2,8.3E1,3.07E2,4.1E1,1.61E2,6.22E2,9.4E1,4.85E2,1.149E3],"tree_param":{"num_deleted":"0","num_feature":"2","num_nodes":"31","size_leaf_vector":"1"}},{"base_weights":[-1.1062537E-3,3.847349E-2,-1.2262485E-1,-3.6331456E-2,2.323024E-1,-5.0956503E-2,-4.0745327E-1,-1.8752815E-1,1.2384153E-1,6.2346196E-1,-1.6756593E-1,-2.0552552E-1,2.4966131E-1,-7.254782E-2,-2.922132E-1,3.998413E-5,-9.383386E-2,5.234874E-2,8.970908E-4,3.4849645E-4,1.15028046E-1,-2.8207168E-2,1.861524E-2,3.1391438E-3,-3.0065903E-2,5.4543655E-2,6.5581375E-3,-6.666136E-3,-3.9578382E-2],"categories":[],"categories_nodes":[],"categories_segments":[],"categories_sizes":[],"default_left":[0,0,0,0,0,0,0,0,0,0,0,0,0,0,0,0,0,0,0,0,0,0,0,0,0,0,0,0,0],"id":45,"left_children":[1,3,5,7,9,11,13,15,17,19,21,23,25,-1,27,-1,-1,-1,-1,-1,-1,-1,-1,-1,-1,-1,-1,-1,-1],"loss_changes":[1.7834185E1,4.056315E1,1.857565E1,4.8918613E1,1.2194968E2,3.392517E1,6.494814E0,1.466015E2,4.5030632E1,1.2868242E2,1.5686579E1,1.0873114E1,1.3466908E1,0E0,3.15065E0,0E0,0E0,0E0,0E0,0E0,0E0,0E0,0E0,0E0,0E0,0E0,0E0,0E0,0E0],"parents":[2147483647,0,0,1,1,2,2,3,3,4,4,5,5,6,6,7,7,8,8,9,9,10,10,11,11,12,12,14,14],"right_children":[2,4,6,8,10,12,14,16,18,20,22,24,26,-1,28,-1,-1,-1,-1,-1,-1,-1,-1,-1,-1,-1,-1,-1,-1],"split_conditions":[7E0,6E0,2E1,1.5E1,1.5E1,1.4E1,2.1E1,1.2E1,1.7E1,9E0,2.2E1,3E0,1.6E1,-7.254782E-2,2.2E1,3.998413E-5,-9.383386E-2,5.234874E-2,8.970908E-4,3.4849645E-4,1.15028046E-1,-2.8207168E-2,1.861524E-2,3.1391438E-3,-3.0065903E-2,5.4543655E-2,6.5581375E-3,-6.666136E-3,-3.9578382E-2],"split_indices":[0,0,1,1,1,1,1,1,1,1,1,1,1,0,1,0,0,0,0,0,0,0,0,0,0,0,0,0,0],"split_type":[0,0,0,0,0,0,0,0,0,0,0,0,0,0,0,0,0,0,0,0,0,0,0,0,0,0,0,0,0],"sum_hessian":[3.706E3,2.796E3,9.1E2,2.018E3,7.78E2,7.28E2,1.82E2,1.038E3,9.8E2,3.93E2,3.85E2,4.81E2,2.47E2,4.7E1,1.35E2,8.31E2,2.07E2,2.18E2,7.62E2,1.81E2,2.12E2,2.91E2,9.4E1,1.38E2,3.43E2,9.4E1,1.53E2,4.3E1,9.2E1],"tree_param":{"num_deleted":"0","num_feature":"2","num_nodes":"29","size_leaf_vector":"1"}},{"base_weights":[-1.0009177E-3,-1.3654467E-1,3.423251E-2,8.882589E-2,-2.4874224E-1,2.784384E-1,-2.7378859E-2,-1.3820738E-1,3.8460064E-1,-7.910259E-2,-9.278977E-2,8.0014217E-1,2.0819355E-2,-1.8755361E-1,4.287966E-2,-7.858029E-3,-1.8984454E-2,2.7687728E-2,7.8472145E-2,2.1718247E-2,-3.8567673E-2,-5.063199E-2,1.7642367E-1,-1.0593319E-1,1.1494475E-2,-6.1848084E-3,-4.6215486E-2,-1.362032E-2,1.1852435E-2],"categories":[],"categories_nodes":[],"categories_segments":[],"categories_sizes":[],"default_left":[0,0,0,0,0,0,0,0,0,0,0,0,0,0,0,0,0,0,0,0,0,0,0,0,0,0,0,0,0],"id":46,"left_children":[1,3,5,7,9,11,13,15,17,-1,19,21,23,25,27,-1,-1,-1,-1,-1,-1,-1,-1,-1,-1,-1,-1,-1,-1],"loss_changes":[1.7708088E1,1.9365906E1,4.4287582E1,1.7176586E1,4.3142113E1,7.968304E1,2.6465353E1,4.3153334E-1,4.567091E0,0E0,3.621692E1,2.477656E2,4.058629E1,2.472146E1,2.2164944E1,0E0,0E0,0E0,0E0,0E0,0E0,0E0,0E0,0E0,0E0,0E0,0E0,0E0,0E0],"parents":[2147483647,0,0,1,1,2,2,3,3,4,4,5,5,6,6,7,7,8,8,10,10,11,11,12,12,13,13,14,14],"right_children":[2,4,6,8,10,12,14,16,18,-1,20,22,24,26,28,-1,-1,-1,-1,-1,-1,-1,-1,-1,-1,-1,-1,-1,-1],"split_conditions":[4E0,7E0,5E0,3E0,1E1,1.2E1,1E1,2E0,5E0,-7.910259E-2,1.8E1,5E0,1.3E1,7E0,6E0,-7.858029E-3,-1.8984454E-2,2.7687728E-2,7.8472145E-2,2.1718247E-2,-3.8567673E-2,-5.063199E-2,1.7642367E-1,-1.0593319E-1,1.1494475E-2,-6.1848084E-3,-4.6215486E-2,-1.362032E-2,1.1852435E-2],"split_indices":[0,1,0,1,1,1,1,1,1,0,1,1,1,1,0,0,0,0,0,0,0,0,0,0,0,0,0,0,0],"split_type":[0,0,0,0,0,0,0,0,0,0,0,0,0,0,0,0,0,0,0,0,0,0,0,0,0,0,0,0,0],"sum_hessian":[3.706E3,7.64E2,2.942E3,2.54E2,5.1E2,5.92E2,2.35E3,1.44E2,1.1E2,1.13E2,3.97E2,1.95E2,3.97E2,7.16E2,1.634E3,6.8E1,7.6E1,8.8E1,2.2E1,1.93E2,2.04E2,8.3E1,1.12E2,3.1E1,3.66E2,4.92E2,2.24E2,4.85E2,1.149E3],"tree_param":{"num_deleted":"0","num_feature":"2","num_nodes":"29","size_leaf_vector":"1"}},{"base_weights":[-9.1146585E-4,1.3298856E-2,-3.0604032E-1,5.2876797E-2,-1.0562887E-1,-3.345305E-1,-2.6648438E-2,-1.5575455E-2,2.3309955E-1,-4.4070147E-2,-3.9079243E-1,-2.4838036E-2,-3.6649477E-2,-1.6953757E-2,1.6417984E-2,5.627491E-2,-1.5072055E-2,-1.763176E-2,2.1313688E-2,-6.660471E-2,-2.6712865E-2],"categories":[],"categories_nodes":[],"categories_segments":[],"categories_sizes":[],"default_left":[0,0,0,0,0,0,0,0,0,0,0,0,0,0,0,0,0,0,0,0,0],"id":47,"left_children":[1,3,5,7,9,11,-1,13,15,17,19,-1,-1,-1,-1,-1,-1,-1,-1,-1,-1],"loss_changes":[1.6077543E1,1.6682182E1,9.6800804E-2,3.2806793E1,1.5518337E1,1.6231155E-1,0E0,5.3386204E1,9.2701935E1,2.4834494E1,5.1662064E0,0E0,0E0,0E0,0E0,0E0,0E0,0E0,0E0,0E0,0E0],"parents":[2147483647,0,0,1,1,2,2,3,3,4,4,5,5,7,7,8,8,9,9,10,10],"right_children":[2,4,6,8,10,12,-1,14,16,18,20,-1,-1,-1,-1,-1,-1,-1,-1,-1,-1],"split_conditions":[2.3E1,7E0,6E0,6E0,2E1,4E0,-2.6648438E-2,1.5E1,1.5E1,1.4E1,2.1E1,-2.4838036E-2,-3.6649477E-2,-1.6953757E-2,1.6417984E-2,5.627491E-2,-1.5072055E-2,-1.763176E-2,2.1313688E-2,-6.660471E-2,-2.6712865E-2],"split_indices":[1,0,0,0,1,0,0,1,1,1,1,0,0,0,0,0,0,0,0,0,0],"split_type":[0,0,0,0,0,0,0,0,0,0,0,0,0,0,0,0,0,0,0,0,0],"sum_hessian":[3.706E3,3.542E3,1.64E2,2.658E3,8.84E2,9.1E1,7.3E1,1.927E3,7.31E2,7.28E2,1.56E2,2.7E1,6.4E1,1.038E3,8.89E2,3.93E2,3.38E2,4.81E2,2.47E2,4.7E1,1.09E2],"tree_param":{"num_deleted":"0","num_feature":"2","num_nodes":"21","size_leaf_vector":"1"}},{"base_weights":[-8.5737096E-4,-1.1826563E-1,2.9661886E-2,9.71415E-2,-2.2552697E-1,2.5232014E-1,-2.6512513E-2,-1.077349E-1,3.6389768E-1,-6.9581054E-2,-9.025598E-2,3.9744124E-1,-5.6316143E-1,-1.3523582E-1,5.792409E-2,-5.412812E-3,-1.54373E-2,2.6626334E-2,7.2587855E-2,1.9334769E-2,-3.5820164E-2,-4.3953847E-2,5.6349553E-2,-7.715633E-2,-3.376138E-2,-5.3089198E-2,4.2794124E-4,3.438383E-2,-4.3183398E-3],"categories":[],"categories_nodes":[],"categories_segments":[],"categories_sizes":[],"default_left":[0,0,0,0,0,0,0,0,0,0,0,0,0,0,0,0,0,0,0,0,0,0,0,0,0,0,0,0,0],"id":48,"left_children":[1,3,5,7,9,11,13,15,17,-1,19,21,23,25,27,-1,-1,-1,-1,-1,-1,-1,-1,-1,-1,-1,-1,-1,-1],"loss_changes":[1.3286478E1,1.7697124E1,3.6816833E1,1.3975477E1,3.244484E1,7.0401566E1,2.1590546E1,3.5416102E-1,3.729659E0,0E0,3.0313423E1,7.029563E1,3.9699192E0,5.6747932E1,3.8289124E1,0E0,0E0,0E0,0E0,0E0,0E0,0E0,0E0,0E0,0E0,0E0,0E0,0E0,0E0],"parents":[2147483647,0,0,1,1,2,2,3,3,4,4,5,5,6,6,7,7,8,8,10,10,11,11,12,12,13,13,14,14],"right_children":[2,4,6,8,10,12,14,16,18,-1,20,22,24,26,28,-1,-1,-1,-1,-1,-1,-1,-1,-1,-1,-1,-1,-1,-1],"split_conditions":[4E0,7E0,5E0,3E0,1E1,2.2E1,1.3E1,2E0,5E0,-6.9581054E-2,1.8E1,5E0,2.3E1,6E0,1.6E1,-5.412812E-3,-1.54373E-2,2.6626334E-2,7.2587855E-2,1.9334769E-2,-3.5820164E-2,-4.3953847E-2,5.6349553E-2,-7.715633E-2,-3.376138E-2,-5.3089198E-2,4.2794124E-4,3.438383E-2,-4.3183398E-3],"split_indices":[0,1,0,1,1,1,1,1,1,0,1,1,1,0,1,0,0,0,0,0,0,0,0,0,0,0,0,0,0],"split_type":[0,0,0,0,0,0,0,0,0,0,0,0,0,0,0,0,0,0,0,0,0,0,0,0,0,0,0,0,0],"sum_hessian":[3.706E3,7.64E2,2.942E3,2.54E2,5.1E2,5.92E2,2.35E3,1.44E2,1.1E2,1.13E2,3.97E2,5.03E2,8.9E1,1.027E3,1.323E3,6.8E1,7.6E1,8.8E1,2.2E1,1.93E2,2.04E2,8.3E1,4.2E2,4.5E1,4.4E1,2.67E2,7.6E2,3.45E2,9.78E2],"tree_param":{"num_deleted":"0","num_feature":"2","num_nodes":"29","size_leaf_vector":"1"}},{"base_weights":[-8.063053E-4,3.2620963E-2,-1.03435576E-1,-2.3997178E-2,1.793211E-1,-4.4399504E-2,-3.3804682E-1,-1.4317372E-1,1.0224994E-1,4.9808934E-1,-1.4651832E-1,-1.6055845E-1,1.8154007E-1,-5.9660178E-2,-2.443065E-1,2.8566509E-3,-8.294463E-2,5.873673E-2,4.21871E-3,-3.6544953E-3,9.525746E-2,-2.5254598E-2,1.809195E-2,-9.329433E-3,-4.7815166E-2,4.2462666E-2,3.0405219E-3,-4.140416E-3,-3.3767637E-2],"categories":[],"categories_nodes":[],"categories_segments":[],"categories_sizes":[],"default_left":[0,0,0,0,0,0,0,0,0,0,0,0,0,0,0,0,0,0,0,0,0,0,0,0,0,0,0,0,0],"id":49,"left_children":[1,3,5,7,9,11,13,15,17,19,21,23,25,-1,27,-1,-1,-1,-1,-1,-1,-1,-1,-1,-1,-1,-1,-1,-1],"loss_changes":[1.2720669E1,2.3235874E1,1.260282E1,3.0391897E1,8.098557E1,1.916168E1,4.2896233E0,1.2248087E2,2.8559135E1,9.577026E1,1.3446631E1,1.025218E1,9.098327E0,0E0,2.5625324E0,0E0,0E0,0E0,0E0,0E0,0E0,0E0,0E0,0E0,0E0,0E0,0E0,0E0,0E0],"parents":[2147483647,0,0,1,1,2,2,3,3,4,4,5,5,6,6,7,7,8,8,9,9,10,10,11,11,12,12,14,14],"right_children":[2,4,6,8,10,12,14,16,18,20,22,24,26,-1,28,-1,-1,-1,-1,-1,-1,-1,-1,-1,-1,-1,-1,-1,-1],"split_conditions":[7E0,6E0,2E1,1.5E1,1.5E1,1.4E1,2.1E1,1.2E1,1.6E1,9E0,2.2E1,1.1E1,1.6E1,-5.9660178E-2,2.2E1,2.8566509E-3,-8.294463E-2,5.873673E-2,4.21871E-3,-3.6544953E-3,9.525746E-2,-2.5254598E-2,1.809195E-2,-9.329433E-3,-4.7815166E-2,4.2462666E-2,3.0405219E-3,-4.140416E-3,-3.3767637E-2],"split_indices":[0,0,1,1,1,1,1,1,1,1,1,1,1,0,1,0,0,0,0,0,0,0,0,0,0,0,0,0,0],"split_type":[0,0,0,0,0,0,0,0,0,0,0,0,0,0,0,0,0,0,0,0,0,0,0,0,0,0,0,0,0],"sum_hessian":[3.706E3,2.796E3,9.1E2,2.018E3,7.78E2,7.28E2,1.82E2,1.038E3,9.8E2,3.93E2,3.85E2,4.81E2,2.47E2,4.7E1,1.35E2,8.31E2,2.07E2,1.07E2,8.73E2,1.81E2,2.12E2,2.91E2,9.4E1,3.98E2,8.3E1,9.4E1,1.53E2,4.3E1,9.2E1],"tree_param":{"num_deleted":"0","num_feature":"2","num_nodes":"29","size_leaf_vector":"1"}}]},"name":"gbtree"},"learner_model_param":{"base_score":"[1.3140313E1]","boost_from_average":"1","num_class":"0","num_feature":"2","num_target":"1"},"objective":{"name":"reg:squarederror","reg_loss_param":{"scale_pos_weight":"1"}}},"version":[3,2,0]}