{"learner":{"attributes":{},"feature_names":["day_of_week","hour_of_day"],"feature_types":[],"gradient_booster":{"model":{"cats":{"enc":[],"feature_segments":[],"sorted_idx":[]},"gbtree_model_param":{"num_parallel_tree":"1","num_trees":"50"},"iteration_indptr":[0,1,2,3,4,5,6,7,8,9,10,11,12,13,14,15,16,17,18,19,20,21,22,23,24,25,26,27,28,29,30,31,32,33,34,35,36,37,38,39,40,41,42,43,44,45,46,47,48,49,50],"tree_info":[0,0,0,0,0,0,0,0,0,0,0,0,0,0,0,0,0,0,0,0,0,0,0,0,0,0,0,0,0,0,0,0,0,0,0,0,0,0,0,0,0,0,0,0,0,0,0,0,0,0],"trees":[{"base_weights":[-1.5249665E-7,-9.540992E0,9.794386E-1,-1.0078483E1,-5.1936984E0,3.1879263E0,-4.841142E0,-1.1171178E1,-8.114057E0,-2.7868917E0,-8.3800375E-1,-2.9150639E0,3.7389133E0,-2.1069777E0,-7.7696643E0,-1.1444566E0,-1.0161266E0,-7.303652E-1,-8.797371E-1,-3.0133703E-1,-2.2496362E-1,1.1491666E-1,-6.2626284E-1,4.1694805E-1,-3.4743633E-2,-4.3119493E-1,-8.669245E-2,-1.0248618E0,-6.3186026E-1],"categories":[],"categories_nodes":[],"categories_segments":[],"categories_sizes":[],"default_left":[0,0,0,0,0,0,0,0,0,0,0,0,0,0,0,0,0,0,0,0,0,0,0,0,0,0,0,0,0],"id":0,"left_children":[1,3,5,7,9,11,13,15,17,19,-1,21,23,25,27,-1,-1,-1,-1,-1,-1,-1,-1,-1,-1,-1,-1,-1,-1],"loss_changes":[1.09409125E5,2.4945781E3,1.3650644E5,1.9893359E3,9.1225146E2,2.5896727E4,2.337225E4,5.4898438E1,1.2956445E2,1.8601074E0,0E0,8.68736E3,1.2424898E4,4.130497E3,5.007172E3,0E0,0E0,0E0,0E0,0E0,0E0,0E0,0E0,0E0,0E0,0E0,0E0,0E0,0E0],"parents":[2147483647,0,0,1,1,2,2,3,3,4,4,5,5,6,6,7,7,8,8,9,9,11,11,12,12,13,13,14,14],"right_children":[2,4,6,8,10,12,14,16,18,20,-1,22,24,26,28,-1,-1,-1,-1,-1,-1,-1,-1,-1,-1,-1,-1,-1,-1],"split_conditions":[4E0,3E0,2E1,6E0,6E0,5E0,2.2E1,5E0,1E0,3E0,-8.3800375E-1,5E0,1.9E1,4E0,4E0,-1.1444566E0,-1.0161266E0,-7.303652E-1,-8.797371E-1,-3.0133703E-1,-2.2496362E-1,1.1491666E-1,-6.2626284E-1,4.1694805E-1,-3.4743633E-2,-4.3119493E-1,-8.669245E-2,-1.0248618E0,-6.3186026E-1],"split_indices":[1,1,1,0,0,1,1,0,1,0,0,0,1,0,0,0,0,0,0,0,0,0,0,0,0,0,0,0,0],"split_type":[0,0,0,0,0,0,0,0,0,0,0,0,0,0,0,0,0,0,0,0,0,0,0,0,0,0,0,0,0],"sum_hessian":[1.1706E4,1.089E3,1.0617E4,9.68E2,1.21E2,7.697E3,2.92E3,6.19E2,3.49E2,7E1,5.1E1,6.37E2,7.06E3,1.511E3,1.409E3,4.79E2,1.4E2,1.65E2,1.84E2,4.6E1,2.4E1,2.88E2,3.49E2,6.387E3,6.73E2,5.43E2,9.68E2,5.18E2,8.91E2],"tree_param":{"num_deleted":"0","num_feature":"2","num_nodes":"29","size_leaf_vector":"1"}},{"base_weights":[-6.35616E-4,-8.591603E0,8.8127774E-1,-9.074526E0,-4.6855116E0,2.8691165E0,-4.3577724E0,-1.0057545E1,-7.3072515E0,-2.5156152E0,-7.5581485E-1,-2.6243591E0,3.3650758E0,-1.8966222E0,-6.993872E0,-1.0302494E0,-9.152347E-1,-6.5776867E-1,-7.9223895E-1,-2.7184445E-1,-2.0336714E-1,1.0346472E-1,-5.6381553E-1,3.7525973E-1,-3.127445E-2,-3.881547E-1,-7.803212E-2,-9.225731E-1,-5.687451E-1],"categories":[],"categories_nodes":[],"categories_segments":[],"categories_sizes":[],"default_left":[0,0,0,0,0,0,0,0,0,0,0,0,0,0,0,0,0,0,0,0,0,0,0,0,0,0,0,0,0],"id":1,"left_children":[1,3,5,7,9,11,13,15,17,19,-1,21,23,25,27,-1,-1,-1,-1,-1,-1,-1,-1,-1,-1,-1,-1,-1,-1],"loss_changes":[8.870553E4,2.0135938E3,1.1059246E5,1.6099062E3,7.4145215E2,2.0982336E4,1.8937703E4,4.3179688E1,1.0496289E2,1.4119873E0,0E0,7.041377E3,1.006475E4,3.3472207E3,4.0587422E3,0E0,0E0,0E0,0E0,0E0,0E0,0E0,0E0,0E0,0E0,0E0,0E0,0E0,0E0],"parents":[2147483647,0,0,1,1,2,2,3,3,4,4,5,5,6,6,7,7,8,8,9,9,11,11,12,12,13,13,14,14],"right_children":[2,4,6,8,10,12,14,16,18,20,-1,22,24,26,28,-1,-1,-1,-1,-1,-1,-1,-1,-1,-1,-1,-1,-1,-1],"split_conditions":[4E0,3E0,2E1,6E0,6E0,5E0,2.2E1,5E0,1E0,3E0,-7.5581485E-1,5E0,1.9E1,4E0,4E0,-1.0302494E0,-9.152347E-1,-6.5776867E-1,-7.9223895E-1,-2.7184445E-1,-2.0336714E-1,1.0346472E-1,-5.6381553E-1,3.7525973E-1,-3.127445E-2,-3.881547E-1,-7.803212E-2,-9.225731E-1,-5.687451E-1],"split_indices":[1,1,1,0,0,1,1,0,1,0,0,0,1,0,0,0,0,0,0,0,0,0,0,0,0,0,0,0,0],"split_type":[0,0,0,0,0,0,0,0,0,0,0,0,0,0,0,0,0,0,0,0,0,0,0,0,0,0,0,0,0],"sum_hessian":[1.1706E4,1.089E3,1.0617E4,9.68E2,1.21E2,7.697E3,2.92E3,6.19E2,3.49E2,7E1,5.1E1,6.37E2,7.06E3,1.511E3,1.409E3,4.79E2,1.4E2,1.65E2,1.84E2,4.6E1,2.4E1,2.88E2,3.49E2,6.387E3,6.73E2,5.43E2,9.68E2,5.18E2,8.91E2],"tree_param":{"num_deleted":"0","num_feature":"2","num_nodes":"29","size_leaf_vector":"1"}},{"base_weights":[-1.1441993E-3,-7.7366877E0,7.929548E-1,-8.170577E0,-4.227051E0,2.2880557E0,-4.8767767E0,-9.054928E0,-6.5806694E0,-2.2707465E0,-6.816869E-1,-2.3626451E0,2.6698298E0,-2.391848E0,-6.295543E0,-9.274389E-1,-8.243603E-1,-5.923881E-1,-7.134432E-1,-2.4523835E-1,-1.8384391E-1,-5.8265127E-2,-7.632672E-1,3.3773965E-1,-6.0979664E-2,-4.518585E-1,-1.0562205E-1,-8.3049357E-1,-5.1193434E-1],"categories":[],"categories_nodes":[],"categories_segments":[],"categories_sizes":[],"default_left":[0,0,0,0,0,0,0,0,0,0,0,0,0,0,0,0,0,0,0,0,0,0,0,0,0,0,0,0,0],"id":2,"left_children":[1,3,5,7,9,11,13,15,17,19,-1,21,23,25,27,-1,-1,-1,-1,-1,-1,-1,-1,-1,-1,-1,-1,-1,-1],"loss_changes":[7.191975E4,1.6253125E3,9.001803E4,1.3028555E3,6.026301E2,1.4925984E4,7.7975234E3,3.3945312E1,8.50332E1,1.0665588E0,0E0,5.9803853E3,1.8023477E4,2.2875332E3,3.2899375E3,0E0,0E0,0E0,0E0,0E0,0E0,0E0,0E0,0E0,0E0,0E0,0E0,0E0,0E0],"parents":[2147483647,0,0,1,1,2,2,3,3,4,4,5,5,6,6,7,7,8,8,9,9,11,11,12,12,13,13,14,14],"right_children":[2,4,6,8,10,12,14,16,18,20,-1,22,24,26,28,-1,-1,-1,-1,-1,-1,-1,-1,-1,-1,-1,-1,-1,-1],"split_conditions":[4E0,3E0,2.1E1,6E0,6E0,5E0,2.2E1,5E0,1E0,3E0,-6.816869E-1,7E0,1.9E1,4E0,4E0,-9.274389E-1,-8.243603E-1,-5.923881E-1,-7.134432E-1,-2.4523835E-1,-1.8384391E-1,-5.8265127E-2,-7.632672E-1,3.3773965E-1,-6.0979664E-2,-4.518585E-1,-1.0562205E-1,-8.3049357E-1,-5.1193434E-1],"split_indices":[1,1,1,0,0,1,1,0,1,0,0,0,1,0,0,0,0,0,0,0,0,0,0,0,0,0,0,0,0],"split_type":[0,0,0,0,0,0,0,0,0,0,0,0,0,0,0,0,0,0,0,0,0,0,0,0,0,0,0,0,0],"sum_hessian":[1.1706E4,1.089E3,1.0617E4,9.68E2,1.21E2,8.402E3,2.215E3,6.19E2,3.49E2,7E1,5.1E1,6.37E2,7.765E3,8.06E2,1.409E3,4.79E2,1.4E2,1.65E2,1.84E2,4.6E1,2.4E1,4.77E2,1.6E2,6.387E3,1.378E3,3.1E2,4.96E2,5.18E2,8.91E2],"tree_param":{"num_deleted":"0","num_feature":"2","num_nodes":"29","size_leaf_vector":"1"}},{"base_weights":[-1.5948345E-3,-6.966843E0,7.134289E-1,-7.356675E0,-3.8134506E0,2.059185E0,-4.389956E0,-8.152261E0,-5.9263334E0,-2.0497153E0,-6.148292E-1,-2.1276684E0,2.4028823E0,-2.153354E0,-5.6669407E0,-8.348883E-1,-7.42509E-1,-5.5882853E-1,-6.840827E-1,-2.212363E-1,-1.661949E-1,9.896033E-2,-4.6955654E-1,3.0397093E-1,-5.4886103E-2,-4.068179E-1,-9.508108E-2,-7.4760413E-1,-4.6079832E-1],"categories":[],"categories_nodes":[],"categories_segments":[],"categories_sizes":[],"default_left":[0,0,0,0,0,0,0,0,0,0,0,0,0,0,0,0,0,0,0,0,0,0,0,0,0,0,0,0,0],"id":3,"left_children":[1,3,5,7,9,11,13,15,17,19,-1,21,23,25,27,-1,-1,-1,-1,-1,-1,-1,-1,-1,-1,-1,-1,-1,-1],"loss_changes":[5.830956E4,1.3118711E3,7.293252E4,1.0543672E3,4.8979883E2,1.2097113E4,6.316926E3,2.665625E1,6.997168E1,8.010864E-1,0E0,5.1117295E3,1.4599805E4,1.8543784E3,2.6667734E3,0E0,0E0,0E0,0E0,0E0,0E0,0E0,0E0,0E0,0E0,0E0,0E0,0E0,0E0],"parents":[2147483647,0,0,1,1,2,2,3,3,4,4,5,5,6,6,7,7,8,8,9,9,11,11,12,12,13,13,14,14],"right_children":[2,4,6,8,10,12,14,16,18,20,-1,22,24,26,28,-1,-1,-1,-1,-1,-1,-1,-1,-1,-1,-1,-1,-1,-1],"split_conditions":[4E0,3E0,2.1E1,6E0,6E0,5E0,2.2E1,5E0,2E0,3E0,-6.148292E-1,5E0,1.9E1,4E0,4E0,-8.348883E-1,-7.42509E-1,-5.5882853E-1,-6.840827E-1,-2.212363E-1,-1.661949E-1,9.896033E-2,-4.6955654E-1,3.0397093E-1,-5.4886103E-2,-4.068179E-1,-9.508108E-2,-7.4760413E-1,-4.6079832E-1],"split_indices":[1,1,1,0,0,1,1,0,1,0,0,0,1,0,0,0,0,0,0,0,0,0,0,0,0,0,0,0,0],"split_type":[0,0,0,0,0,0,0,0,0,0,0,0,0,0,0,0,0,0,0,0,0,0,0,0,0,0,0,0,0],"sum_hessian":[1.1706E4,1.089E3,1.0617E4,9.68E2,1.21E2,8.402E3,2.215E3,6.19E2,3.49E2,7E1,5.1E1,6.37E2,7.765E3,8.06E2,1.409E3,4.79E2,1.4E2,2.6E2,8.9E1,4.6E1,2.4E1,2.88E2,3.49E2,6.387E3,1.378E3,3.1E2,4.96E2,5.18E2,8.91E2],"tree_param":{"num_deleted":"0","num_feature":"2","num_nodes":"29","size_leaf_vector":"1"}},{"base_weights":[-1.9184494E-3,-6.273666E0,6.419134E-1,-6.623918E0,-3.4403207E0,2.0969548E0,-3.1929207E0,-7.3395786E0,-5.3372517E0,-1.8502007E0,-5.5452865E-1,-1.9154822E0,2.4592035E0,-1.4113526E0,-5.1011033E0,-7.515734E-1,-6.6878474E-1,-4.7795996E-1,-5.808781E-1,-1.995834E-1,-1.502402E-1,-3.984712E-2,-6.407506E-1,2.8584486E-1,4.6900913E-2,-3.5231933E-1,-7.579457E-2,-6.7298776E-1,-4.1477013E-1],"categories":[],"categories_nodes":[],"categories_segments":[],"categories_sizes":[],"default_left":[0,0,0,0,0,0,0,0,0,0,0,0,0,0,0,0,0,0,0,0,0,0,0,0,0,0,0,0,0],"id":4,"left_children":[1,3,5,7,9,11,13,15,17,19,-1,21,23,25,27,-1,-1,-1,-1,-1,-1,-1,-1,-1,-1,-1,-1,-1,-1],"loss_changes":[4.7276316E4,1.0589141E3,5.925346E4,8.5309375E2,3.9809216E2,1.1193754E4,9.922906E3,2.0917969E1,6.4268555E1,5.9768677E-1,0E0,4.3450654E3,5.6091562E3,2.083726E3,2.1616445E3,0E0,0E0,0E0,0E0,0E0,0E0,0E0,0E0,0E0,0E0,0E0,0E0,0E0,0E0],"parents":[2147483647,0,0,1,1,2,2,3,3,4,4,5,5,6,6,7,7,8,8,9,9,11,11,12,12,13,13,14,14],"right_children":[2,4,6,8,10,12,14,16,18,20,-1,22,24,26,28,-1,-1,-1,-1,-1,-1,-1,-1,-1,-1,-1,-1,-1,-1],"split_conditions":[4E0,3E0,2E1,6E0,6E0,5E0,2.2E1,5E0,1E0,3E0,-5.5452865E-1,7E0,1.8E1,3E0,4E0,-7.515734E-1,-6.6878474E-1,-4.7795996E-1,-5.808781E-1,-1.995834E-1,-1.502402E-1,-3.984712E-2,-6.407506E-1,2.8584486E-1,4.6900913E-2,-3.5231933E-1,-7.579457E-2,-6.7298776E-1,-4.1477013E-1],"split_indices":[1,1,1,0,0,1,1,0,1,0,0,0,1,0,0,0,0,0,0,0,0,0,0,0,0,0,0,0,0],"split_type":[0,0,0,0,0,0,0,0,0,0,0,0,0,0,0,0,0,0,0,0,0,0,0,0,0,0,0,0,0],"sum_hessian":[1.1706E4,1.089E3,1.0617E4,9.68E2,1.21E2,7.697E3,2.92E3,6.19E2,3.49E2,7E1,5.1E1,6.37E2,7.06E3,1.511E3,1.409E3,4.79E2,1.4E2,1.65E2,1.84E2,4.6E1,2.4E1,4.77E2,1.6E2,5.88E3,1.18E3,3.56E2,1.155E3,5.18E2,8.91E2],"tree_param":{"num_deleted":"0","num_feature":"2","num_nodes":"29","size_leaf_vector":"1"}},{"base_weights":[-2.1749372E-3,-5.6494036E0,5.775464E-1,-5.9640846E0,-3.1037018E0,1.6720412E0,-3.573003E0,-6.6079116E0,-4.8065515E0,-1.6701081E0,-5.001422E-1,-1.7250005E0,1.950903E0,-1.7885833E0,-4.5917645E0,-6.765726E-1,-6.023805E-1,-4.5180082E-1,-5.589921E-1,-1.8004975E-1,-1.3581719E-1,2.2364123E-1,-3.191952E-1,2.4689499E-1,-4.50282E-2,-3.3941737E-1,-7.802791E-2,-4.0466854E-1,-7.068483E-1],"categories":[],"categories_nodes":[],"categories_segments":[],"categories_sizes":[],"default_left":[0,0,0,0,0,0,0,0,0,0,0,0,0,0,0,0,0,0,0,0,0,0,0,0,0,0,0,0,0],"id":5,"left_children":[1,3,5,7,9,11,13,15,17,19,-1,21,23,25,27,-1,-1,-1,-1,-1,-1,-1,-1,-1,-1,-1,-1,-1,-1],"loss_changes":[3.832986E4,8.546758E2,4.8240945E4,6.903867E2,3.2355542E2,7.9635684E3,4.02025E3,1.6396484E1,5.3856934E1,4.4241333E-1,0E0,3.714684E3,9.661445E3,1.3038228E3,1.8749082E3,0E0,0E0,0E0,0E0,0E0,0E0,0E0,0E0,0E0,0E0,0E0,0E0,0E0,0E0],"parents":[2147483647,0,0,1,1,2,2,3,3,4,4,5,5,6,6,7,7,8,8,9,9,11,11,12,12,13,13,14,14],"right_children":[2,4,6,8,10,12,14,16,18,20,-1,22,24,26,28,-1,-1,-1,-1,-1,-1,-1,-1,-1,-1,-1,-1,-1,-1],"split_conditions":[4E0,3E0,2.1E1,6E0,6E0,5E0,2.2E1,5E0,2E0,3E0,-5.001422E-1,4E0,1.9E1,4E0,7E0,-6.765726E-1,-6.023805E-1,-4.5180082E-1,-5.589921E-1,-1.8004975E-1,-1.3581719E-1,2.2364123E-1,-3.191952E-1,2.4689499E-1,-4.50282E-2,-3.3941737E-1,-7.802791E-2,-4.0466854E-1,-7.068483E-1],"split_indices":[1,1,1,0,0,1,1,0,1,0,0,0,1,0,0,0,0,0,0,0,0,0,0,0,0,0,0,0,0],"split_type":[0,0,0,0,0,0,0,0,0,0,0,0,0,0,0,0,0,0,0,0,0,0,0,0,0,0,0,0,0],"sum_hessian":[1.1706E4,1.089E3,1.0617E4,9.68E2,1.21E2,8.402E3,2.215E3,6.19E2,3.49E2,7E1,5.1E1,6.37E2,7.765E3,8.06E2,1.409E3,4.79E2,1.4E2,2.6E2,8.9E1,4.6E1,2.4E1,1.72E2,4.65E2,6.387E3,1.378E3,3.1E2,4.96E2,1.157E3,2.52E2],"tree_param":{"num_deleted":"0","num_feature":"2","num_nodes":"29","size_leaf_vector":"1"}},{"base_weights":[-2.3441976E-3,-5.087312E0,5.196578E-1,-5.370039E0,-2.8000202E0,1.5048498E0,-3.2163925E0,-5.949183E0,-4.328784E0,-1.5075458E0,-4.5108983E-1,1.9664552E0,-3.7563112E-1,-1.6102424E0,-4.133376E0,-6.090563E-1,-5.4256964E-1,-3.8554397E-1,-4.7301158E-1,-1.6242784E-1,-1.2277869E-1,2.49246E-1,1.7428331E-2,-5.315576E-1,1.0142573E-1,-3.0558476E-1,-7.024084E-2,-5.6542975E-1,-3.243812E-1],"categories":[],"categories_nodes":[],"categories_segments":[],"categories_sizes":[],"default_left":[0,0,0,0,0,0,0,0,0,0,0,0,0,0,0,0,0,0,0,0,0,0,0,0,0,0,0,0,0],"id":6,"left_children":[1,3,5,7,9,11,13,15,17,19,-1,21,23,25,27,-1,-1,-1,-1,-1,-1,-1,-1,-1,-1,-1,-1,-1,-1],"loss_changes":[3.107728E4,6.898418E2,3.9086797E4,5.5858984E2,2.6297406E2,7.294883E3,3.2570996E3,1.2841797E1,4.8251465E1,3.2437134E-1,0E0,6.3599004E3,1.1382309E4,1.0569358E3,1.8893281E3,0E0,0E0,0E0,0E0,0E0,0E0,0E0,0E0,0E0,0E0,0E0,0E0,0E0,0E0],"parents":[2147483647,0,0,1,1,2,2,3,3,4,4,5,5,6,6,7,7,8,8,9,9,11,11,12,12,13,13,14,14],"right_children":[2,4,6,8,10,12,14,16,18,20,-1,22,24,26,28,-1,-1,-1,-1,-1,-1,-1,-1,-1,-1,-1,-1,-1,-1],"split_conditions":[4E0,3E0,2.1E1,6E0,6E0,7E0,2.2E1,5E0,1E0,3E0,-4.5108983E-1,1.8E1,9E0,4E0,4E0,-6.090563E-1,-5.4256964E-1,-3.8554397E-1,-4.7301158E-1,-1.6242784E-1,-1.2277869E-1,2.49246E-1,1.7428331E-2,-5.315576E-1,1.0142573E-1,-3.0558476E-1,-7.024084E-2,-5.6542975E-1,-3.243812E-1],"split_indices":[1,1,1,0,0,0,1,0,1,0,0,1,1,0,0,0,0,0,0,0,0,0,0,0,0,0,0,0,0],"split_type":[0,0,0,0,0,0,0,0,0,0,0,0,0,0,0,0,0,0,0,0,0,0,0,0,0,0,0,0,0],"sum_hessian":[1.1706E4,1.089E3,1.0617E4,9.68E2,1.21E2,8.402E3,2.215E3,6.19E2,3.49E2,7E1,5.1E1,6.746E3,1.656E3,8.06E2,1.409E3,4.79E2,1.4E2,1.65E2,1.84E2,4.6E1,2.4E1,5.215E3,1.531E3,3.63E2,1.293E3,3.1E2,4.96E2,5.18E2,8.91E2],"tree_param":{"num_deleted":"0","num_feature":"2","num_nodes":"29","size_leaf_vector":"1"}},{"base_weights":[-2.4662595E-3,-4.5811005E0,4.6755764E-1,-4.835109E0,-2.5260532E0,1.5394231E0,-2.3573954E0,-5.356122E0,-3.8983586E0,-1.360808E0,-4.0684828E-1,-2.0965356E-1,2.1397796E0,-1.0845286E0,-3.72067E0,-5.4827756E-1,-4.8869744E-1,-3.6520347E-1,-4.5693833E-1,-1.4653063E-1,-1.1099191E-1,1.5940732E-1,-3.1985426E-1,2.614356E-1,3.0918181E-2,-2.7690545E-1,-5.633692E-2,-3.2104388E-1,-6.0413307E-1],"categories":[],"categories_nodes":[],"categories_segments":[],"categories_sizes":[],"default_left":[0,0,0,0,0,0,0,0,0,0,0,0,0,0,0,0,0,0,0,0,0,0,0,0,0,0,0,0,0],"id":7,"left_children":[1,3,5,7,9,11,13,15,17,19,-1,21,23,25,27,-1,-1,-1,-1,-1,-1,-1,-1,-1,-1,-1,-1,-1,-1],"loss_changes":[2.5196396E4,5.567676E2,3.215461E4,4.5204883E2,2.1373523E2,8.083883E3,5.0646787E3,1.0044922E1,4.1164062E1,2.350769E-1,0E0,1.061486E4,4.978047E3,1.3258346E3,1.6501484E3,0E0,0E0,0E0,0E0,0E0,0E0,0E0,0E0,0E0,0E0,0E0,0E0,0E0,0E0],"parents":[2147483647,0,0,1,1,2,2,3,3,4,4,5,5,6,6,7,7,8,8,9,9,11,11,12,12,13,13,14,14],"right_children":[2,4,6,8,10,12,14,16,18,20,-1,22,24,26,28,-1,-1,-1,-1,-1,-1,-1,-1,-1,-1,-1,-1,-1,-1],"split_conditions":[4E0,3E0,2E1,6E0,6E0,9E0,2.2E1,5E0,2E0,3E0,-4.0684828E-1,6E0,1.8E1,3E0,7E0,-5.4827756E-1,-4.8869744E-1,-3.6520347E-1,-4.5693833E-1,-1.4653063E-1,-1.1099191E-1,1.5940732E-1,-3.1985426E-1,2.614356E-1,3.0918181E-2,-2.7690545E-1,-5.633692E-2,-3.2104388E-1,-6.0413307E-1],"split_indices":[1,1,1,0,0,1,1,0,1,0,0,0,1,0,0,0,0,0,0,0,0,0,0,0,0,0,0,0,0],"split_type":[0,0,0,0,0,0,0,0,0,0,0,0,0,0,0,0,0,0,0,0,0,0,0,0,0,0,0,0,0],"sum_hessian":[1.1706E4,1.089E3,1.0617E4,9.68E2,1.21E2,7.697E3,2.92E3,6.19E2,3.49E2,7E1,5.1E1,1.967E3,5.73E3,1.511E3,1.409E3,4.79E2,1.4E2,2.6E2,8.9E1,4.6E1,2.4E1,1.227E3,7.4E2,4.55E3,1.18E3,3.56E2,1.155E3,1.157E3,2.52E2],"tree_param":{"num_deleted":"0","num_feature":"2","num_nodes":"29","size_leaf_vector":"1"}},{"base_weights":[-2.5314107E-3,-3.1790857E0,5.4710406E-1,-4.353517E0,-1.6755246E0,1.849336E0,-1.7676439E0,-4.822182E0,-3.5108712E0,2.618213E-1,-3.1986666E0,6.029683E-1,2.3412201E0,-7.462046E-1,-3.3492591E0,-4.919134E-1,-4.2487288E-1,-3.1092146E-1,-3.8522992E-1,9.8637305E-2,-1.0966287E-1,-2.1418677E-1,-4.5450813E-1,2.0063703E-1,-1.8905021E-1,2.6568303E-1,1.2880687E-1,-2.0048712E-1,-1.4904431E-2,-4.7695318E-1,-2.5191352E-1],"categories":[],"categories_nodes":[],"categories_segments":[],"categories_sizes":[],"default_left":[0,0,0,0,0,0,0,0,0,0,0,0,0,0,0,0,0,0,0,0,0,0,0,0,0,0,0,0,0,0,0],"id":8,"left_children":[1,3,5,7,9,11,13,15,17,19,21,23,25,27,29,-1,-1,-1,-1,-1,-1,-1,-1,-1,-1,-1,-1,-1,-1,-1,-1],"loss_changes":[2.0441541E4,3.042291E3,3.0089385E4,3.657461E2,2.240535E3,3.914871E3,5.8036934E3,1.35703125E1,3.602002E1,3.308112E2,5.9499316E2,6.3341016E3,1.5189004E3,1.6420033E3,1.6503789E3,0E0,0E0,0E0,0E0,0E0,0E0,0E0,0E0,0E0,0E0,0E0,0E0,0E0,0E0,0E0,0E0],"parents":[2147483647,0,0,1,1,2,2,3,3,4,4,5,5,6,6,7,7,8,8,9,9,10,10,11,11,12,12,13,13,14,14],"right_children":[2,4,6,8,10,12,14,16,18,20,22,24,26,28,30,-1,-1,-1,-1,-1,-1,-1,-1,-1,-1,-1,-1,-1,-1,-1,-1],"split_conditions":[5E0,3E0,1.9E1,6E0,5E0,1E1,2.2E1,2E0,1E0,4E0,7E0,6E0,1.7E1,4E0,4E0,-4.919134E-1,-4.2487288E-1,-3.1092146E-1,-3.8522992E-1,9.8637305E-2,-1.0966287E-1,-2.1418677E-1,-4.5450813E-1,2.0063703E-1,-1.8905021E-1,2.6568303E-1,1.2880687E-1,-2.0048712E-1,-1.4904431E-2,-4.7695318E-1,-2.5191352E-1],"split_indices":[1,1,1,0,0,1,1,1,1,0,0,0,1,0,0,0,0,0,0,0,0,0,0,0,0,0,0,0,0,0,0],"split_type":[0,0,0,0,0,0,0,0,0,0,0,0,0,0,0,0,0,0,0,0,0,0,0,0,0,0,0,0,0,0,0],"sum_hessian":[1.1706E4,1.726E3,9.98E3,9.68E2,7.58E2,6.387E3,3.593E3,6.19E2,3.49E2,3.34E2,4.24E2,1.808E3,4.579E3,2.184E3,1.409E3,5.23E2,9.6E1,1.65E2,1.84E2,2.18E2,1.16E2,2.39E2,1.85E2,1.157E3,6.51E2,3.522E3,1.057E3,7.02E2,1.482E3,5.18E2,8.91E2],"tree_param":{"num_deleted":"0","num_feature":"2","num_nodes":"31","size_leaf_vector":"1"}},{"base_weights":[-2.520099E-3,-3.7236745E0,3.7947848E-1,-3.9198298E0,-2.1351666E0,1.2513782E0,-1.9184549E0,-4.3414426E0,-3.161773E0,-1.2198591E0,-3.3438525E-1,-4.393118E-1,1.6846064E0,-8.947538E-1,-3.0148504E0,-4.0324885E-1,-4.53121E-1,-2.9514524E-1,-3.7365717E-1,-1.4184318E-1,-7.977482E-2,1.2503774E-1,-3.5175797E-1,2.0251365E-1,2.5647188E-2,-5.1335555E-2,-2.8459904E-1,-2.537311E-1,-5.1886684E-1],"categories":[],"categories_nodes":[],"categories_segments":[],"categories_sizes":[],"default_left":[0,0,0,0,0,0,0,0,0,0,0,0,0,0,0,0,0,0,0,0,0,0,0,0,0,0,0,0,0],"id":9,"left_children":[1,3,5,7,9,11,13,15,17,19,-1,21,23,25,27,-1,-1,-1,-1,-1,-1,-1,-1,-1,-1,-1,-1,-1,-1],"loss_changes":[1.664263E4,3.3126758E2,2.127628E4,2.9597266E2,1.308919E2,5.639177E3,3.2757773E3,1.8078125E1,3.1283691E1,4.819641E0,0E0,8.1756665E3,2.979664E3,1.1237666E3,1.4505342E3,0E0,0E0,0E0,0E0,0E0,0E0,0E0,0E0,0E0,0E0,0E0,0E0,0E0,0E0],"parents":[2147483647,0,0,1,1,2,2,3,3,4,4,5,5,6,6,7,7,8,8,9,9,11,11,12,12,13,13,14,14],"right_children":[2,4,6,8,10,12,14,16,18,20,-1,22,24,26,28,-1,-1,-1,-1,-1,-1,-1,-1,-1,-1,-1,-1,-1,-1],"split_conditions":[4E0,3E0,2E1,6E0,6E0,8E0,2.2E1,1E0,2E0,3E0,-3.3438525E-1,6E0,1.8E1,7E0,7E0,-4.0324885E-1,-4.53121E-1,-2.9514524E-1,-3.7365717E-1,-1.4184318E-1,-7.977482E-2,1.2503774E-1,-3.5175797E-1,2.0251365E-1,2.5647188E-2,-5.1335555E-2,-2.8459904E-1,-2.537311E-1,-5.1886684E-1],"split_indices":[1,1,1,0,0,1,1,1,1,0,0,0,1,0,0,0,0,0,0,0,0,0,0,0,0,0,0,0,0],"split_type":[0,0,0,0,0,0,0,0,0,0,0,0,0,0,0,0,0,0,0,0,0,0,0,0,0,0,0,0,0],"sum_hessian":[1.1706E4,1.089E3,1.0617E4,9.68E2,1.21E2,7.697E3,2.92E3,6.19E2,3.49E2,7E1,5.1E1,1.57E3,6.127E3,1.511E3,1.409E3,2.44E2,3.75E2,2.6E2,8.9E1,4.6E1,2.4E1,1.014E3,5.56E2,4.947E3,1.18E3,1.265E3,2.46E2,1.157E3,2.52E2],"tree_param":{"num_deleted":"0","num_feature":"2","num_nodes":"29","size_leaf_vector":"1"}},{"base_weights":[-2.5401388E-3,-2.5986102E0,4.466549E-1,-3.5294209E0,-1.4068395E0,1.508237E0,-1.4403325E0,-3.9086797E0,-2.8475065E0,8.1977594E-1,-2.305586E0,1.8570393E0,7.730548E-2,-6.1782026E-1,-2.7139134E0,-3.9991263E-1,-3.3797863E-1,-2.506799E-1,-3.1378308E-1,-1.279607E-1,1.38539E-1,-1.5468031E-1,-3.7454852E-1,1.3418518E-1,2.420425E-1,-3.1332308E-1,1.1633915E-1,-1.7708184E-1,-7.0837513E-3,-4.0402552E-1,-1.9391541E-1],"categories":[],"categories_nodes":[],"categories_segments":[],"categories_sizes":[],"default_left":[0,0,0,0,0,0,0,0,0,0,0,0,0,0,0,0,0,0,0,0,0,0,0,0,0,0,0,0,0,0,0],"id":10,"left_children":[1,3,5,7,9,11,13,15,17,19,21,23,25,27,29,-1,-1,-1,-1,-1,-1,-1,-1,-1,-1,-1,-1,-1,-1,-1,-1],"loss_changes":[1.3653184E4,1.9108184E3,1.9996031E4,2.3947461E2,1.5207728E3,3.1881865E3,3.763168E3,1.6142578E1,2.6754395E1,2.618222E2,5.8528735E2,1.4874707E3,4.372754E3,1.3778885E3,1.4410742E3,0E0,0E0,0E0,0E0,0E0,0E0,0E0,0E0,0E0,0E0,0E0,0E0,0E0,0E0,0E0,0E0],"parents":[2147483647,0,0,1,1,2,2,3,3,4,4,5,5,6,6,7,7,8,8,9,9,10,10,11,11,12,12,13,13,14,14],"right_children":[2,4,6,8,10,12,14,16,18,20,22,24,26,28,30,-1,-1,-1,-1,-1,-1,-1,-1,-1,-1,-1,-1,-1,-1,-1,-1],"split_conditions":[5E0,3E0,1.9E1,6E0,4E0,7E0,2.2E1,2E0,1E0,4E0,7E0,1.3E1,1E1,4E0,4E0,-3.9991263E-1,-3.3797863E-1,-2.506799E-1,-3.1378308E-1,-1.279607E-1,1.38539E-1,-1.5468031E-1,-3.7454852E-1,1.3418518E-1,2.420425E-1,-3.1332308E-1,1.1633915E-1,-1.7708184E-1,-7.0837513E-3,-4.0402552E-1,-1.9391541E-1],"split_indices":[1,1,1,0,0,0,1,1,1,1,0,1,1,0,0,0,0,0,0,0,0,0,0,0,0,0,0,0,0,0,0],"split_type":[0,0,0,0,0,0,0,0,0,0,0,0,0,0,0,0,0,0,0,0,0,0,0,0,0,0,0,0,0,0,0],"sum_hessian":[1.1706E4,1.726E3,9.98E3,9.68E2,7.58E2,6.387E3,3.593E3,6.19E2,3.49E2,2.18E2,5.4E2,5.135E3,1.252E3,2.184E3,1.409E3,5.23E2,9.6E1,1.65E2,1.84E2,4.6E1,1.72E2,3.55E2,1.85E2,2.684E3,2.451E3,3.16E2,9.36E2,7.02E2,1.482E3,5.18E2,8.91E2],"tree_param":{"num_deleted":"0","num_feature":"2","num_nodes":"31","size_leaf_vector":"1"}},{"base_weights":[-2.4932222E-3,-2.3398035E0,4.0192893E-1,-3.1778226E0,-1.2668389E0,1.3574412E0,-1.2965168E0,-3.5190017E0,-2.5643685E0,7.378464E-1,-2.0760057E0,1.6714083E0,6.941803E-2,-5.5612236E-1,-2.4429462E0,-3.232605E-1,-3.6962578E-1,-2.3847501E-1,-3.0567694E-1,-1.15436845E-1,1.24765135E-1,-1.3925575E-1,-3.37295E-1,1.2077161E-1,2.178481E-1,-2.820896E-1,1.04717694E-1,-1.5939882E-1,-6.375839E-3,-1.996064E-1,-4.4787034E-1],"categories":[],"categories_nodes":[],"categories_segments":[],"categories_sizes":[],"default_left":[0,0,0,0,0,0,0,0,0,0,0,0,0,0,0,0,0,0,0,0,0,0,0,0,0,0,0,0,0,0,0],"id":11,"left_children":[1,3,5,7,9,11,13,15,17,19,21,23,25,27,29,-1,-1,-1,-1,-1,-1,-1,-1,-1,-1,-1,-1,-1,-1,-1,-1],"loss_changes":[1.10671E4,1.548832E3,1.619978E4,1.9378516E2,1.2327242E3,2.5831729E3,3.0492646E3,1.9526367E1,2.3666016E1,2.1270087E2,4.748423E2,1.2049736E3,3.5439697E3,1.1164502E3,1.2737988E3,0E0,0E0,0E0,0E0,0E0,0E0,0E0,0E0,0E0,0E0,0E0,0E0,0E0,0E0,0E0,0E0],"parents":[2147483647,0,0,1,1,2,2,3,3,4,4,5,5,6,6,7,7,8,8,9,9,10,10,11,11,12,12,13,13,14,14],"right_children":[2,4,6,8,10,12,14,16,18,20,22,24,26,28,30,-1,-1,-1,-1,-1,-1,-1,-1,-1,-1,-1,-1,-1,-1,-1,-1],"split_conditions":[5E0,3E0,1.9E1,6E0,4E0,7E0,2.2E1,1E0,2E0,4E0,7E0,1.3E1,1E1,4E0,7E0,-3.232605E-1,-3.6962578E-1,-2.3847501E-1,-3.0567694E-1,-1.15436845E-1,1.24765135E-1,-1.3925575E-1,-3.37295E-1,1.2077161E-1,2.178481E-1,-2.820896E-1,1.04717694E-1,-1.5939882E-1,-6.375839E-3,-1.996064E-1,-4.4787034E-1],"split_indices":[1,1,1,0,0,0,1,1,1,1,0,1,1,0,0,0,0,0,0,0,0,0,0,0,0,0,0,0,0,0,0],"split_type":[0,0,0,0,0,0,0,0,0,0,0,0,0,0,0,0,0,0,0,0,0,0,0,0,0,0,0,0,0,0,0],"sum_hessian":[1.1706E4,1.726E3,9.98E3,9.68E2,7.58E2,6.387E3,3.593E3,6.19E2,3.49E2,2.18E2,5.4E2,5.135E3,1.252E3,2.184E3,1.409E3,2.44E2,3.75E2,2.6E2,8.9E1,4.6E1,1.72E2,3.55E2,1.85E2,2.684E3,2.451E3,3.16E2,9.36E2,7.02E2,1.482E3,1.157E3,2.52E2],"tree_param":{"num_deleted":"0","num_feature":"2","num_nodes":"31","size_leaf_vector":"1"}},{"base_weights":[-2.4450282E-3,-2.10681E0,3.616709E-1,-2.8613172E0,-1.1407708E0,1.2217225E0,-1.1670913E0,-3.2794732E-1,-2.4458554E0,6.6410404E-1,-1.8692862E0,1.894465E0,7.08758E-1,-5.005857E-1,-2.199111E0,-2.713728E-1,-2.0570062E-1,-1.0413879E-1,1.1236071E-1,-1.2536931E-1,-3.0374682E-1,2.1977897E-1,5.20576E-2,-2.0620811E-1,1.09802105E-1,-2.1635167E-2,-1.9851121E-1,-3.6923727E-1,-1.5936749E-1],"categories":[],"categories_nodes":[],"categories_segments":[],"categories_sizes":[],"default_left":[0,0,0,0,0,0,0,0,0,0,0,0,0,0,0,0,0,0,0,0,0,0,0,0,0,0,0,0,0],"id":12,"left_children":[1,3,5,7,9,11,13,-1,15,17,19,21,23,25,27,-1,-1,-1,-1,-1,-1,-1,-1,-1,-1,-1,-1,-1,-1],"loss_changes":[8.97105E3,1.2555171E3,1.3124589E4,1.6032129E2,9.992345E2,2.2031113E3,2.471021E3,0E0,4.5457275E1,1.7279572E2,3.852384E2,1.150294E3,3.913214E3,9.215375E2,1.2688604E3,0E0,0E0,0E0,0E0,0E0,0E0,0E0,0E0,0E0,0E0,0E0,0E0,0E0,0E0],"parents":[2147483647,0,0,1,1,2,2,3,3,4,4,5,5,6,6,8,8,9,9,10,10,11,11,12,12,13,13,14,14],"right_children":[2,4,6,8,10,12,14,-1,16,18,20,22,24,26,28,-1,-1,-1,-1,-1,-1,-1,-1,-1,-1,-1,-1,-1,-1],"split_conditions":[5E0,3E0,1.9E1,5E0,4E0,5E0,2.2E1,-3.2794732E-1,7E0,4E0,7E0,1.7E1,8E0,7E0,3E0,-2.713728E-1,-2.0570062E-1,-1.0413879E-1,1.1236071E-1,-1.2536931E-1,-3.0374682E-1,2.1977897E-1,5.20576E-2,-2.0620811E-1,1.09802105E-1,-2.1635167E-2,-1.9851121E-1,-3.6923727E-1,-1.5936749E-1],"split_indices":[1,1,1,0,0,0,1,0,0,1,0,1,1,0,0,0,0,0,0,0,0,0,0,0,0,0,0,0,0],"split_type":[0,0,0,0,0,0,0,0,0,0,0,0,0,0,0,0,0,0,0,0,0,0,0,0,0,0,0,0,0],"sum_hessian":[1.1706E4,1.726E3,9.98E3,9.68E2,7.58E2,6.387E3,3.593E3,4.79E2,4.89E2,2.18E2,5.4E2,2.762E3,3.625E3,2.184E3,1.409E3,2.86E2,2.03E2,4.6E1,1.72E2,3.55E2,1.85E2,2.262E3,5E2,4.46E2,3.179E3,1.834E3,3.5E2,4.05E2,1.004E3],"tree_param":{"num_deleted":"0","num_feature":"2","num_nodes":"29","size_leaf_vector":"1"}},{"base_weights":[-2.3541003E-3,-1.8968393E0,3.2544655E-1,-2.5760162E0,-1.0272485E0,8.79898E-1,-1.6177825E0,-2.9522094E-1,-2.2022436E0,1.4762196E-1,-1.9509057E0,1.1353723E0,-1.9071232E-1,-1.2095594E0,-3.7260294E0,-2.4433008E-1,-1.8523139E-1,7.970979E-2,-5.8500048E-2,-1.3348292E-1,-2.7353546E-1,1.445507E-1,1.7527875E-2,-4.039812E-1,2.0311816E-2,-2.3090969E-1,6.766689E-2,-3.2516298E-1,-5.028841E-1],"categories":[],"categories_nodes":[],"categories_segments":[],"categories_sizes":[],"default_left":[0,0,0,0,0,0,0,0,0,0,0,0,0,0,0,0,0,0,0,0,0,0,0,0,0,0,0,0,0],"id":13,"left_children":[1,3,5,7,9,11,13,-1,15,17,19,21,23,25,27,-1,-1,-1,-1,-1,-1,-1,-1,-1,-1,-1,-1,-1,-1],"loss_changes":[7.2708213E3,1.01733057E3,1.0755215E4,1.2975E2,8.239378E2,2.1243213E3,1.9026597E3,0E0,3.6807373E1,1.5986621E2,2.0174292E2,1.8666909E3,2.270112E3,3.855015E3,2.055293E2,0E0,0E0,0E0,0E0,0E0,0E0,0E0,0E0,0E0,0E0,0E0,0E0,0E0,0E0],"parents":[2147483647,0,0,1,1,2,2,3,3,4,4,5,5,6,6,8,8,9,9,10,10,11,11,12,12,13,13,14,14],"right_children":[2,4,6,8,10,12,14,-1,16,18,20,22,24,26,28,-1,-1,-1,-1,-1,-1,-1,-1,-1,-1,-1,-1,-1,-1],"split_conditions":[5E0,3E0,2.1E1,5E0,5E0,7E0,7E0,-2.9522094E-1,7E0,3E0,7E0,1.8E1,8E0,5E0,2.3E1,-2.4433008E-1,-1.8523139E-1,7.970979E-2,-5.8500048E-2,-1.3348292E-1,-2.7353546E-1,1.445507E-1,1.7527875E-2,-4.039812E-1,2.0311816E-2,-2.3090969E-1,6.766689E-2,-3.2516298E-1,-5.028841E-1],"split_indices":[1,1,1,0,0,0,0,0,0,0,0,1,1,0,1,0,0,0,0,0,0,0,0,0,0,0,0,0,0],"split_type":[0,0,0,0,0,0,0,0,0,0,0,0,0,0,0,0,0,0,0,0,0,0,0,0,0,0,0,0,0],"sum_hessian":[1.1706E4,1.726E3,9.98E3,9.68E2,7.58E2,7.765E3,2.215E3,4.79E2,4.89E2,3.34E2,4.24E2,6.269E3,1.496E3,1.857E3,3.58E2,2.86E2,2.03E2,1.77E2,1.57E2,2.39E2,1.85E2,4.738E3,1.531E3,1.38E2,1.358E3,1.173E3,6.84E2,2.65E2,9.3E1],"tree_param":{"num_deleted":"0","num_feature":"2","num_nodes":"29","size_leaf_vector":"1"}},{"base_weights":[-2.3169562E-3,-1.7077985E0,2.927806E-1,-2.3191626E0,-9.250319E-1,9.964604E-1,-9.5802605E-1,-2.5703228E0,-1.8676245E0,1.329232E-1,-1.756773E0,2.790131E-1,1.3745843E0,-2.2591486E0,-5.2508867E-1,-2.6544577E-1,-2.0893227E-1,-1.6879599E-1,-2.367901E-1,7.1783595E-2,-5.2687038E-2,-1.2019024E-1,-2.46329E-1,7.3041566E-2,-1.5292768E-1,1.6791002E-1,4.735526E-2,-1.5658794E-1,-3.0937037E-1,2.992072E-3,-2.453405E-1],"categories":[],"categories_nodes":[],"categories_segments":[],"categories_sizes":[],"default_left":[0,0,0,0,0,0,0,0,0,0,0,0,0,0,0,0,0,0,0,0,0,0,0,0,0,0,0,0,0,0,0],"id":14,"left_children":[1,3,5,7,9,11,13,15,17,19,21,23,25,27,29,-1,-1,-1,-1,-1,-1,-1,-1,-1,-1,-1,-1,-1,-1,-1,-1],"loss_changes":[5.892439E3,8.243203E2,8.785904E3,1.05092285E2,6.681115E2,1.7325781E3,2.0233306E3,1.9544922E1,2.7461792E1,1.2966196E2,1.6365027E2,1.8018011E3,1.1469302E3,5.141338E2,2.8875635E3,0E0,0E0,0E0,0E0,0E0,0E0,0E0,0E0,0E0,0E0,0E0,0E0,0E0,0E0,0E0,0E0],"parents":[2147483647,0,0,1,1,2,2,3,3,4,4,5,5,6,6,7,7,8,8,9,9,10,10,11,11,12,12,13,13,14,14],"right_children":[2,4,6,8,10,12,14,16,18,20,22,24,26,28,30,-1,-1,-1,-1,-1,-1,-1,-1,-1,-1,-1,-1,-1,-1,-1,-1],"split_conditions":[5E0,3E0,1.9E1,6E0,5E0,1.1E1,3E0,2E0,2E0,3E0,7E0,7E0,1.7E1,2.2E1,7E0,-2.6544577E-1,-2.0893227E-1,-1.6879599E-1,-2.367901E-1,7.1783595E-2,-5.2687038E-2,-1.2019024E-1,-2.46329E-1,7.3041566E-2,-1.5292768E-1,1.6791002E-1,4.735526E-2,-1.5658794E-1,-3.0937037E-1,2.992072E-3,-2.453405E-1],"split_indices":[1,1,1,0,0,1,0,1,1,0,0,0,1,1,0,0,0,0,0,0,0,0,0,0,0,0,0,0,0,0,0],"split_type":[0,0,0,0,0,0,0,0,0,0,0,0,0,0,0,0,0,0,0,0,0,0,0,0,0,0,0,0,0,0,0],"sum_hessian":[1.1706E4,1.726E3,9.98E3,9.68E2,7.58E2,6.387E3,3.593E3,6.19E2,3.49E2,3.34E2,4.24E2,2.205E3,4.182E3,8.96E2,2.697E3,5.23E2,9.6E1,2.6E2,8.9E1,1.77E2,1.57E2,2.39E2,1.85E2,1.765E3,4.4E2,3.125E3,1.057E3,4.91E2,4.05E2,2.095E3,6.02E2],"tree_param":{"num_deleted":"0","num_feature":"2","num_nodes":"31","size_leaf_vector":"1"}},{"base_weights":[-2.2389863E-3,3.1161752E-1,-1.3466089E0,-1.5377294E0,7.228344E-1,-1.0049565E0,-3.111076E0,-2.0881546E0,-8.329866E-1,9.33866E-1,-1.615282E-1,-1.9441199E0,6.061134E-1,-2.6832712E-1,-4.2885765E-1,-2.2499593E-1,-1.470358E-1,4.9610633E-2,-1.3694715E-1,1.22932985E-1,2.9637186E-2,-2.855871E-1,2.6336163E-2,-1.1225611E-1,-2.4105123E-1,9.4518326E-2,-3.7237655E-2],"categories":[],"categories_nodes":[],"categories_segments":[],"categories_sizes":[],"default_left":[0,0,0,0,0,0,0,0,0,0,0,0,0,0,0,0,0,0,0,0,0,0,0,0,0,0,0],"id":15,"left_children":[1,3,5,7,9,11,13,15,17,19,21,23,25,-1,-1,-1,-1,-1,-1,-1,-1,-1,-1,-1,-1,-1,-1],"loss_changes":[4.940063E3,7.2196133E3,1.3327546E3,6.681782E2,1.4495068E3,2.81244E3,1.693357E2,9.3555176E1,5.418755E2,1.1806313E3,1.7145161E3,4.471338E2,2.2761885E2,0E0,0E0,0E0,0E0,0E0,0E0,0E0,0E0,0E0,0E0,0E0,0E0,0E0,0E0],"parents":[2147483647,0,0,1,1,2,2,3,3,4,4,5,5,6,6,7,7,8,8,9,9,10,10,11,11,12,12],"right_children":[2,4,6,8,10,12,14,16,18,20,22,24,26,-1,-1,-1,-1,-1,-1,-1,-1,-1,-1,-1,-1,-1,-1],"split_conditions":[2.1E1,5E0,7E0,3E0,7E0,5E0,2.3E1,7E0,4E0,1.7E1,9E0,2.2E1,2.3E1,-2.6832712E-1,-4.2885765E-1,-2.2499593E-1,-1.470358E-1,4.9610633E-2,-1.3694715E-1,1.22932985E-1,2.9637186E-2,-2.855871E-1,2.6336163E-2,-1.1225611E-1,-2.4105123E-1,9.4518326E-2,-3.7237655E-2],"split_indices":[1,1,0,1,0,0,1,0,0,1,1,1,1,0,0,0,0,0,0,0,0,0,0,0,0,0,0],"split_type":[0,0,0,0,0,0,0,0,0,0,0,0,0,0,0,0,0,0,0,0,0,0,0,0,0,0,0],"sum_hessian":[1.1706E4,9.491E3,2.215E3,1.726E3,7.765E3,1.857E3,3.58E2,9.68E2,7.58E2,6.269E3,1.496E3,1.173E3,6.84E2,2.65E2,9.3E1,7.65E2,2.03E2,2.18E2,5.4E2,4.283E3,1.986E3,2.03E2,1.293E3,4.26E2,7.47E2,5.08E2,1.76E2],"tree_param":{"num_deleted":"0","num_feature":"2","num_nodes":"27","size_leaf_vector":"1"}},{"base_weights":[-2.1480971E-3,2.8039637E-1,-1.2123963E0,-1.3842224E0,6.5053755E-1,-9.046202E-1,-2.8019106E0,-1.879723E0,-7.498032E-1,8.405041E-1,-1.4554866E-1,-1.7500088E0,5.4558545E-1,-2.4159527E-1,-3.8642815E-1,-2.1766603E-1,-1.5850094E-1,1.3482392E-2,-1.4453332E-1,1.0660712E-1,1.4219942E-2,-3.2033774E-1,1.6731651E-2,-1.0105681E-1,-2.1697831E-1,8.508503E-2,-3.3534877E-2],"categories":[],"categories_nodes":[],"categories_segments":[],"categories_sizes":[],"default_left":[0,0,0,0,0,0,0,0,0,0,0,0,0,0,0,0,0,0,0,0,0,0,0,0,0,0,0],"id":16,"left_children":[1,3,5,7,9,11,13,15,17,19,21,23,25,-1,-1,-1,-1,-1,-1,-1,-1,-1,-1,-1,-1,-1,-1],"loss_changes":[4.0035361E3,5.849339E3,1.0815647E3,5.4148145E2,1.1745728E3,2.2788389E3,1.3786499E2,8.134888E1,4.6719598E2,9.8746436E2,1.4326981E3,3.622151E2,1.844943E2,0E0,0E0,0E0,0E0,0E0,0E0,0E0,0E0,0E0,0E0,0E0,0E0,0E0,0E0],"parents":[2147483647,0,0,1,1,2,2,3,3,4,4,5,5,6,6,7,7,8,8,9,9,10,10,11,11,12,12],"right_children":[2,4,6,8,10,12,14,16,18,20,22,24,26,-1,-1,-1,-1,-1,-1,-1,-1,-1,-1,-1,-1,-1,-1],"split_conditions":[2.1E1,5E0,7E0,3E0,7E0,5E0,2.3E1,5E0,5E0,1.8E1,8E0,2.2E1,2.3E1,-2.4159527E-1,-3.8642815E-1,-2.1766603E-1,-1.5850094E-1,1.3482392E-2,-1.4453332E-1,1.0660712E-1,1.4219942E-2,-3.2033774E-1,1.6731651E-2,-1.0105681E-1,-2.1697831E-1,8.508503E-2,-3.3534877E-2],"split_indices":[1,1,0,1,0,0,1,0,0,1,1,1,1,0,0,0,0,0,0,0,0,0,0,0,0,0,0],"split_type":[0,0,0,0,0,0,0,0,0,0,0,0,0,0,0,0,0,0,0,0,0,0,0,0,0,0,0],"sum_hessian":[1.1706E4,9.491E3,2.215E3,1.726E3,7.765E3,1.857E3,3.58E2,9.68E2,7.58E2,6.269E3,1.496E3,1.173E3,6.84E2,2.65E2,9.3E1,4.79E2,4.89E2,3.34E2,4.24E2,4.738E3,1.531E3,1.38E2,1.358E3,4.26E2,7.47E2,5.08E2,1.76E2],"tree_param":{"num_deleted":"0","num_feature":"2","num_nodes":"27","size_leaf_vector":"1"}},{"base_weights":[-2.0687236E-3,2.5228393E-1,-1.0915602E0,-1.2460938E0,5.8546007E-1,-8.143015E-1,-2.5234687E0,-1.6921387E0,-6.749954E-1,7.860999E-1,-4.049355E-2,-1.5752788E0,4.9110237E-1,-2.1752658E-1,-3.481964E-1,-1.8299651E-1,-1.166319E-1,-2.6445005E-2,-1.9383185E-1,2.7346408E-2,1.4565638E-1,-1.5532081E-1,3.161651E-2,-9.097476E-2,-1.953095E-1,7.659326E-2,-3.0200321E-2],"categories":[],"categories_nodes":[],"categories_segments":[],"categories_sizes":[],"default_left":[0,0,0,0,0,0,0,0,0,0,0,0,0,0,0,0,0,0,0,0,0,0,0,0,0,0,0],"id":17,"left_children":[1,3,5,7,9,11,13,15,17,19,21,23,25,-1,-1,-1,-1,-1,-1,-1,-1,-1,-1,-1,-1,-1,-1],"loss_changes":[3.2444612E3,4.7393604E3,8.777175E2,4.3878613E2,9.753738E2,1.8464785E3,1.1224243E2,6.8091064E1,3.931439E2,2.0209236E3,1.01803094E3,2.9342383E2,1.4954036E2,0E0,0E0,0E0,0E0,0E0,0E0,0E0,0E0,0E0,0E0,0E0,0E0,0E0,0E0],"parents":[2147483647,0,0,1,1,2,2,3,3,4,4,5,5,6,6,7,7,8,8,9,9,10,10,11,11,12,12],"right_children":[2,4,6,8,10,12,14,16,18,20,22,24,26,-1,-1,-1,-1,-1,-1,-1,-1,-1,-1,-1,-1,-1,-1],"split_conditions":[2.1E1,5E0,7E0,3E0,1.8E1,5E0,2.3E1,7E0,7E0,1.3E1,3E0,2.2E1,2.3E1,-2.1752658E-1,-3.481964E-1,-1.8299651E-1,-1.166319E-1,-2.6445005E-2,-1.9383185E-1,2.7346408E-2,1.4565638E-1,-1.5532081E-1,3.161651E-2,-9.097476E-2,-1.953095E-1,7.659326E-2,-3.0200321E-2],"split_indices":[1,1,0,1,1,0,1,0,0,1,0,1,1,0,0,0,0,0,0,0,0,0,0,0,0,0,0],"split_type":[0,0,0,0,0,0,0,0,0,0,0,0,0,0,0,0,0,0,0,0,0,0,0,0,0,0,0],"sum_hessian":[1.1706E4,9.491E3,2.215E3,1.726E3,7.765E3,1.857E3,3.58E2,9.68E2,7.58E2,5.88E3,1.885E3,1.173E3,6.84E2,2.65E2,9.3E1,7.65E2,2.03E2,5.73E2,1.85E2,3.333E3,2.547E3,3.59E2,1.526E3,4.26E2,7.47E2,5.08E2,1.76E2],"tree_param":{"num_deleted":"0","num_feature":"2","num_nodes":"27","size_leaf_vector":"1"}},{"base_weights":[-1.9706783E-3,2.2700618E-1,-9.827678E-1,-1.1217853E0,5.269207E-1,-1.7313385E0,-5.349667E-1,-1.471894E0,-5.218788E-1,7.000343E-1,-1.9849654E-1,-1.29137E0,-1.9916446E0,7.122786E-2,-2.272698E0,-1.7218421E-1,-1.2365941E-1,1.22266464E-1,-9.750501E-2,9.283447E-2,2.0744154E-2,-1.918384E-1,2.6331786E-2,-1.642868E-1,-1.0557848E-1,-2.1333651E-1,-1.4694495E-1,4.1318577E-2,-8.928507E-2,-1.9585572E-1,-3.1374717E-1],"categories":[],"categories_nodes":[],"categories_segments":[],"categories_sizes":[],"default_left":[0,0,0,0,0,0,0,0,0,0,0,0,0,0,0,0,0,0,0,0,0,0,0,0,0,0,0,0,0,0,0],"id":18,"left_children":[1,3,5,7,9,11,13,15,17,19,21,23,25,27,29,-1,-1,-1,-1,-1,-1,-1,-1,-1,-1,-1,-1,-1,-1,-1,-1],"loss_changes":[2.6293794E3,3.8403152E3,7.419009E2,3.61958E2,9.753904E2,9.237036E1,1.4622855E3,6.1976807E1,5.055803E2,7.049573E2,1.1895254E3,2.4018677E1,3.5274414E1,3.3993344E2,9.138135E1,0E0,0E0,0E0,0E0,0E0,0E0,0E0,0E0,0E0,0E0,0E0,0E0,0E0,0E0,0E0,0E0],"parents":[2147483647,0,0,1,1,2,2,3,3,4,4,5,5,6,6,7,7,8,8,9,9,10,10,11,11,12,12,13,13,14,14],"right_children":[2,4,6,8,10,12,14,16,18,20,22,24,26,28,30,-1,-1,-1,-1,-1,-1,-1,-1,-1,-1,-1,-1,-1,-1,-1,-1],"split_conditions":[2.1E1,5E0,4E0,4E0,7E0,2.2E1,7E0,5E0,3E0,1.7E1,1E1,2E0,3E0,2.3E1,2.3E1,-1.7218421E-1,-1.2365941E-1,1.22266464E-1,-9.750501E-2,9.283447E-2,2.0744154E-2,-1.918384E-1,2.6331786E-2,-1.642868E-1,-1.0557848E-1,-2.1333651E-1,-1.4694495E-1,4.1318577E-2,-8.928507E-2,-1.9585572E-1,-3.1374717E-1],"split_indices":[1,1,0,1,0,1,0,0,0,1,1,0,0,1,1,0,0,0,0,0,0,0,0,0,0,0,0,0,0,0,0],"split_type":[0,0,0,0,0,0,0,0,0,0,0,0,0,0,0,0,0,0,0,0,0,0,0,0,0,0,0,0,0,0,0],"sum_hessian":[1.1706E4,9.491E3,2.215E3,1.726E3,7.765E3,8.28E2,1.387E3,1.089E3,6.37E2,6.269E3,1.496E3,3.1E2,5.18E2,1.029E3,3.58E2,5.25E2,5.64E2,1.31E2,5.06E2,4.283E3,1.986E3,3.16E2,1.18E3,1.22E2,1.88E2,4.05E2,1.13E2,7.6E2,2.69E2,2.65E2,9.3E1],"tree_param":{"num_deleted":"0","num_feature":"2","num_nodes":"31","size_leaf_vector":"1"}},{"base_weights":[-1.9026521E-3,2.0427155E-1,-8.8502705E-1,-7.277699E-1,5.670736E-1,-1.5589648E0,-4.8187187E-1,1.9325389E-1,-1.2100202E0,8.670749E-1,2.5212716E-2,-1.163101E0,-1.7931743E0,6.4058326E-2,-2.0468473E0,-1.5453927E-1,1.481997E-1,-7.162332E-2,-1.6163753E-1,3.3955716E-2,1.5005599E-1,-1.0269383E-1,2.1654708E-2,-1.479917E-1,-9.50765E-2,-1.9205543E-1,-1.3237934E-1,-6.6923395E-2,4.3435767E-2,-1.7634377E-1,-2.827062E-1],"categories":[],"categories_nodes":[],"categories_segments":[],"categories_sizes":[],"default_left":[0,0,0,0,0,0,0,0,0,0,0,0,0,0,0,0,0,0,0,0,0,0,0,0,0,0,0,0,0,0,0],"id":19,"left_children":[1,3,5,7,9,11,13,15,17,19,21,23,25,27,29,-1,-1,-1,-1,-1,-1,-1,-1,-1,-1,-1,-1,-1,-1,-1,-1],"loss_changes":[2.131762E3,3.2100994E3,6.0133936E2,1.1817101E3,1.1107437E3,7.4775024E1,1.185993E3,2.052502E3,3.4918213E2,1.4691904E3,4.9062E2,1.9514374E1,2.8488525E1,2.7997443E2,7.439697E1,0E0,0E0,0E0,0E0,0E0,0E0,0E0,0E0,0E0,0E0,0E0,0E0,0E0,0E0,0E0,0E0],"parents":[2147483647,0,0,1,1,2,2,3,3,4,4,5,5,6,6,7,7,8,8,9,9,10,10,11,11,12,12,13,13,14,14],"right_children":[2,4,6,8,10,12,14,16,18,20,22,24,26,28,30,-1,-1,-1,-1,-1,-1,-1,-1,-1,-1,-1,-1,-1,-1,-1,-1],"split_conditions":[2.1E1,8E0,4E0,4E0,1.7E1,2.2E1,7E0,4E0,6E0,1.3E1,2E0,2E0,3E0,5E0,2.3E1,-1.5453927E-1,1.481997E-1,-7.162332E-2,-1.6163753E-1,3.3955716E-2,1.5005599E-1,-1.0269383E-1,2.1654708E-2,-1.479917E-1,-9.50765E-2,-1.9205543E-1,-1.3237934E-1,-6.6923395E-2,4.3435767E-2,-1.7634377E-1,-2.827062E-1],"split_indices":[1,1,0,0,1,1,0,1,0,1,0,0,0,0,1,0,0,0,0,0,0,0,0,0,0,0,0,0,0,0,0],"split_type":[0,0,0,0,0,0,0,0,0,0,0,0,0,0,0,0,0,0,0,0,0,0,0,0,0,0,0,0,0,0,0],"sum_hessian":[1.1706E4,9.491E3,2.215E3,2.659E3,6.832E3,8.28E2,1.387E3,9.14E2,1.745E3,4.397E3,2.435E3,3.1E2,5.18E2,1.029E3,3.58E2,3.89E2,5.25E2,7.89E2,9.56E2,2.4E3,1.997E3,3.74E2,2.061E3,1.22E2,1.88E2,4.05E2,1.13E2,3.45E2,6.84E2,2.65E2,9.3E1],"tree_param":{"num_deleted":"0","num_feature":"2","num_nodes":"31","size_leaf_vector":"1"}},{"base_weights":[-1.8141075E-3,1.8382959E-1,-7.9699826E-1,-6.550831E-1,5.1038074E-1,-1.4037529E0,-4.3403244E-1,1.739218E-1,-1.0891521E0,7.8040844E-1,2.2658069E-2,-1.0475721E0,-1.6144822E0,5.762948E-2,-1.8434412E0,-1.3912496E-1,1.3340794E-1,-6.4470075E-2,-1.4549069E-1,3.0561483E-2,1.3505782E-1,-9.245186E-2,1.949028E-2,-1.333128E-1,-8.561915E-2,-1.728972E-1,-1.1925751E-1,3.6508705E-2,-8.091589E-2,-1.5877567E-1,-2.5473633E-1],"categories":[],"categories_nodes":[],"categories_segments":[],"categories_sizes":[],"default_left":[0,0,0,0,0,0,0,0,0,0,0,0,0,0,0,0,0,0,0,0,0,0,0,0,0,0,0,0,0,0,0],"id":20,"left_children":[1,3,5,7,9,11,13,15,17,19,21,23,25,27,29,-1,-1,-1,-1,-1,-1,-1,-1,-1,-1,-1,-1,-1,-1,-1,-1],"loss_changes":[1.7283447E3,2.6006477E3,4.874231E2,9.573779E2,8.998794E2,6.0531494E1,9.6192456E2,1.6633545E3,2.828921E2,1.1901826E3,3.976043E2,1.5854706E1,2.3007935E1,2.7479105E2,6.0568848E1,0E0,0E0,0E0,0E0,0E0,0E0,0E0,0E0,0E0,0E0,0E0,0E0,0E0,0E0,0E0,0E0],"parents":[2147483647,0,0,1,1,2,2,3,3,4,4,5,5,6,6,7,7,8,8,9,9,10,10,11,11,12,12,13,13,14,14],"right_children":[2,4,6,8,10,12,14,16,18,20,22,24,26,28,30,-1,-1,-1,-1,-1,-1,-1,-1,-1,-1,-1,-1,-1,-1,-1,-1],"split_conditions":[2.1E1,8E0,4E0,4E0,1.7E1,2.2E1,7E0,4E0,6E0,1.3E1,2E0,2E0,3E0,2.3E1,2.3E1,-1.3912496E-1,1.3340794E-1,-6.4470075E-2,-1.4549069E-1,3.0561483E-2,1.3505782E-1,-9.245186E-2,1.949028E-2,-1.333128E-1,-8.561915E-2,-1.728972E-1,-1.1925751E-1,3.6508705E-2,-8.091589E-2,-1.5877567E-1,-2.5473633E-1],"split_indices":[1,1,0,0,1,1,0,1,0,1,0,0,0,1,1,0,0,0,0,0,0,0,0,0,0,0,0,0,0,0,0],"split_type":[0,0,0,0,0,0,0,0,0,0,0,0,0,0,0,0,0,0,0,0,0,0,0,0,0,0,0,0,0,0,0],"sum_hessian":[1.1706E4,9.491E3,2.215E3,2.659E3,6.832E3,8.28E2,1.387E3,9.14E2,1.745E3,4.397E3,2.435E3,3.1E2,5.18E2,1.029E3,3.58E2,3.89E2,5.25E2,7.89E2,9.56E2,2.4E3,1.997E3,3.74E2,2.061E3,1.22E2,1.88E2,4.05E2,1.13E2,7.6E2,2.69E2,2.65E2,9.3E1],"tree_param":{"num_deleted":"0","num_feature":"2","num_nodes":"31","size_leaf_vector":"1"}},{"base_weights":[-1.7259237E-3,1.6543372E-1,-7.1773565E-1,-5.194904E-1,4.9073634E-1,-1.2639941E0,-3.9095905E-1,-1.3264392E-1,-1.168978E0,7.77E-1,2.0362062E-2,-9.435189E-1,-1.4535967E0,5.1823508E-2,-1.6602489E0,-1.3187703E-1,4.3402094E-2,-8.351145E-2,-1.6525404E-1,3.3933714E-2,1.2155884E-1,-6.501236E-2,2.2646071E-2,-1.2008988E-1,-7.710255E-2,-1.5565006E-1,-1.0743638E-1,-6.073448E-2,3.8470004E-2,-1.4295779E-1,-2.2953367E-1],"categories":[],"categories_nodes":[],"categories_segments":[],"categories_sizes":[],"default_left":[0,0,0,0,0,0,0,0,0,0,0,0,0,0,0,0,0,0,0,0,0,0,0,0,0,0,0,0,0,0,0],"id":21,"left_children":[1,3,5,7,9,11,13,15,17,19,21,23,25,27,29,-1,-1,-1,-1,-1,-1,-1,-1,-1,-1,-1,-1,-1,-1,-1,-1],"loss_changes":[1.4013053E3,2.1151448E3,3.9507178E2,7.6792224E2,8.665985E2,4.9000977E1,7.8016895E2,1.2890573E3,1.828274E2,7.675947E2,3.3676874E2,1.2881317E1,1.858142E1,2.2623795E2,4.931079E1,0E0,0E0,0E0,0E0,0E0,0E0,0E0,0E0,0E0,0E0,0E0,0E0,0E0,0E0,0E0,0E0],"parents":[2147483647,0,0,1,1,2,2,3,3,4,4,5,5,6,6,7,7,8,8,9,9,10,10,11,11,12,12,13,13,14,14],"right_children":[2,4,6,8,10,12,14,16,18,20,22,24,26,28,30,-1,-1,-1,-1,-1,-1,-1,-1,-1,-1,-1,-1,-1,-1,-1,-1],"split_conditions":[2.1E1,9E0,4E0,6E0,1.7E1,2.2E1,7E0,3E0,5E0,1.3E1,3E0,2E0,3E0,5E0,2.3E1,-1.3187703E-1,4.3402094E-2,-8.351145E-2,-1.6525404E-1,3.3933714E-2,1.2155884E-1,-6.501236E-2,2.2646071E-2,-1.2008988E-1,-7.710255E-2,-1.5565006E-1,-1.0743638E-1,-6.073448E-2,3.8470004E-2,-1.4295779E-1,-2.2953367E-1],"split_indices":[1,1,0,0,1,1,0,1,1,1,0,0,0,0,1,0,0,0,0,0,0,0,0,0,0,0,0,0,0,0,0],"split_type":[0,0,0,0,0,0,0,0,0,0,0,0,0,0,0,0,0,0,0,0,0,0,0,0,0,0,0,0,0,0,0],"sum_hessian":[1.1706E4,9.491E3,2.215E3,3.056E3,6.435E3,8.28E2,1.387E3,1.916E3,1.14E3,4E3,2.435E3,3.1E2,5.18E2,1.029E3,3.58E2,6.19E2,1.297E3,6.76E2,4.64E2,2.003E3,1.997E3,5.72E2,1.863E3,1.22E2,1.88E2,4.05E2,1.13E2,3.45E2,6.84E2,2.65E2,9.3E1],"tree_param":{"num_deleted":"0","num_feature":"2","num_nodes":"31","size_leaf_vector":"1"}},{"base_weights":[-1.6455568E-3,1.799993E-1,-5.4807204E-1,-3.9860952E-1,5.6933916E-1,-3.5051748E-1,-1.5062417E0,-5.649407E-2,-9.671278E-1,7.883985E-1,1.2317186E-1,-8.910769E-1,5.167282E-1,-1.3724127E0,-2.068245E-1,-1.187106E-1,3.8468648E-2,-1.202228E-1,-3.59714E-2,1.2637791E-1,4.652896E-2,-5.7774037E-2,2.722994E-2,-5.4190665E-2,-1.23812236E-1,6.803624E-2,-1.841787E-2,-1.471062E-1,-1.21154524E-1],"categories":[],"categories_nodes":[],"categories_segments":[],"categories_sizes":[],"default_left":[0,0,0,0,0,0,0,0,0,0,0,0,0,0,0,0,0,0,0,0,0,0,0,0,0,0,0,0,0],"id":22,"left_children":[1,3,5,7,9,11,13,15,17,19,21,23,25,27,-1,-1,-1,-1,-1,-1,-1,-1,-1,-1,-1,-1,-1,-1,-1],"loss_changes":[1.1620835E3,1.9797224E3,5.523904E2,6.8749896E2,5.1331604E2,1.1363577E3,3.4692505E1,1.1018159E3,1.8920996E2,5.405437E2,1.8109067E2,1.802478E2,1.06903854E2,4.6606445E0,0E0,0E0,0E0,0E0,0E0,0E0,0E0,0E0,0E0,0E0,0E0,0E0,0E0,0E0,0E0],"parents":[2147483647,0,0,1,1,2,2,3,3,4,4,5,5,6,6,7,7,8,8,9,9,10,10,11,11,12,12,13,13],"right_children":[2,4,6,8,10,12,14,16,18,20,22,24,26,28,-1,-1,-1,-1,-1,-1,-1,-1,-1,-1,-1,-1,-1,-1,-1],"split_conditions":[2E1,1E1,7E0,6E0,1.7E1,5E0,2.3E1,3E0,8E0,5E0,2E0,2.2E1,2.3E1,2.2E1,-2.068245E-1,-1.187106E-1,3.8468648E-2,-1.202228E-1,-3.59714E-2,1.2637791E-1,4.652896E-2,-5.7774037E-2,2.722994E-2,-5.4190665E-2,-1.23812236E-1,6.803624E-2,-1.841787E-2,-1.471062E-1,-1.21154524E-1],"split_indices":[1,1,0,0,1,0,1,1,1,0,0,1,1,1,0,0,0,0,0,0,0,0,0,0,0,0,0,0,0],"split_type":[0,0,0,0,0,0,0,0,0,0,0,0,0,0,0,0,0,0,0,0,0,0,0,0,0,0,0,0,0],"sum_hessian":[1.1706E4,8.786E3,2.92E3,3.534E3,5.252E3,2.422E3,4.98E2,2.207E3,1.327E3,3.522E3,1.73E3,1.492E3,9.3E2,4.05E2,9.3E1,6.19E2,1.588E3,9.56E2,3.71E2,1.424E3,2.098E3,3.03E2,1.427E3,7.45E2,7.47E2,7.54E2,1.76E2,2.46E2,1.59E2],"tree_param":{"num_deleted":"0","num_feature":"2","num_nodes":"29","size_leaf_vector":"1"}},{"base_weights":[-1.5406695E-3,1.6198854E-1,-4.934714E-1,-3.5881567E-1,5.124323E-1,-3.1551868E-1,-1.3565696E0,-5.0881304E-2,-8.7053275E-1,7.096076E-1,1.1083716E-1,-8.020885E-1,4.6510893E-1,-1.2358322E0,-1.8636209E-1,-9.969399E-2,3.7889574E-2,-1.0821308E-1,-3.2383956E-2,1.13749065E-1,4.1878205E-2,-5.201569E-2,2.450888E-2,-1.137292E-1,-4.5205142E-2,6.1241645E-2,-1.6586443E-2,-1.3245514E-1,-1.09114826E-1],"categories":[],"categories_nodes":[],"categories_segments":[],"categories_sizes":[],"default_left":[0,0,0,0,0,0,0,0,0,0,0,0,0,0,0,0,0,0,0,0,0,0,0,0,0,0,0,0,0],"id":23,"left_children":[1,3,5,7,9,11,13,15,17,19,21,23,25,27,-1,-1,-1,-1,-1,-1,-1,-1,-1,-1,-1,-1,-1,-1,-1],"loss_changes":[9.4185016E2,1.6039219E3,4.482104E2,5.569843E2,4.158783E2,9.2070087E2,2.8245667E1,8.9813794E2,1.5327155E2,4.3792346E2,1.4676393E2,1.746651E2,8.6635345E1,3.7662354E0,0E0,0E0,0E0,0E0,0E0,0E0,0E0,0E0,0E0,0E0,0E0,0E0,0E0,0E0,0E0],"parents":[2147483647,0,0,1,1,2,2,3,3,4,4,5,5,6,6,7,7,8,8,9,9,10,10,11,11,12,12,13,13],"right_children":[2,4,6,8,10,12,14,16,18,20,22,24,26,28,-1,-1,-1,-1,-1,-1,-1,-1,-1,-1,-1,-1,-1,-1,-1],"split_conditions":[2E1,1E1,7E0,6E0,1.7E1,5E0,2.3E1,4E0,8E0,5E0,2E0,3E0,2.3E1,2.2E1,-1.8636209E-1,-9.969399E-2,3.7889574E-2,-1.0821308E-1,-3.2383956E-2,1.13749065E-1,4.1878205E-2,-5.201569E-2,2.450888E-2,-1.137292E-1,-4.5205142E-2,6.1241645E-2,-1.6586443E-2,-1.3245514E-1,-1.09114826E-1],"split_indices":[1,1,0,0,1,0,1,1,1,0,0,0,1,1,0,0,0,0,0,0,0,0,0,0,0,0,0,0,0],"split_type":[0,0,0,0,0,0,0,0,0,0,0,0,0,0,0,0,0,0,0,0,0,0,0,0,0,0,0,0,0],"sum_hessian":[1.1706E4,8.786E3,2.92E3,3.534E3,5.252E3,2.422E3,4.98E2,2.207E3,1.327E3,3.522E3,1.73E3,1.492E3,9.3E2,4.05E2,9.3E1,6.89E2,1.518E3,9.56E2,3.71E2,1.424E3,2.098E3,3.03E2,1.427E3,7.61E2,7.31E2,7.54E2,1.76E2,2.46E2,1.59E2],"tree_param":{"num_deleted":"0","num_feature":"2","num_nodes":"29","size_leaf_vector":"1"}},{"base_weights":[-1.4391538E-3,1.22307055E-1,-5.314922E-1,-4.3260896E-1,3.383109E-1,-9.439573E-1,-2.847594E-1,2.2001243E-1,-7.743707E-1,4.9370402E-1,-6.954885E-2,-7.0291215E-1,-1.0865799E0,3.7611946E-2,-1.2088757E0,-9.423109E-2,1.0813929E-1,-5.315239E-2,-9.740307E-2,1.5351142E-2,8.140764E-2,-1.1396821E-1,1.8278744E-2,-9.152307E-2,-5.6101747E-2,-1.1642777E-1,-8.003353E-2,2.8211558E-2,-6.516653E-2,-1.0381117E-1,-1.6792412E-1],"categories":[],"categories_nodes":[],"categories_segments":[],"categories_sizes":[],"default_left":[0,0,0,0,0,0,0,0,0,0,0,0,0,0,0,0,0,0,0,0,0,0,0,0,0,0,0,0,0,0,0],"id":24,"left_children":[1,3,5,7,9,11,13,15,17,19,21,23,25,27,29,-1,-1,-1,-1,-1,-1,-1,-1,-1,-1,-1,-1,-1,-1,-1,-1],"loss_changes":[7.679512E2,1.1378954E3,2.2525061E2,5.934595E2,4.331004E2,2.7736023E1,4.135426E2,9.171194E2,8.414026E1,5.391492E2,5.0949142E2,8.855988E0,1.0611023E1,1.7377057E2,2.7092224E1,0E0,0E0,0E0,0E0,0E0,0E0,0E0,0E0,0E0,0E0,0E0,0E0,0E0,0E0,0E0,0E0],"parents":[2147483647,0,0,1,1,2,2,3,3,4,4,5,5,6,6,7,7,8,8,9,9,10,10,11,11,12,12,13,13,14,14],"right_children":[2,4,6,8,10,12,14,16,18,20,22,24,26,28,30,-1,-1,-1,-1,-1,-1,-1,-1,-1,-1,-1,-1,-1,-1,-1,-1],"split_conditions":[2.1E1,8E0,4E0,4E0,1.8E1,2.2E1,7E0,4E0,6E0,1.3E1,3E0,2E0,3E0,2.3E1,2.3E1,-9.423109E-2,1.0813929E-1,-5.315239E-2,-9.740307E-2,1.5351142E-2,8.140764E-2,-1.1396821E-1,1.8278744E-2,-9.152307E-2,-5.6101747E-2,-1.1642777E-1,-8.003353E-2,2.8211558E-2,-6.516653E-2,-1.0381117E-1,-1.6792412E-1],"split_indices":[1,1,0,0,1,1,0,1,0,1,0,0,0,1,1,0,0,0,0,0,0,0,0,0,0,0,0,0,0,0,0],"split_type":[0,0,0,0,0,0,0,0,0,0,0,0,0,0,0,0,0,0,0,0,0,0,0,0,0,0,0,0,0,0,0],"sum_hessian":[1.1706E4,9.491E3,2.215E3,2.659E3,6.832E3,8.28E2,1.387E3,9.14E2,1.745E3,4.947E3,1.885E3,3.1E2,5.18E2,1.029E3,3.58E2,3.89E2,5.25E2,7.89E2,9.56E2,2.4E3,2.547E3,3.59E2,1.526E3,1.22E2,1.88E2,4.05E2,1.13E2,7.6E2,2.69E2,2.65E2,9.3E1],"tree_param":{"num_deleted":"0","num_feature":"2","num_nodes":"31","size_leaf_vector":"1"}},{"base_weights":[-1.3624312E-3,1.1210803E-1,-4.801839E-1,-7.8374916E-1,2.0184731E-1,-2.9109278E-1,-1.1404722E0,-8.8762254E-1,-4.1909158E-1,4.19687E-1,-2.06888E-1,-9.2145675E-1,1.3609038E-1,-1.0513887E0,-1.5131037E-1,-9.758034E-2,-5.6725245E-2,-6.0218353E-2,-1.2299789E-2,1.4753625E-2,7.704704E-2,-6.2288906E-2,3.9285157E-2,3.1292733E-2,-1.1600908E-1,5.2330505E-2,-4.399737E-2,-1.2640862E-1,-9.346907E-2],"categories":[],"categories_nodes":[],"categories_segments":[],"categories_sizes":[],"default_left":[0,0,0,0,0,0,0,0,0,0,0,0,0,0,0,0,0,0,0,0,0,0,0,0,0,0,0,0,0],"id":25,"left_children":[1,3,5,7,9,11,13,15,17,19,21,23,25,27,-1,-1,-1,-1,-1,-1,-1,-1,-1,-1,-1,-1,-1,-1,-1],"loss_changes":[6.361197E2,7.610835E2,2.7971698E2,3.2279053E1,7.661764E2,4.700205E2,1.4973572E1,1.8374268E1,1.0388916E1,5.357369E2,7.467256E2,2.0803204E2,2.3243619E2,8.895935E0,0E0,0E0,0E0,0E0,0E0,0E0,0E0,0E0,0E0,0E0,0E0,0E0,0E0,0E0,0E0],"parents":[2147483647,0,0,1,1,2,2,3,3,4,4,5,5,6,6,7,7,8,8,9,9,10,10,11,11,12,12,13,13],"right_children":[2,4,6,8,10,12,14,16,18,20,22,24,26,28,-1,-1,-1,-1,-1,-1,-1,-1,-1,-1,-1,-1,-1,-1,-1],"split_conditions":[7E0,4E0,2E1,2E0,1.9E1,1E1,2.3E1,6E0,3E0,1.3E1,5E0,1E0,1.6E1,2.1E1,-1.5131037E-1,-9.758034E-2,-5.6725245E-2,-6.0218353E-2,-1.2299789E-2,1.4753625E-2,7.704704E-2,-6.2288906E-2,3.9285157E-2,3.1292733E-2,-1.1600908E-1,5.2330505E-2,-4.399737E-2,-1.2640862E-1,-9.346907E-2],"split_indices":[0,1,1,1,1,1,1,0,0,1,0,1,1,1,0,0,0,0,0,0,0,0,0,0,0,0,0,0,0],"split_type":[0,0,0,0,0,0,0,0,0,0,0,0,0,0,0,0,0,0,0,0,0,0,0,0,0,0,0,0,0],"sum_hessian":[1.1706E4,9.464E3,2.242E3,8.61E2,8.603E3,1.744E3,4.98E2,6.69E2,1.92E2,5.612E3,2.991E3,7.04E2,1.04E3,4.05E2,9.3E1,5.23E2,1.46E2,1.18E2,7.4E1,3.161E3,2.451E3,1.766E3,1.225E3,1.14E2,5.9E2,6.22E2,4.18E2,1.4E2,2.65E2],"tree_param":{"num_deleted":"0","num_feature":"2","num_nodes":"29","size_leaf_vector":"1"}},{"base_weights":[-1.2778172E-3,1.0120797E-1,-4.4026423E-1,-3.5451427E-1,2.7860004E-1,-7.877628E-1,-2.3239921E-1,2.2622822E-1,-6.5865225E-1,4.061465E-1,-5.617117E-2,-5.710066E-1,-9.161317E-1,2.8590495E-2,-9.805524E-1,-7.6229565E-2,9.587341E-2,-4.9207058E-2,-9.9182874E-2,7.285124E-2,1.7652517E-2,-9.968135E-2,1.6562805E-2,-7.626688E-2,-4.432529E-2,-9.860013E-2,-6.592617E-2,2.483434E-2,-5.9089303E-2,-8.415731E-2,-1.363403E-1],"categories":[],"categories_nodes":[],"categories_segments":[],"categories_sizes":[],"default_left":[0,0,0,0,0,0,0,0,0,0,0,0,0,0,0,0,0,0,0,0,0,0,0,0,0,0,0,0,0,0,0],"id":26,"left_children":[1,3,5,7,9,11,13,15,17,19,21,23,25,27,29,-1,-1,-1,-1,-1,-1,-1,-1,-1,-1,-1,-1,-1,-1,-1,-1],"loss_changes":[5.2674097E2,7.674464E2,1.598848E2,4.6997372E2,2.9178424E2,2.254358E1,2.7104932E2,6.632819E2,9.641681E1,3.6613263E2,3.9364832E2,7.276947E0,8.664703E0,1.4036404E2,1.7954376E1,0E0,0E0,0E0,0E0,0E0,0E0,0E0,0E0,0E0,0E0,0E0,0E0,0E0,0E0,0E0,0E0],"parents":[2147483647,0,0,1,1,2,2,3,3,4,4,5,5,6,6,7,7,8,8,9,9,10,10,11,11,12,12,13,13,14,14],"right_children":[2,4,6,8,10,12,14,16,18,20,22,24,26,28,30,-1,-1,-1,-1,-1,-1,-1,-1,-1,-1,-1,-1,-1,-1,-1,-1],"split_conditions":[2.1E1,8E0,4E0,4E0,1.8E1,2.2E1,7E0,4E0,5E0,5E0,3E0,2E0,3E0,2.3E1,2.3E1,-7.6229565E-2,9.587341E-2,-4.9207058E-2,-9.9182874E-2,7.285124E-2,1.7652517E-2,-9.968135E-2,1.6562805E-2,-7.626688E-2,-4.432529E-2,-9.860013E-2,-6.592617E-2,2.483434E-2,-5.9089303E-2,-8.415731E-2,-1.363403E-1],"split_indices":[1,1,0,0,1,1,0,1,1,0,0,0,0,1,1,0,0,0,0,0,0,0,0,0,0,0,0,0,0,0,0],"split_type":[0,0,0,0,0,0,0,0,0,0,0,0,0,0,0,0,0,0,0,0,0,0,0,0,0,0,0,0,0,0,0],"sum_hessian":[1.1706E4,9.491E3,2.215E3,2.659E3,6.832E3,8.28E2,1.387E3,9.14E2,1.745E3,4.947E3,1.885E3,3.1E2,5.18E2,1.029E3,3.58E2,3.89E2,5.25E2,1.165E3,5.8E2,2.057E3,2.89E3,3.59E2,1.526E3,1.22E2,1.88E2,4.05E2,1.13E2,7.6E2,2.69E2,2.65E2,9.3E1],"tree_param":{"num_deleted":"0","num_feature":"2","num_nodes":"31","size_leaf_vector":"1"}},{"base_weights":[-1.2065287E-3,9.630167E-2,-4.1267058E-1,-6.442928E-1,1.7048764E-1,-2.5543007E-1,-9.617128E-1,-7.3902696E-1,-3.1208453E-1,3.006435E-1,-3.022422E-1,-7.873923E-1,1.0507794E-1,-8.975726E-1,-1.2285129E-1,-8.1532076E-2,-4.6204086E-2,-2.169078E-2,-8.892115E-2,1.0763443E-2,4.707478E-2,-6.0247887E-2,2.1276524E-2,3.306858E-2,-1.0036218E-1,4.5343485E-2,-4.1313555E-2,-1.155019E-1,-7.5773224E-2],"categories":[],"categories_nodes":[],"categories_segments":[],"categories_sizes":[],"default_left":[0,0,0,0,0,0,0,0,0,0,0,0,0,0,0,0,0,0,0,0,0,0,0,0,0,0,0,0,0],"id":27,"left_children":[1,3,5,7,9,11,13,15,17,19,21,23,25,27,-1,-1,-1,-1,-1,-1,-1,-1,-1,-1,-1,-1,-1,-1,-1],"loss_changes":[4.6973767E2,5.2013324E2,1.933963E2,2.6897797E1,5.2948254E2,3.34733E2,7.4365234E0,1.3781921E1,1.040843E1,2.2146466E2,2.874198E2,1.7077371E2,1.8811205E2,1.3741364E1,0E0,0E0,0E0,0E0,0E0,0E0,0E0,0E0,0E0,0E0,0E0,0E0,0E0,0E0,0E0],"parents":[2147483647,0,0,1,1,2,2,3,3,4,4,5,5,6,6,7,7,8,8,9,9,10,10,11,11,12,12,13,13],"right_children":[2,4,6,8,10,12,14,16,18,20,22,24,26,28,-1,-1,-1,-1,-1,-1,-1,-1,-1,-1,-1,-1,-1,-1,-1],"split_conditions":[7E0,4E0,2E1,2E0,2.1E1,1E1,2.3E1,6E0,6E0,1.3E1,5E0,1E0,1.6E1,2.1E1,-1.2285129E-1,-8.1532076E-2,-4.6204086E-2,-2.169078E-2,-8.892115E-2,1.0763443E-2,4.707478E-2,-6.0247887E-2,2.1276524E-2,3.306858E-2,-1.0036218E-1,4.5343485E-2,-4.1313555E-2,-1.155019E-1,-7.5773224E-2],"split_indices":[0,1,1,1,1,1,1,0,0,1,0,1,1,1,0,0,0,0,0,0,0,0,0,0,0,0,0,0,0],"split_type":[0,0,0,0,0,0,0,0,0,0,0,0,0,0,0,0,0,0,0,0,0,0,0,0,0,0,0,0,0],"sum_hessian":[1.1706E4,9.464E3,2.242E3,8.61E2,8.603E3,1.744E3,4.98E2,6.69E2,1.92E2,6.746E3,1.857E3,7.04E2,1.04E3,4.05E2,9.3E1,5.23E2,1.46E2,1.66E2,2.6E1,3.161E3,3.585E3,1.173E3,6.84E2,1.14E2,5.9E2,6.22E2,4.18E2,1.4E2,2.65E2],"tree_param":{"num_deleted":"0","num_feature":"2","num_nodes":"29","size_leaf_vector":"1"}},{"base_weights":[-1.1368684E-3,8.6648315E-2,-3.7157184E-1,-5.801401E-1,1.5344109E-1,-2.2992341E-1,-8.661708E-1,-6.65315E-1,-2.8144932E-1,3.205936E-1,-1.601888E-1,-7.0874864E-1,9.4573915E-2,-8.0828625E-1,-1.1069685E-1,-5.1507898E-2,-7.821271E-2,-1.9534705E-2,-8.035838E-2,5.536561E-2,4.303051E-3,-4.876063E-2,3.1183967E-2,2.9790482E-2,-9.034296E-2,4.0816426E-2,-3.71921E-2,-1.0403359E-1,-6.8224385E-2],"categories":[],"categories_nodes":[],"categories_segments":[],"categories_sizes":[],"default_left":[0,0,0,0,0,0,0,0,0,0,0,0,0,0,0,0,0,0,0,0,0,0,0,0,0,0,0,0,0],"id":28,"left_children":[1,3,5,7,9,11,13,15,17,19,21,23,25,27,-1,-1,-1,-1,-1,-1,-1,-1,-1,-1,-1,-1,-1,-1,-1],"loss_changes":[3.8072864E2,4.216283E2,1.5694354E2,2.1742859E1,4.5110773E2,2.712008E2,6.060547E0,1.1355225E1,8.519716E0,3.6307855E2,4.6256677E2,1.3843231E2,1.524379E2,1.11649475E1,0E0,0E0,0E0,0E0,0E0,0E0,0E0,0E0,0E0,0E0,0E0,0E0,0E0,0E0,0E0],"parents":[2147483647,0,0,1,1,2,2,3,3,4,4,5,5,6,6,7,7,8,8,9,9,10,10,11,11,12,12,13,13],"right_children":[2,4,6,8,10,12,14,16,18,20,22,24,26,28,-1,-1,-1,-1,-1,-1,-1,-1,-1,-1,-1,-1,-1,-1,-1],"split_conditions":[7E0,4E0,2E1,2E0,1.9E1,1E1,2.3E1,1E0,6E0,5E0,5E0,1E0,1.6E1,2.1E1,-1.1069685E-1,-5.1507898E-2,-7.821271E-2,-1.9534705E-2,-8.035838E-2,5.536561E-2,4.303051E-3,-4.876063E-2,3.1183967E-2,2.9790482E-2,-9.034296E-2,4.0816426E-2,-3.71921E-2,-1.0403359E-1,-6.8224385E-2],"split_indices":[0,1,1,1,1,1,1,1,0,0,0,1,1,1,0,0,0,0,0,0,0,0,0,0,0,0,0,0,0],"split_type":[0,0,0,0,0,0,0,0,0,0,0,0,0,0,0,0,0,0,0,0,0,0,0,0,0,0,0,0,0],"sum_hessian":[1.1706E4,9.464E3,2.242E3,8.61E2,8.603E3,1.744E3,4.98E2,6.69E2,1.92E2,5.612E3,2.991E3,7.04E2,1.04E3,4.05E2,9.3E1,2.95E2,3.74E2,1.66E2,2.6E1,3.05E3,2.562E3,1.766E3,1.225E3,1.14E2,5.9E2,6.22E2,4.18E2,1.4E2,2.65E2],"tree_param":{"num_deleted":"0","num_feature":"2","num_nodes":"29","size_leaf_vector":"1"}},{"base_weights":[-1.0685388E-3,7.7963375E-2,-3.3456653E-1,-5.223924E-1,1.3810153E-1,-2.0696412E-1,-7.801209E-1,-5.98977E-1,-2.5382188E-1,2.8854448E-1,-1.4417598E-1,-6.3795984E-1,8.5119404E-2,-7.27882E-1,-9.974494E-2,-6.683159E-2,-3.4773532E-2,-4.2600323E-2,2.2756807E-3,6.4053773E-3,5.7792094E-2,-4.3887343E-2,2.806809E-2,2.683734E-2,-8.132397E-2,3.6741253E-2,-3.3481788E-2,-9.370403E-2,-6.1427604E-2],"categories":[],"categories_nodes":[],"categories_segments":[],"categories_sizes":[],"default_left":[0,0,0,0,0,0,0,0,0,0,0,0,0,0,0,0,0,0,0,0,0,0,0,0,0,0,0,0,0],"id":29,"left_children":[1,3,5,7,9,11,13,15,17,19,21,23,25,27,-1,-1,-1,-1,-1,-1,-1,-1,-1,-1,-1,-1,-1,-1,-1],"loss_changes":[3.085873E2,3.4179926E2,1.2736165E2,1.7577896E1,3.6542474E2,2.1972667E2,4.9391174E0,1.1439575E1,9.200682E0,3.645965E2,3.7473425E2,1.1221594E2,1.2352876E2,9.071625E0,0E0,0E0,0E0,0E0,0E0,0E0,0E0,0E0,0E0,0E0,0E0,0E0,0E0,0E0,0E0],"parents":[2147483647,0,0,1,1,2,2,3,3,4,4,5,5,6,6,7,7,8,8,9,9,10,10,11,11,12,12,13,13],"right_children":[2,4,6,8,10,12,14,16,18,20,22,24,26,28,-1,-1,-1,-1,-1,-1,-1,-1,-1,-1,-1,-1,-1,-1,-1],"split_conditions":[7E0,4E0,2E1,2E0,1.9E1,1E1,2.3E1,6E0,3E0,1.3E1,5E0,1E0,1.6E1,2.1E1,-9.974494E-2,-6.683159E-2,-3.4773532E-2,-4.2600323E-2,2.2756807E-3,6.4053773E-3,5.7792094E-2,-4.3887343E-2,2.806809E-2,2.683734E-2,-8.132397E-2,3.6741253E-2,-3.3481788E-2,-9.370403E-2,-6.1427604E-2],"split_indices":[0,1,1,1,1,1,1,0,0,1,0,1,1,1,0,0,0,0,0,0,0,0,0,0,0,0,0,0,0],"split_type":[0,0,0,0,0,0,0,0,0,0,0,0,0,0,0,0,0,0,0,0,0,0,0,0,0,0,0,0,0],"sum_hessian":[1.1706E4,9.464E3,2.242E3,8.61E2,8.603E3,1.744E3,4.98E2,6.69E2,1.92E2,5.612E3,2.991E3,7.04E2,1.04E3,4.05E2,9.3E1,5.23E2,1.46E2,1.18E2,7.4E1,3.161E3,2.451E3,1.766E3,1.225E3,1.14E2,5.9E2,6.22E2,4.18E2,1.4E2,2.65E2],"tree_param":{"num_deleted":"0","num_feature":"2","num_nodes":"29","size_leaf_vector":"1"}},{"base_weights":[-9.959192E-4,3.375077E-2,-6.49969E-1,-2.4958822E-1,1.2289768E-1,-1.2451314E0,-4.1677064E-1,2.3662741E-1,-5.0424904E-1,3.1930837E-1,-9.005205E-2,-1.12644054E-1,-1.3897493E-1,7.356604E-2,-6.283302E-1,-3.150475E-2,1.1117818E-1,-3.28387E-2,-8.56316E-2,1.383895E-2,8.2956485E-2,2.642421E-4,-5.233214E-2,-1.2547119E-1,-4.079294E-2],"categories":[],"categories_nodes":[],"categories_segments":[],"categories_sizes":[],"default_left":[0,0,0,0,0,0,0,0,0,0,0,0,0,0,0,0,0,0,0,0,0,0,0,0,0],"id":30,"left_children":[1,3,5,7,9,11,13,15,17,19,21,-1,-1,-1,23,-1,-1,-1,-1,-1,-1,-1,-1,-1,-1],"loss_changes":[2.6401086E2,2.807317E2,8.2061615E1,3.2948065E2,3.5362238E2,1.3010559E0,1.0505577E2,4.4211298E2,1.07822784E2,4.0588666E2,1.6293729E2,0E0,0E0,0E0,4.9602142E1,0E0,0E0,0E0,0E0,0E0,0E0,0E0,0E0,0E0,0E0],"parents":[2147483647,0,0,1,1,2,2,3,3,4,4,5,5,6,6,7,7,8,8,9,9,10,10,14,14],"right_children":[2,4,6,8,10,12,14,16,18,20,22,-1,-1,-1,24,-1,-1,-1,-1,-1,-1,-1,-1,-1,-1],"split_conditions":[2.3E1,8E0,3E0,4E0,1.7E1,2E0,4E0,5E0,5E0,1.5E1,7E0,-1.12644054E-1,-1.3897493E-1,7.356604E-2,5E0,-3.150475E-2,1.1117818E-1,-3.28387E-2,-8.56316E-2,1.383895E-2,8.2956485E-2,2.642421E-4,-5.233214E-2,-1.2547119E-1,-4.079294E-2],"split_indices":[1,1,0,0,1,0,0,1,1,1,0,0,0,0,0,0,0,0,0,0,0,0,0,0,0],"split_type":[0,0,0,0,0,0,0,0,0,0,0,0,0,0,0,0,0,0,0,0,0,0,0,0,0],"sum_hessian":[1.1706E4,1.1112E4,5.94E2,2.659E3,8.453E3,1.66E2,4.28E2,9.14E2,1.745E3,4.397E3,4.056E3,9.6E1,7E1,6.6E1,3.62E2,5.61E2,3.53E2,1.165E3,5.8E2,3.247E3,1.15E3,3.342E3,7.14E2,9.3E1,2.69E2],"tree_param":{"num_deleted":"0","num_feature":"2","num_nodes":"25","size_leaf_vector":"1"}},{"base_weights":[-9.254376E-4,6.6309676E-2,-2.846434E-1,-4.3811923E-1,1.16838664E-1,-1.7927581E-1,-6.525429E-1,-5.0698096E-1,-1.9679546E-1,2.0874533E-1,-2.1696709E-1,-5.429004E-1,6.715513E-2,-6.032727E-1,-8.584064E-2,-3.7044432E-2,-6.1340194E-2,-1.1478282E-2,-6.967702E-2,5.382251E-3,3.4529224E-2,-5.378869E-2,4.153728E-3,2.7432272E-2,-7.010015E-2,3.034888E-2,-2.8440341E-2,-7.920398E-2,-5.0094403E-2],"categories":[],"categories_nodes":[],"categories_segments":[],"categories_sizes":[],"default_left":[0,0,0,0,0,0,0,0,0,0,0,0,0,0,0,0,0,0,0,0,0,0,0,0,0,0,0,0,0],"id":31,"left_children":[1,3,5,7,9,11,13,15,17,19,21,23,25,27,-1,-1,-1,-1,-1,-1,-1,-1,-1,-1,-1,-1,-1,-1,-1],"loss_changes":[2.233394E2,2.4129778E2,8.683223E1,1.422493E1,2.6400714E2,1.5640302E2,4.5434875E0,9.508118E0,7.833842E0,1.4270905E2,1.5416049E2,9.128102E1,8.657791E1,7.445633E0,0E0,0E0,0E0,0E0,0E0,0E0,0E0,0E0,0E0,0E0,0E0,0E0,0E0,0E0,0E0],"parents":[2147483647,0,0,1,1,2,2,3,3,4,4,5,5,6,6,7,7,8,8,9,9,10,10,11,11,12,12,13,13],"right_children":[2,4,6,8,10,12,14,16,18,20,22,24,26,28,-1,-1,-1,-1,-1,-1,-1,-1,-1,-1,-1,-1,-1,-1,-1],"split_conditions":[7E0,4E0,2E1,2E0,2.1E1,1E1,2.3E1,1E0,6E0,1.3E1,4E0,1E0,1.6E1,2.1E1,-8.584064E-2,-3.7044432E-2,-6.1340194E-2,-1.1478282E-2,-6.967702E-2,5.382251E-3,3.4529224E-2,-5.378869E-2,4.153728E-3,2.7432272E-2,-7.010015E-2,3.034888E-2,-2.8440341E-2,-7.920398E-2,-5.0094403E-2],"split_indices":[0,1,1,1,1,1,1,1,0,1,0,1,1,1,0,0,0,0,0,0,0,0,0,0,0,0,0,0,0],"split_type":[0,0,0,0,0,0,0,0,0,0,0,0,0,0,0,0,0,0,0,0,0,0,0,0,0,0,0,0,0],"sum_hessian":[1.1706E4,9.464E3,2.242E3,8.61E2,8.603E3,1.744E3,4.98E2,6.69E2,1.92E2,6.746E3,1.857E3,7.04E2,1.04E3,4.05E2,9.3E1,2.95E2,3.74E2,1.66E2,2.6E1,3.161E3,3.585E3,8.28E2,1.029E3,1.14E2,5.9E2,6.22E2,4.18E2,1.4E2,2.65E2],"tree_param":{"num_deleted":"0","num_feature":"2","num_nodes":"29","size_leaf_vector":"1"}},{"base_weights":[-8.709543E-4,2.869267E-2,-5.530385E-1,-1.8299451E-1,1.09007806E-1,-1.0686584E0,-3.510302E-1,2.634422E-1,-3.4621412E-1,3.0333856E-1,-8.266741E-2,-9.617237E-2,-1.19970076E-1,7.1617834E-2,-5.4704106E-1,-5.1395774E-2,8.303556E-2,-2.0696105E-2,-4.800379E-2,1.3558996E-2,7.1858436E-2,-5.5211868E-2,4.4445397E-4,-1.1346852E-1,-3.4042776E-2],"categories":[],"categories_nodes":[],"categories_segments":[],"categories_sizes":[],"default_left":[0,0,0,0,0,0,0,0,0,0,0,0,0,0,0,0,0,0,0,0,0,0,0,0,0],"id":32,"left_children":[1,3,5,7,9,11,13,15,17,19,21,-1,-1,-1,23,-1,-1,-1,-1,-1,-1,-1,-1,-1,-1],"loss_changes":[1.911218E2,1.8895967E2,6.1599762E1,2.2284627E2,3.001353E2,1.1863861E0,9.013191E1,3.6137515E2,4.1625244E1,2.7859985E2,1.659127E2,0E0,0E0,0E0,4.36874E1,0E0,0E0,0E0,0E0,0E0,0E0,0E0,0E0,0E0,0E0],"parents":[2147483647,0,0,1,1,2,2,3,3,4,4,5,5,6,6,7,7,8,8,9,9,10,10,14,14],"right_children":[2,4,6,8,10,12,14,16,18,20,22,-1,-1,-1,24,-1,-1,-1,-1,-1,-1,-1,-1,-1,-1],"split_conditions":[2.3E1,9E0,3E0,3E0,1.7E1,2E0,4E0,4E0,6E0,1.5E1,2E0,-9.617237E-2,-1.19970076E-1,7.1617834E-2,5E0,-5.1395774E-2,8.303556E-2,-2.0696105E-2,-4.800379E-2,1.3558996E-2,7.1858436E-2,-5.5211868E-2,4.4445397E-4,-1.1346852E-1,-3.4042776E-2],"split_indices":[1,1,0,0,1,0,0,1,0,1,0,0,0,0,0,0,0,0,0,0,0,0,0,0,0],"split_type":[0,0,0,0,0,0,0,0,0,0,0,0,0,0,0,0,0,0,0,0,0,0,0,0,0],"sum_hessian":[1.1706E4,1.1112E4,5.94E2,3.056E3,8.056E3,1.66E2,4.28E2,8.18E2,2.238E3,4E3,4.056E3,9.6E1,7E1,6.6E1,3.62E2,3.45E2,4.73E2,1.098E3,1.14E3,2.85E3,1.15E3,6.34E2,3.422E3,9.3E1,2.69E2],"tree_param":{"num_deleted":"0","num_feature":"2","num_nodes":"25","size_leaf_vector":"1"}},{"base_weights":[-8.0949586E-4,5.906218E-2,-2.534553E-1,-3.875734E-1,9.837986E-2,-1.5943503E-1,-5.817358E-1,-4.3606555E-1,-1.8041207E-1,2.024989E-1,-1.00321345E-1,-4.5060283E-1,3.7906695E-2,-7.1383916E-2,-5.282308E-1,-2.0215215E-2,-5.873228E-2,-7.4757084E-2,1.286782E-2,3.9351627E-2,-2.3977698E-3,-3.4001052E-2,2.452179E-2,3.7795224E-3,-6.841302E-2,2.4832709E-2,-2.7505228E-2,-4.514805E-2,-7.397983E-2],"categories":[],"categories_nodes":[],"categories_segments":[],"categories_sizes":[],"default_left":[0,0,0,0,0,0,0,0,0,0,0,0,0,0,0,0,0,0,0,0,0,0,0,0,0,0,0,0,0],"id":33,"left_children":[1,3,5,7,9,11,13,15,17,19,21,23,25,-1,27,-1,-1,-1,-1,-1,-1,-1,-1,-1,-1,-1,-1,-1,-1],"loss_changes":[1.770989E2,1.6624991E2,6.91375E1,7.6163254E0,1.8001093E2,1.00284004E2,3.1499481E0,2.181755E1,2.5865772E1,2.4698628E2,2.4788686E2,8.043414E1,6.8621216E1,0E0,5.495392E0,0E0,0E0,0E0,0E0,0E0,0E0,0E0,0E0,0E0,0E0,0E0,0E0,0E0,0E0],"parents":[2147483647,0,0,1,1,2,2,3,3,4,4,5,5,6,6,7,7,8,8,9,9,10,10,11,11,12,12,14,14],"right_children":[2,4,6,8,10,12,14,16,18,20,22,24,26,-1,28,-1,-1,-1,-1,-1,-1,-1,-1,-1,-1,-1,-1,-1,-1],"split_conditions":[7E0,3E0,2E1,6E0,1.9E1,1E1,2.1E1,1E0,1E0,5E0,5E0,4E0,1.6E1,-7.1383916E-2,2.3E1,-2.0215215E-2,-5.873228E-2,-7.4757084E-2,1.286782E-2,3.9351627E-2,-2.3977698E-3,-3.4001052E-2,2.452179E-2,3.7795224E-3,-6.841302E-2,2.4832709E-2,-2.7505228E-2,-4.514805E-2,-7.397983E-2],"split_indices":[0,1,1,0,1,1,1,1,1,0,0,1,1,0,1,0,0,0,0,0,0,0,0,0,0,0,0,0,0],"split_type":[0,0,0,0,0,0,0,0,0,0,0,0,0,0,0,0,0,0,0,0,0,0,0,0,0,0,0,0,0],"sum_hessian":[1.1706E4,9.464E3,2.242E3,7.65E2,8.699E3,1.744E3,4.98E2,6.19E2,1.46E2,5.708E3,2.991E3,7.04E2,1.04E3,1.4E2,3.58E2,2.44E2,3.75E2,5.1E1,9.5E1,3.096E3,2.612E3,1.766E3,1.225E3,2.28E2,4.76E2,6.22E2,4.18E2,2.65E2,9.3E1],"tree_param":{"num_deleted":"0","num_feature":"2","num_nodes":"29","size_leaf_vector":"1"}},{"base_weights":[-7.604218E-4,5.314372E-2,-2.282245E-1,-2.4398923E-1,1.0209264E-1,-1.4352974E-1,-5.239442E-1,-3.18832E-1,2.903418E-2,2.435476E-1,-5.55804E-2,-4.0563425E-1,3.411406E-2,-6.429619E-2,-4.7573963E-1,-4.449753E-2,-1.9304052E-2,-6.742513E-2,1.825712E-2,5.2646548E-2,-7.3211417E-3,-4.467411E-2,1.20831905E-2,-1.2333883E-2,-7.507677E-2,2.2353517E-2,-2.4761258E-2,-4.065023E-2,-6.6660546E-2],"categories":[],"categories_nodes":[],"categories_segments":[],"categories_sizes":[],"default_left":[0,0,0,0,0,0,0,0,0,0,0,0,0,0,0,0,0,0,0,0,0,0,0,0,0,0,0,0,0],"id":34,"left_children":[1,3,5,7,9,11,13,15,17,19,21,23,25,-1,27,-1,-1,-1,-1,-1,-1,-1,-1,-1,-1,-1,-1,-1,-1],"loss_changes":[1.4355464E2,1.3768706E2,5.6102783E1,2.7370155E1,1.8127515E2,8.1263214E1,2.5569763E0,1.659111E1,3.1329422E1,3.839569E2,2.653113E2,6.859525E1,5.5608284E1,0E0,4.473213E0,0E0,0E0,0E0,0E0,0E0,0E0,0E0,0E0,0E0,0E0,0E0,0E0,0E0,0E0],"parents":[2147483647,0,0,1,1,2,2,3,3,4,4,5,5,6,6,7,7,8,8,9,9,10,10,11,11,12,12,14,14],"right_children":[2,4,6,8,10,12,14,16,18,20,22,24,26,-1,28,-1,-1,-1,-1,-1,-1,-1,-1,-1,-1,-1,-1,-1,-1],"split_conditions":[7E0,5E0,2E1,6E0,1.7E1,1E1,2.1E1,2E0,1E0,5E0,3E0,5E0,1.6E1,-6.429619E-2,2.3E1,-4.449753E-2,-1.9304052E-2,-6.742513E-2,1.825712E-2,5.2646548E-2,-7.3211417E-3,-4.467411E-2,1.20831905E-2,-1.2333883E-2,-7.507677E-2,2.2353517E-2,-2.4761258E-2,-4.065023E-2,-6.6660546E-2],"split_indices":[0,1,1,0,1,1,1,1,1,0,0,1,1,0,1,0,0,0,0,0,0,0,0,0,0,0,0,0,0],"split_type":[0,0,0,0,0,0,0,0,0,0,0,0,0,0,0,0,0,0,0,0,0,0,0,0,0,0,0,0,0],"sum_hessian":[1.1706E4,9.464E3,2.242E3,1.338E3,8.126E3,1.744E3,4.98E2,1.05E3,2.88E2,4.283E3,3.843E3,7.04E2,1.04E3,1.4E2,3.58E2,5.23E2,5.27E2,5.1E1,2.37E2,2.262E3,2.021E3,1.194E3,2.649E3,3.88E2,3.16E2,6.22E2,4.18E2,2.65E2,9.3E1],"tree_param":{"num_deleted":"0","num_feature":"2","num_nodes":"29","size_leaf_vector":"1"}},{"base_weights":[-7.154168E-4,2.383575E-2,-4.5926398E-1,-1.5099148E-1,9.0166025E-2,-8.848827E-1,-2.925097E-1,2.2553205E-1,-2.8865194E-1,2.3696049E-1,-5.4624416E-2,-7.886787E-2,-1.0038532E-1,6.6722035E-2,-4.6884415E-1,-3.916527E-2,6.7557506E-2,4.2053103E-3,-3.432178E-2,8.645123E-3,6.095625E-2,-4.4027515E-2,1.6933524E-3,-1.000739E-1,-2.8192947E-2],"categories":[],"categories_nodes":[],"categories_segments":[],"categories_sizes":[],"default_left":[0,0,0,0,0,0,0,0,0,0,0,0,0,0,0,0,0,0,0,0,0,0,0,0,0],"id":35,"left_children":[1,3,5,7,9,11,13,15,17,19,21,-1,-1,-1,23,-1,-1,-1,-1,-1,-1,-1,-1,-1,-1],"loss_changes":[1.3180719E2,1.2888373E2,4.197055E1,1.5851678E2,1.7125993E2,1.1196747E0,7.291397E1,2.2774976E2,4.041765E1,2.243236E2,1.11965935E2,0E0,0E0,0E0,3.580694E1,0E0,0E0,0E0,0E0,0E0,0E0,0E0,0E0,0E0,0E0],"parents":[2147483647,0,0,1,1,2,2,3,3,4,4,5,5,6,6,7,7,8,8,9,9,10,10,14,14],"right_children":[2,4,6,8,10,12,14,16,18,20,22,-1,-1,-1,24,-1,-1,-1,-1,-1,-1,-1,-1,-1,-1],"split_conditions":[2.3E1,9E0,3E0,3E0,1.7E1,2E0,4E0,4E0,1E0,1.5E1,2E0,-7.886787E-2,-1.0038532E-1,6.6722035E-2,5E0,-3.916527E-2,6.7557506E-2,4.2053103E-3,-3.432178E-2,8.645123E-3,6.095625E-2,-4.4027515E-2,1.6933524E-3,-1.000739E-1,-2.8192947E-2],"split_indices":[1,1,0,0,1,0,0,1,1,1,0,0,0,0,0,0,0,0,0,0,0,0,0,0,0],"split_type":[0,0,0,0,0,0,0,0,0,0,0,0,0,0,0,0,0,0,0,0,0,0,0,0,0],"sum_hessian":[1.1706E4,1.1112E4,5.94E2,3.056E3,8.056E3,1.66E2,4.28E2,8.18E2,2.238E3,4E3,4.056E3,9.6E1,7E1,6.6E1,3.62E2,3.45E2,4.73E2,3.17E2,1.921E3,2.85E3,1.15E3,6.34E2,3.422E3,9.3E1,2.69E2],"tree_param":{"num_deleted":"0","num_feature":"2","num_nodes":"25","size_leaf_vector":"1"}},{"base_weights":[-6.627151E-4,4.809762E-2,-2.0642105E-1,-3.2221085E-1,7.6298915E-2,-1.3149771E-1,-4.6801382E-1,-3.75384E-1,-1.3047655E-1,1.0409433E-1,-3.831418E-1,-3.4403837E-1,1.2568249E-2,-5.8080386E-2,-4.22411E-1,-1.2560551E-2,-5.925995E-2,-6.1224706E-2,1.3184162E-2,-6.712963E-4,1.7927514E-2,-7.9746775E-2,-1.7607166E-2,2.9902646E-2,-4.685873E-2,2.783378E-2,-1.5710944E-2,-3.676918E-2,-5.727609E-2],"categories":[],"categories_nodes":[],"categories_segments":[],"categories_sizes":[],"default_left":[0,0,0,0,0,0,0,0,0,0,0,0,0,0,0,0,0,0,0,0,0,0,0,0,0,0,0,0,0],"id":36,"left_children":[1,3,5,7,9,11,13,15,17,19,21,23,25,-1,27,-1,-1,-1,-1,-1,-1,-1,-1,-1,-1,-1,-1,-1,-1],"loss_changes":[1.17464455E2,9.886926E1,4.3899902E1,6.7817535E0,1.1236781E2,5.3436005E1,2.3213043E0,2.8355583E1,1.8658161E1,6.910337E1,4.2928436E1,5.6605698E1,4.6987797E1,0E0,2.742897E0,0E0,0E0,0E0,0E0,0E0,0E0,0E0,0E0,0E0,0E0,0E0,0E0,0E0,0E0],"parents":[2147483647,0,0,1,1,2,2,3,3,4,4,5,5,6,6,7,7,8,8,9,9,10,10,11,11,12,12,14,14],"right_children":[2,4,6,8,10,12,14,16,18,20,22,24,26,-1,28,-1,-1,-1,-1,-1,-1,-1,-1,-1,-1,-1,-1,-1,-1],"split_conditions":[7E0,2E0,2E1,6E0,2.3E1,1E1,2.1E1,1E0,1E0,1.3E1,3E0,1E0,1.4E1,-5.8080386E-2,2.3E1,-1.2560551E-2,-5.925995E-2,-6.1224706E-2,1.3184162E-2,-6.712963E-4,1.7927514E-2,-7.9746775E-2,-1.7607166E-2,2.9902646E-2,-4.685873E-2,2.783378E-2,-1.5710944E-2,-3.676918E-2,-5.727609E-2],"split_indices":[0,1,1,0,1,1,1,1,1,1,0,1,1,0,1,0,0,0,0,0,0,0,0,0,0,0,0,0,0],"split_type":[0,0,0,0,0,0,0,0,0,0,0,0,0,0,0,0,0,0,0,0,0,0,0,0,0,0,0,0,0],"sum_hessian":[1.1706E4,9.464E3,2.242E3,6.69E2,8.795E3,1.744E3,4.98E2,5.23E2,1.46E2,8.294E3,5.01E2,7.04E2,1.04E3,1.4E2,3.58E2,2.44E2,2.79E2,5.1E1,9.5E1,3.353E3,4.941E3,1.66E2,3.35E2,1.14E2,5.9E2,4.05E2,6.35E2,2.65E2,9.3E1],"tree_param":{"num_deleted":"0","num_feature":"2","num_nodes":"29","size_leaf_vector":"1"}},{"base_weights":[-6.2677753E-4,4.326693E-2,-1.8584894E-1,-1.8357024E-1,8.063517E-2,-9.9294506E-2,-3.7144357E-1,-2.5041702E-1,6.016524E-2,1.8522033E-1,-6.563504E-2,-3.096585E-1,8.01564E-2,-2.5349846E-1,-4.2151722E-1,-9.500522E-3,-3.1801455E-2,-1.8824102E-2,4.2695258E-2,4.031871E-2,-6.758631E-3,-4.9831256E-2,1.1084127E-2,-6.3851024E-3,-6.103192E-2,2.5057245E-2,-8.39883E-3,-3.309798E-2,-1.6917538E-2,-5.2313514E-2,-3.804319E-2],"categories":[],"categories_nodes":[],"categories_segments":[],"categories_sizes":[],"default_left":[0,0,0,0,0,0,0,0,0,0,0,0,0,0,0,0,0,0,0,0,0,0,0,0,0,0,0,0,0,0,0],"id":37,"left_children":[1,3,5,7,9,11,13,15,17,19,21,23,25,27,29,-1,-1,-1,-1,-1,-1,-1,-1,-1,-1,-1,-1,-1,-1,-1,-1],"loss_changes":[9.5186966E1,8.0244934E1,3.5994766E1,2.1831299E1,1.24336525E2,5.7820084E1,4.1040726E0,1.1011017E1,2.6411814E1,2.611624E2,2.5883023E2,5.2063812E1,2.3154625E1,1.3487015E0,1.8843155E0,0E0,0E0,0E0,0E0,0E0,0E0,0E0,0E0,0E0,0E0,0E0,0E0,0E0,0E0,0E0,0E0],"parents":[2147483647,0,0,1,1,2,2,3,3,4,4,5,5,6,6,7,7,8,8,9,9,10,10,11,11,12,12,13,13,14,14],"right_children":[2,4,6,8,10,12,14,16,18,20,22,24,26,28,30,-1,-1,-1,-1,-1,-1,-1,-1,-1,-1,-1,-1,-1,-1,-1,-1],"split_conditions":[7E0,5E0,1.8E1,6E0,1.8E1,1E1,2E1,2E0,4E0,5E0,3E0,5E0,1.4E1,1.9E1,2.1E1,-9.500522E-3,-3.1801455E-2,-1.8824102E-2,4.2695258E-2,4.031871E-2,-6.758631E-3,-4.9831256E-2,1.1084127E-2,-6.3851024E-3,-6.103192E-2,2.5057245E-2,-8.39883E-3,-3.309798E-2,-1.6917538E-2,-5.2313514E-2,-3.804319E-2],"split_indices":[0,1,1,0,1,1,1,0,1,0,0,1,1,1,1,0,0,0,0,0,0,0,0,0,0,0,0,0,0,0,0],"split_type":[0,0,0,0,0,0,0,0,0,0,0,0,0,0,0,0,0,0,0,0,0,0,0,0,0,0,0,0,0,0,0],"sum_hessian":[1.1706E4,9.464E3,2.242E3,1.338E3,8.126E3,1.53E3,7.12E2,1.05E3,2.88E2,4.738E3,3.388E3,7.04E2,8.26E2,2.14E2,4.98E2,3.19E2,7.31E2,1.72E2,1.16E2,2.544E3,2.194E3,9.81E2,2.407E3,3.88E2,3.16E2,4.05E2,4.21E2,1.1E2,1.04E2,1.4E2,3.58E2],"tree_param":{"num_deleted":"0","num_feature":"2","num_nodes":"31","size_leaf_vector":"1"}},{"base_weights":[-5.8272865E-4,1.8608388E-2,-3.5902017E-1,9.088809E-2,-9.519837E-2,-6.6866577E-1,-2.3764528E-1,-1.1707586E-1,2.634485E-1,-4.0525204E-1,-6.8863877E-3,-5.823818E-2,-7.7712886E-2,6.0792018E-2,-3.9305916E-1,-4.217362E-2,1.0381724E-2,9.13874E-2,-1.8345248E-3,-9.878402E-4,-1.356365E-1,4.0851958E-2,-2.3566306E-2,-8.952761E-2,-2.1675752E-2],"categories":[],"categories_nodes":[],"categories_segments":[],"categories_sizes":[],"default_left":[0,0,0,0,0,0,0,0,0,0,0,0,0,0,0,0,0,0,0,0,0,0,0,0,0],"id":38,"left_children":[1,3,5,7,9,11,13,15,17,19,21,-1,-1,-1,23,-1,-1,-1,-1,-1,-1,-1,-1,-1,-1],"loss_changes":[8.0536964E1,9.142329E1,2.2203102E1,2.4395035E2,1.18202965E2,1.1102982E0,5.661496E1,2.0752156E2,6.809237E2,3.5986157E2,3.1950955E2,0E0,0E0,0E0,3.1946564E1,0E0,0E0,0E0,0E0,0E0,0E0,0E0,0E0,0E0,0E0],"parents":[2147483647,0,0,1,1,2,2,3,3,4,4,5,5,6,6,7,7,8,8,9,9,10,10,14,14],"right_children":[2,4,6,8,10,12,14,16,18,20,22,-1,-1,-1,24,-1,-1,-1,-1,-1,-1,-1,-1,-1,-1],"split_conditions":[2.3E1,6E0,3E0,1.3E1,8E0,2E0,4E0,3E0,1.7E1,5E0,1.4E1,-5.823818E-2,-7.7712886E-2,6.0792018E-2,5E0,-4.217362E-2,1.0381724E-2,9.13874E-2,-1.8345248E-3,-9.878402E-4,-1.356365E-1,4.0851958E-2,-2.3566306E-2,-8.952761E-2,-2.1675752E-2],"split_indices":[1,0,0,1,1,0,0,0,1,1,1,0,0,0,0,0,0,0,0,0,0,0,0,0,0],"split_type":[0,0,0,0,0,0,0,0,0,0,0,0,0,0,0,0,0,0,0,0,0,0,0,0,0],"sum_hessian":[1.1706E4,1.1112E4,5.94E2,6.796E3,4.316E3,1.66E2,4.28E2,3.082E3,3.714E3,9.56E2,3.36E3,9.6E1,7E1,6.6E1,3.62E2,1.295E3,1.787E3,1.122E3,2.592E3,6.76E2,2.8E2,1.193E3,2.167E3,9.3E1,2.69E2],"tree_param":{"num_deleted":"0","num_feature":"2","num_nodes":"25","size_leaf_vector":"1"}},{"base_weights":[-5.4540933E-4,3.6679283E-2,-1.5762573E-1,-2.5588515E-1,5.896003E-2,-1.00699686E-1,-3.5637987E-1,-1.5645252E-1,-3.336883E-1,1.050118E-1,-1.1305943E-1,-2.6200846E-1,8.64075E-3,-4.4779327E-2,-3.1948388E-1,-7.594281E-3,-5.3276844E-2,-4.943556E-2,1.3840062E-2,-1.0536838E-3,2.1305561E-2,-3.126645E-2,4.7703357E-3,2.7669316E-2,-3.6638867E-2,1.3809109E-2,-1.8385615E-2,-2.696832E-2,-4.5701038E-2],"categories":[],"categories_nodes":[],"categories_segments":[],"categories_sizes":[],"default_left":[0,0,0,0,0,0,0,0,0,0,0,0,0,0,0,0,0,0,0,0,0,0,0,0,0,0,0,0,0],"id":39,"left_children":[1,3,5,7,9,11,13,15,17,19,21,23,25,-1,27,-1,-1,-1,-1,-1,-1,-1,-1,-1,-1,-1,-1,-1,-1],"loss_changes":[6.845973E1,6.171321E1,2.5342064E1,5.131031E0,6.9692024E1,3.0779829E1,1.5399551E0,8.927477E0,2.8511883E1,8.6630905E1,5.9636414E1,3.9743362E1,2.5965847E1,0E0,2.3355103E0,0E0,0E0,0E0,0E0,0E0,0E0,0E0,0E0,0E0,0E0,0E0,0E0,0E0,0E0],"parents":[2147483647,0,0,1,1,2,2,3,3,4,4,5,5,6,6,7,7,8,8,9,9,10,10,11,11,12,12,14,14],"right_children":[2,4,6,8,10,12,14,16,18,20,22,24,26,-1,28,-1,-1,-1,-1,-1,-1,-1,-1,-1,-1,-1,-1,-1,-1],"split_conditions":[7E0,2E0,2E1,1E0,2.1E1,1E1,2.1E1,6E0,6E0,1.3E1,4E0,1E0,1.6E1,-4.4779327E-2,2.3E1,-7.594281E-3,-5.3276844E-2,-4.943556E-2,1.3840062E-2,-1.0536838E-3,2.1305561E-2,-3.126645E-2,4.7703357E-3,2.7669316E-2,-3.6638867E-2,1.3809109E-2,-1.8385615E-2,-2.696832E-2,-4.5701038E-2],"split_indices":[0,1,1,1,1,1,1,0,0,1,0,1,1,0,1,0,0,0,0,0,0,0,0,0,0,0,0,0,0],"split_type":[0,0,0,0,0,0,0,0,0,0,0,0,0,0,0,0,0,0,0,0,0,0,0,0,0,0,0,0,0],"sum_hessian":[1.1706E4,9.464E3,2.242E3,6.69E2,8.795E3,1.744E3,4.98E2,2.95E2,3.74E2,6.938E3,1.857E3,7.04E2,1.04E3,1.4E2,3.58E2,2.44E2,5.1E1,2.79E2,9.5E1,3.353E3,3.585E3,8.28E2,1.029E3,1.14E2,5.9E2,6.22E2,4.18E2,2.65E2,9.3E1],"tree_param":{"num_deleted":"0","num_feature":"2","num_nodes":"29","size_leaf_vector":"1"}},{"base_weights":[-5.109131E-4,1.585886E-2,-3.0625343E-1,7.8688376E-2,-8.3068185E-2,-5.71534E-1,-2.0227182E-1,-9.94298E-2,2.264837E-1,-3.840453E-1,-1.2807865E-2,-4.937998E-2,-6.6968456E-2,5.788355E-2,-3.458859E-1,-3.7303887E-2,9.894646E-3,8.0128245E-2,-2.2542702E-3,3.5699664E-4,-2.2424248E-1,3.1229332E-2,-2.1284116E-2,-8.1142046E-2,-1.8252987E-2],"categories":[],"categories_nodes":[],"categories_segments":[],"categories_sizes":[],"default_left":[0,0,0,0,0,0,0,0,0,0,0,0,0,0,0,0,0,0,0,0,0,0,0,0,0],"id":40,"left_children":[1,3,5,7,9,11,13,15,17,19,21,-1,-1,-1,23,-1,-1,-1,-1,-1,-1,-1,-1,-1,-1],"loss_changes":[5.859764E1,6.90798E1,1.6297054E1,1.7895377E2,9.128558E1,9.434662E-1,4.8324585E1,1.6737456E2,5.317834E2,5.885227E2,2.2774022E2,0E0,0E0,0E0,2.7457268E1,0E0,0E0,0E0,0E0,0E0,0E0,0E0,0E0,0E0,0E0],"parents":[2147483647,0,0,1,1,2,2,3,3,4,4,5,5,6,6,7,7,8,8,9,9,10,10,14,14],"right_children":[2,4,6,8,10,12,14,16,18,20,22,-1,-1,-1,24,-1,-1,-1,-1,-1,-1,-1,-1,-1,-1],"split_conditions":[2.3E1,6E0,3E0,1.3E1,7E0,2E0,4E0,3E0,1.7E1,5E0,1.4E1,-4.937998E-2,-6.6968456E-2,5.788355E-2,5E0,-3.7303887E-2,9.894646E-3,8.0128245E-2,-2.2542702E-3,3.5699664E-4,-2.2424248E-1,3.1229332E-2,-2.1284116E-2,-8.1142046E-2,-1.8252987E-2],"split_indices":[1,0,0,1,1,0,0,0,1,1,1,0,0,0,0,0,0,0,0,0,0,0,0,0,0],"split_type":[0,0,0,0,0,0,0,0,0,0,0,0,0,0,0,0,0,0,0,0,0,0,0,0,0],"sum_hessian":[1.1706E4,1.1112E4,5.94E2,6.796E3,4.316E3,1.66E2,4.28E2,3.082E3,3.714E3,8.16E2,3.5E3,9.6E1,7E1,6.6E1,3.62E2,1.295E3,1.787E3,1.122E3,2.592E3,6.76E2,1.4E2,1.333E3,2.167E3,9.3E1,2.69E2],"tree_param":{"num_deleted":"0","num_feature":"2","num_nodes":"25","size_leaf_vector":"1"}},{"base_weights":[-4.8720447E-4,3.1015856E-2,-1.3342343E-1,-2.2225097E-1,5.0303914E-2,-8.562681E-2,-3.0030057E-1,-1.3456091E-1,-2.90875E-1,6.86701E-2,-2.5327742E-1,-2.2464854E-1,8.605599E-3,-3.8219787E-2,-2.672983E-1,-6.051015E-3,-4.8086625E-2,-4.3219935E-2,1.2435109E-2,1.9383898E-2,4.0649767E-3,-5.150773E-2,-1.2240287E-2,8.119653E-3,-3.7100885E-2,1.1141624E-2,-1.4428136E-2,-2.2161221E-2,-3.937367E-2],"categories":[],"categories_nodes":[],"categories_segments":[],"categories_sizes":[],"default_left":[0,0,0,0,0,0,0,0,0,0,0,0,0,0,0,0,0,0,0,0,0,0,0,0,0,0,0,0,0],"id":41,"left_children":[1,3,5,7,9,11,13,15,17,19,21,23,25,-1,27,-1,-1,-1,-1,-1,-1,-1,-1,-1,-1,-1,-1,-1,-1],"loss_changes":[4.903186E1,4.624794E1,1.7864826E1,3.9926834E0,4.9060654E1,2.2862045E1,1.2465363E0,7.5615788E0,2.2059332E1,2.9084957E1,1.7136948E1,3.1588448E1,1.6378935E1,0E0,1.9864979E0,0E0,0E0,0E0,0E0,0E0,0E0,0E0,0E0,0E0,0E0,0E0,0E0,0E0,0E0],"parents":[2147483647,0,0,1,1,2,2,3,3,4,4,5,5,6,6,7,7,8,8,9,9,10,10,11,11,12,12,14,14],"right_children":[2,4,6,8,10,12,14,16,18,20,22,24,26,-1,28,-1,-1,-1,-1,-1,-1,-1,-1,-1,-1,-1,-1,-1,-1],"split_conditions":[7E0,2E0,2E1,1E0,2.3E1,1E1,2.1E1,6E0,6E0,2E0,3E0,4E0,1.6E1,-3.8219787E-2,2.3E1,-6.051015E-3,-4.8086625E-2,-4.3219935E-2,1.2435109E-2,1.9383898E-2,4.0649767E-3,-5.150773E-2,-1.2240287E-2,8.119653E-3,-3.7100885E-2,1.1141624E-2,-1.4428136E-2,-2.2161221E-2,-3.937367E-2],"split_indices":[0,1,1,1,1,1,1,0,0,0,0,1,1,0,1,0,0,0,0,0,0,0,0,0,0,0,0,0,0],"split_type":[0,0,0,0,0,0,0,0,0,0,0,0,0,0,0,0,0,0,0,0,0,0,0,0,0,0,0,0,0],"sum_hessian":[1.1706E4,9.464E3,2.242E3,6.69E2,8.795E3,1.744E3,4.98E2,2.95E2,3.74E2,8.294E3,5.01E2,7.04E2,1.04E3,1.4E2,3.58E2,2.44E2,5.1E1,2.79E2,9.5E1,1.516E3,6.778E3,1.66E2,3.35E2,2.28E2,4.76E2,6.22E2,4.18E2,2.65E2,9.3E1],"tree_param":{"num_deleted":"0","num_feature":"2","num_nodes":"29","size_leaf_vector":"1"}},{"base_weights":[-4.602242E-4,2.790131E-2,-1.20139875E-1,-2.0015256E-1,4.5269225E-2,2.4086133E-2,-1.3958327E-1,-1.2128769E-1,-2.618695E-1,9.599096E-2,-5.315489E-2,-2.881008E-1,-8.245953E-2,-5.44838E-3,-4.3370437E-2,-3.8913377E-2,1.1204572E-2,2.2115996E-2,-5.4466575E-3,-2.2908779E-2,2.004557E-2,-1.4125555E-2,-4.145814E-2,1.002933E-2,-2.0652993E-2],"categories":[],"categories_nodes":[],"categories_segments":[],"categories_sizes":[],"default_left":[0,0,0,0,0,0,0,0,0,0,0,0,0,0,0,0,0,0,0,0,0,0,0,0,0],"id":42,"left_children":[1,3,5,7,9,-1,11,13,15,17,19,21,23,-1,-1,-1,-1,-1,-1,-1,-1,-1,-1,-1,-1],"loss_changes":[3.9740406E1,3.7498226E1,1.5777443E1,3.2293243E0,4.3916862E1,0E0,1.8038422E1,6.154083E0,1.788837E1,1.09335396E2,1.3354431E2,1.0918129E1,3.491633E1,0E0,0E0,0E0,0E0,0E0,0E0,0E0,0E0,0E0,0E0,0E0,0E0],"parents":[2147483647,0,0,1,1,2,2,3,3,4,4,6,6,7,7,8,8,9,9,10,10,11,11,12,12],"right_children":[2,4,6,8,10,-1,12,14,16,18,20,22,24,-1,-1,-1,-1,-1,-1,-1,-1,-1,-1,-1,-1],"split_conditions":[7E0,2E0,1E0,1E0,1.9E1,2.4086133E-2,1E1,6E0,6E0,5E0,5E0,5E0,1.6E1,-5.44838E-3,-4.3370437E-2,-3.8913377E-2,1.1204572E-2,2.2115996E-2,-5.4466575E-3,-2.2908779E-2,2.004557E-2,-1.4125555E-2,-4.145814E-2,1.002933E-2,-2.0652993E-2],"split_indices":[0,1,1,1,1,0,1,0,0,0,0,1,1,0,0,0,0,0,0,0,0,0,0,0,0],"split_type":[0,0,0,0,0,0,0,0,0,0,0,0,0,0,0,0,0,0,0,0,0,0,0,0,0],"sum_hessian":[1.1706E4,9.464E3,2.242E3,6.69E2,8.795E3,1.14E2,2.128E3,2.95E2,3.74E2,5.804E3,2.991E3,5.9E2,1.538E3,2.44E2,5.1E1,2.79E2,9.5E1,3.168E3,2.636E3,1.766E3,1.225E3,2.74E2,3.16E2,6.22E2,9.16E2],"tree_param":{"num_deleted":"0","num_feature":"2","num_nodes":"25","size_leaf_vector":"1"}},{"base_weights":[-4.2289155E-4,1.2332859E-2,-2.3866531E-1,-6.252176E-2,7.489514E-2,-4.4110647E-1,-1.5930322E-1,-3.5570887E-1,3.841662E-2,1.9538058E-1,-1.1642037E-1,-3.7127957E-2,-5.3029098E-2,5.5644017E-2,-2.9097128E-1,2.8553426E-2,-1.4536637E-1,-1.9814134E-2,3.852502E-2,7.002684E-2,-2.3356145E-3,7.237794E-2,-1.8341213E-2,-6.963666E-2,-1.48756E-2],"categories":[],"categories_nodes":[],"categories_segments":[],"categories_sizes":[],"default_left":[0,0,0,0,0,0,0,0,0,0,0,0,0,0,0,0,0,0,0,0,0,0,0,0,0],"id":43,"left_children":[1,3,5,7,9,11,13,15,17,19,21,-1,-1,-1,23,-1,-1,-1,-1,-1,-1,-1,-1,-1,-1],"loss_changes":[3.558006E1,5.2047703E1,9.489094E0,1.4975845E2,1.395719E2,8.431015E-1,4.0591103E1,9.128716E2,3.089804E2,4.1029163E2,1.3184308E2,0E0,0E0,0E0,2.0824596E1,0E0,0E0,0E0,0E0,0E0,0E0,0E0,0E0,0E0,0E0],"parents":[2147483647,0,0,1,1,2,2,3,3,4,4,5,5,6,6,7,7,8,8,9,9,10,10,14,14],"right_children":[2,4,6,8,10,12,14,16,18,20,22,-1,-1,-1,24,-1,-1,-1,-1,-1,-1,-1,-1,-1,-1],"split_conditions":[2.3E1,1.3E1,3E0,3E0,6E0,2E0,4E0,9E0,9E0,1.7E1,1.4E1,-3.7127957E-2,-5.3029098E-2,5.5644017E-2,5E0,2.8553426E-2,-1.4536637E-1,-1.9814134E-2,3.852502E-2,7.002684E-2,-2.3356145E-3,7.237794E-2,-1.8341213E-2,-6.963666E-2,-1.48756E-2],"split_indices":[1,1,0,0,0,0,0,1,1,1,1,0,0,0,0,0,0,0,0,0,0,0,0,0,0],"split_type":[0,0,0,0,0,0,0,0,0,0,0,0,0,0,0,0,0,0,0,0,0,0,0,0,0],"sum_hessian":[1.1706E4,1.1112E4,5.94E2,5.059E3,6.053E3,1.66E2,4.28E2,1.295E3,3.764E3,3.714E3,2.339E3,9.6E1,7E1,6.6E1,3.62E2,8.18E2,4.77E2,2.238E3,1.526E3,1.122E3,2.592E3,1.72E2,2.167E3,9.3E1,2.69E2],"tree_param":{"num_deleted":"0","num_feature":"2","num_nodes":"25","size_leaf_vector":"1"}},{"base_weights":[-3.886507E-4,1.1979996E-1,-2.151033E-2,4.7897652E-1,-3.8154054E-1,-3.0695286E-1,1.44063635E-2,2.566737E-1,1.2500606E0,-5.725947E-1,-1.7978466E-1,-1.2272967E0,4.539656E-1,-2.3318142E-1,6.753174E-2,-1.841461E-2,4.3930177E-2,2.7295816E-1,9.013E-2,-2.854993E-2,-7.503273E-2,-1.2158347E-2,-3.3453442E-2,3.031273E-2,-3.424587E-1,1.9475372E-1,-3.5808455E-2,-1.27947675E-2,-9.9296026E-2,3.0056035E-2,-1.1284056E-3],"categories":[],"categories_nodes":[],"categories_segments":[],"categories_sizes":[],"default_left":[0,0,0,0,0,0,0,0,0,0,0,0,0,0,0,0,0,0,0,0,0,0,0,0,0,0,0,0,0,0,0],"id":44,"left_children":[1,3,5,7,9,11,13,15,17,19,21,23,25,27,29,-1,-1,-1,-1,-1,-1,-1,-1,-1,-1,-1,-1,-1,-1,-1,-1],"loss_changes":[2.9721792E1,3.1530484E2,1.0209536E2,1.7452162E2,2.8074387E1,7.799984E2,1.1636891E2,6.3922203E1,1.1518747E2,1.8920624E1,3.1746893E0,1.6958821E3,7.4053894E2,1.2484164E2,1.3378378E2,0E0,0E0,0E0,0E0,0E0,0E0,0E0,0E0,0E0,0E0,0E0,0E0,0E0,0E0,0E0,0E0],"parents":[2147483647,0,0,1,1,2,2,3,3,4,4,5,5,6,6,7,7,8,8,9,9,10,10,11,11,12,12,13,13,14,14],"right_children":[2,4,6,8,10,12,14,16,18,20,22,24,26,28,30,-1,-1,-1,-1,-1,-1,-1,-1,-1,-1,-1,-1,-1,-1,-1,-1],"split_conditions":[2E0,1.7E1,3E0,1.3E1,2.1E1,1.3E1,7E0,4E0,1.4E1,1.8E1,2.3E1,9E0,1.8E1,6E0,1.2E1,-1.841461E-2,4.3930177E-2,2.7295816E-1,9.013E-2,-2.854993E-2,-7.503273E-2,-1.2158347E-2,-3.3453442E-2,3.031273E-2,-3.424587E-1,1.9475372E-1,-3.5808455E-2,-1.27947675E-2,-9.9296026E-2,3.0056035E-2,-1.1284056E-3],"split_indices":[0,1,0,1,1,1,1,1,1,1,1,1,1,1,1,0,0,0,0,0,0,0,0,0,0,0,0,0,0,0,0],"split_type":[0,0,0,0,0,0,0,0,0,0,0,0,0,0,0,0,0,0,0,0,0,0,0,0,0,0,0,0,0,0,0],"sum_hessian":[1.1706E4,1.749E3,9.957E3,1.019E3,7.3E2,1.112E3,8.845E3,7.92E2,2.27E2,3.74E2,3.56E2,5.03E2,6.09E2,1.562E3,7.283E3,2.32E2,5.6E2,4.2E1,1.85E2,1.44E2,2.3E2,2.6E2,9.6E1,2.97E2,2.06E2,2.14E2,3.95E2,1.373E3,1.89E2,1.84E3,5.443E3],"tree_param":{"num_deleted":"0","num_feature":"2","num_nodes":"31","size_leaf_vector":"1"}},{"base_weights":[-3.4940036E-4,4.0302835E-2,-6.444101E-2,-7.699755E-2,1.2888607E-1,-2.6396066E-1,-1.1206683E-2,2.3103859E-1,-1.8358666E-1,5.808558E-1,-4.2631105E-2,4.7331344E-2,-1.0130024E0,2.8541547E-1,-1.590796E-1,-1.6581057E-2,3.9545E-2,-1.1051866E-1,7.6295855E-3,1.5550077E-1,9.62492E-3,-1.76149E-2,3.9357588E-2,1.0177406E-2,6.7625183E-4,-1.8618207E-1,-1.5699992E-2,5.8924366E-2,-3.2948286E-3,-4.5016147E-2,-3.7873515E-3],"categories":[],"categories_nodes":[],"categories_segments":[],"categories_sizes":[],"default_left":[0,0,0,0,0,0,0,0,0,0,0,0,0,0,0,0,0,0,0,0,0,0,0,0,0,0,0,0,0,0,0],"id":45,"left_children":[1,3,5,7,9,11,13,15,17,19,21,23,25,27,29,-1,-1,-1,-1,-1,-1,-1,-1,-1,-1,-1,-1,-1,-1,-1,-1],"loss_changes":[3.05048E1,7.444996E1,4.82602E1,1.0126749E2,3.1646375E2,2.2319232E2,1.5742363E2,5.1806065E1,5.487965E2,5.2999664E2,1.7246396E2,1.4945858E0,2.0387961E2,1.1551251E2,8.448068E1,0E0,0E0,0E0,0E0,0E0,0E0,0E0,0E0,0E0,0E0,0E0,0E0,0E0,0E0,0E0,0E0],"parents":[2147483647,0,0,1,1,2,2,3,3,4,4,5,5,6,6,7,7,8,8,9,9,10,10,11,11,12,12,13,13,14,14],"right_children":[2,4,6,8,10,12,14,16,18,20,22,24,26,28,30,-1,-1,-1,-1,-1,-1,-1,-1,-1,-1,-1,-1,-1,-1,-1,-1],"split_conditions":[6E0,1.3E1,8E0,2E0,1.7E1,5E0,1.4E1,4E0,3E0,3E0,5E0,7E0,7E0,7E0,1.7E1,-1.6581057E-2,3.9545E-2,-1.1051866E-1,7.6295855E-3,1.5550077E-1,9.62492E-3,-1.76149E-2,3.9357588E-2,1.0177406E-2,6.7625183E-4,-1.8618207E-1,-1.5699992E-2,5.8924366E-2,-3.2948286E-3,-4.5016147E-2,-3.7873515E-3],"split_indices":[0,1,1,0,1,1,1,1,0,0,0,0,1,0,1,0,0,0,0,0,0,0,0,0,0,0,0,0,0,0,0],"split_type":[0,0,0,0,0,0,0,0,0,0,0,0,0,0,0,0,0,0,0,0,0,0,0,0,0,0,0,0,0,0,0],"sum_hessian":[1.1706E4,7.163E3,4.543E3,3.082E3,4.081E3,9.56E2,3.587E3,7.92E2,2.29E3,1.122E3,2.959E3,6.76E2,2.8E2,1.193E3,2.394E3,2.32E2,5.6E2,5.03E2,1.787E3,3.72E2,7.5E2,2.266E3,6.93E2,2.88E2,3.88E2,1.4E2,1.4E2,6.1E2,5.83E2,7.03E2,1.691E3],"tree_param":{"num_deleted":"0","num_feature":"2","num_nodes":"31","size_leaf_vector":"1"}},{"base_weights":[-3.2100393E-4,3.6287654E-2,-5.8037575E-2,-6.042998E-2,1.295222E-1,-2.3776421E-1,-1.0084276E-2,2.7451816E-1,-1.6844693E-1,8.505721E-1,-3.8360547E-2,4.2614195E-2,-9.124205E-1,2.5692058E-1,-1.4319229E-1,-1.4930072E-2,4.3182693E-2,-8.813463E-2,1.8223961E-3,1.6793483E-1,3.474736E-2,-1.5854178E-2,3.5427526E-2,3.5182651E-4,9.90577E-3,-1.676959E-1,-1.4141098E-2,5.3041637E-2,-2.9659632E-3,-4.0521007E-2,-3.4088462E-3],"categories":[],"categories_nodes":[],"categories_segments":[],"categories_sizes":[],"default_left":[0,0,0,0,0,0,0,0,0,0,0,0,0,0,0,0,0,0,0,0,0,0,0,0,0,0,0,0,0,0,0],"id":46,"left_children":[1,3,5,7,9,11,13,15,17,19,21,23,25,27,29,-1,-1,-1,-1,-1,-1,-1,-1,-1,-1,-1,-1,-1,-1,-1,-1],"loss_changes":[2.4738132E1,6.460865E1,3.916E1,1.27291565E2,4.4162976E2,1.810641E2,1.2755605E2,5.7267693E1,3.5400238E2,2.8669925E2,1.3973105E2,1.4935951E0,1.6540292E2,9.359964E1,6.845239E1,0E0,0E0,0E0,0E0,0E0,0E0,0E0,0E0,0E0,0E0,0E0,0E0,0E0,0E0,0E0,0E0],"parents":[2147483647,0,0,1,1,2,2,3,3,4,4,5,5,6,6,7,7,8,8,9,9,10,10,11,11,12,12,13,13,14,14],"right_children":[2,4,6,8,10,12,14,16,18,20,22,24,26,28,30,-1,-1,-1,-1,-1,-1,-1,-1,-1,-1,-1,-1,-1,-1,-1,-1],"split_conditions":[6E0,1.5E1,8E0,2E0,1.7E1,5E0,1.4E1,4E0,3E0,3E0,5E0,4E0,7E0,7E0,1.7E1,-1.4930072E-2,4.3182693E-2,-8.813463E-2,1.8223961E-3,1.6793483E-1,3.474736E-2,-1.5854178E-2,3.5427526E-2,3.5182651E-4,9.90577E-3,-1.676959E-1,-1.4141098E-2,5.3041637E-2,-2.9659632E-3,-4.0521007E-2,-3.4088462E-3],"split_indices":[0,1,1,0,1,1,1,1,0,0,0,1,1,0,1,0,0,0,0,0,0,0,0,0,0,0,0,0,0,0,0],"split_type":[0,0,0,0,0,0,0,0,0,0,0,0,0,0,0,0,0,0,0,0,0,0,0,0,0,0,0,0,0,0,0],"sum_hessian":[1.1706E4,7.163E3,4.543E3,3.516E3,3.647E3,9.56E2,3.587E3,8.57E2,2.659E3,6.88E2,2.959E3,6.76E2,2.8E2,1.193E3,2.394E3,2.32E2,6.25E2,5.51E2,2.108E3,2.59E2,4.29E2,2.266E3,6.93E2,4E2,2.76E2,1.4E2,1.4E2,6.1E2,5.83E2,7.03E2,1.691E3],"tree_param":{"num_deleted":"0","num_feature":"2","num_nodes":"31","size_leaf_vector":"1"}},{"base_weights":[-2.8890333E-4,9.805737E-3,-1.8882915E-1,-4.4347987E-2,5.50664E-2,-3.3002687E-1,-1.3342391E-1,-2.414308E-1,2.3504248E-2,4.622538E-1,2.5017625E-2,-2.683019E-2,-4.0970705E-2,5.3570766E-2,-2.5655997E-1,2.8751155E-2,-1.1472098E-1,-1.6030394E-2,2.9300196E-2,1.5119855E-1,-3.0973556E-3,1.2265379E-2,-1.3135589E-2,-5.9324116E-2,-1.3839483E-2],"categories":[],"categories_nodes":[],"categories_segments":[],"categories_sizes":[],"default_left":[0,0,0,0,0,0,0,0,0,0,0,0,0,0,0,0,0,0,0,0,0,0,0,0,0],"id":47,"left_children":[1,3,5,7,9,11,13,15,17,19,21,-1,-1,-1,23,-1,-1,-1,-1,-1,-1,-1,-1,-1,-1],"loss_changes":[2.2283152E1,2.7240776E1,4.610708E0,6.767056E1,7.406204E1,7.1142197E-1,3.5484566E1,6.2124976E2,1.8654958E2,2.154335E2,8.6110725E1,0E0,0E0,0E0,1.4359486E1,0E0,0E0,0E0,0E0,0E0,0E0,0E0,0E0,0E0,0E0],"parents":[2147483647,0,0,1,1,2,2,3,3,4,4,5,5,6,6,7,7,8,8,9,9,10,10,14,14],"right_children":[2,4,6,8,10,12,14,16,18,20,22,-1,-1,-1,24,-1,-1,-1,-1,-1,-1,-1,-1,-1,-1],"split_conditions":[2.3E1,1.3E1,3E0,3E0,1.4E1,2E0,4E0,9E0,9E0,4E0,6E0,-2.683019E-2,-4.0970705E-2,5.3570766E-2,5E0,2.8751155E-2,-1.1472098E-1,-1.6030394E-2,2.9300196E-2,1.5119855E-1,-3.0973556E-3,1.2265379E-2,-1.3135589E-2,-5.9324116E-2,-1.3839483E-2],"split_indices":[1,1,0,0,1,0,0,1,1,0,0,0,0,0,0,0,0,0,0,0,0,0,0,0,0],"split_type":[0,0,0,0,0,0,0,0,0,0,0,0,0,0,0,0,0,0,0,0,0,0,0,0,0],"sum_hessian":[1.1706E4,1.1112E4,5.94E2,5.059E3,6.053E3,1.66E2,4.28E2,1.295E3,3.764E3,4.15E2,5.638E3,9.6E1,7E1,6.6E1,3.62E2,8.18E2,4.77E2,2.238E3,1.526E3,1.32E2,2.83E2,3.471E3,2.167E3,9.3E1,2.69E2],"tree_param":{"num_deleted":"0","num_feature":"2","num_nodes":"25","size_leaf_vector":"1"}},{"base_weights":[-2.611461E-4,8.831828E-3,-1.70093E-1,-3.9927594E-2,4.958403E-2,-2.9743013E-1,-1.2012706E-1,2.021524E-1,-8.489702E-2,4.163843E-1,2.251567E-2,-2.417483E-2,-3.6931332E-2,4.8293646E-2,-2.3110537E-1,-1.6306253E-2,3.5347667E-2,-8.7697946E-2,2.1157286E-3,1.361923E-1,-2.7886927E-3,1.103917E-2,-1.1822607E-2,-4.64098E-2,-9.111369E-3],"categories":[],"categories_nodes":[],"categories_segments":[],"categories_sizes":[],"default_left":[0,0,0,0,0,0,0,0,0,0,0,0,0,0,0,0,0,0,0,0,0,0,0,0,0],"id":48,"left_children":[1,3,5,7,9,11,13,15,17,19,21,-1,-1,-1,23,-1,-1,-1,-1,-1,-1,-1,-1,-1,-1],"loss_changes":[1.8080347E1,2.208411E1,3.7499695E0,5.5101326E1,6.0098873E1,5.791521E-1,2.882328E1,4.3883495E1,3.585466E2,1.7478944E2,6.975522E1,0E0,0E0,0E0,1.1797695E1,0E0,0E0,0E0,0E0,0E0,0E0,0E0,0E0,0E0,0E0],"parents":[2147483647,0,0,1,1,2,2,3,3,4,4,5,5,6,6,7,7,8,8,9,9,10,10,14,14],"right_children":[2,4,6,8,10,12,14,16,18,20,22,-1,-1,-1,24,-1,-1,-1,-1,-1,-1,-1,-1,-1,-1],"split_conditions":[2.3E1,1.3E1,3E0,2E0,1.4E1,2E0,4E0,4E0,3E0,4E0,6E0,-2.417483E-2,-3.6931332E-2,4.8293646E-2,6E0,-1.6306253E-2,3.5347667E-2,-8.7697946E-2,2.1157286E-3,1.361923E-1,-2.7886927E-3,1.103917E-2,-1.1822607E-2,-4.64098E-2,-9.111369E-3],"split_indices":[1,1,0,0,1,0,0,1,0,0,0,0,0,0,0,0,0,0,0,0,0,0,0,0,0],"split_type":[0,0,0,0,0,0,0,0,0,0,0,0,0,0,0,0,0,0,0,0,0,0,0,0,0],"sum_hessian":[1.1706E4,1.1112E4,5.94E2,5.059E3,6.053E3,1.66E2,4.28E2,7.92E2,4.267E3,4.15E2,5.638E3,9.6E1,7E1,6.6E1,3.62E2,2.32E2,5.6E2,5.03E2,3.764E3,1.32E2,2.83E2,3.471E3,2.167E3,1.35E2,2.27E2],"tree_param":{"num_deleted":"0","num_feature":"2","num_nodes":"25","size_leaf_vector":"1"}},{"base_weights":[-2.3523324E-4,7.954582E-3,-1.5319856E-1,-3.0185606E-2,5.1220596E-2,-2.6805297E-1,-1.0813122E-1,2.3252174E-1,-7.4813865E-2,2.887102E-1,-1.6169537E-2,-2.1782262E-2,-3.329022E-2,4.3536376E-2,-2.0814784E-1,2.7519545E-2,-1.2618555E-1,-6.981882E-2,1.6870046E-4,1.4888436E-1,-6.142811E-3,-3.3934213E-2,4.378686E-3,-4.8863214E-2,-1.0972685E-2],"categories":[],"categories_nodes":[],"categories_segments":[],"categories_sizes":[],"default_left":[0,0,0,0,0,0,0,0,0,0,0,0,0,0,0,0,0,0,0,0,0,0,0,0,0],"id":49,"left_children":[1,3,5,7,9,11,13,15,17,19,21,-1,-1,-1,23,-1,-1,-1,-1,-1,-1,-1,-1,-1,-1],"loss_changes":[1.4667061E1,1.833993E1,3.0508442E0,6.927209E1,8.333988E1,4.7147083E-1,2.341043E1,5.5062424E1,2.4082903E2,4.8375626E2,7.862435E1,0E0,0E0,0E0,9.9671955E0,0E0,0E0,0E0,0E0,0E0,0E0,0E0,0E0,0E0,0E0],"parents":[2147483647,0,0,1,1,2,2,3,3,4,4,5,5,6,6,7,7,8,8,9,9,10,10,14,14],"right_children":[2,4,6,8,10,12,14,16,18,20,22,-1,-1,-1,24,-1,-1,-1,-1,-1,-1,-1,-1,-1,-1],"split_conditions":[2.3E1,1.5E1,3E0,2E0,1.7E1,2E0,4E0,1.4E1,3E0,3E0,2E0,-2.1782262E-2,-3.329022E-2,4.3536376E-2,5E0,2.7519545E-2,-1.2618555E-1,-6.981882E-2,1.6870046E-4,1.4888436E-1,-6.142811E-3,-3.3934213E-2,4.378686E-3,-4.8863214E-2,-1.0972685E-2],"split_indices":[1,1,0,0,1,0,0,1,0,0,0,0,0,0,0,0,0,0,0,0,0,0,0,0,0],"split_type":[0,0,0,0,0,0,0,0,0,0,0,0,0,0,0,0,0,0,0,0,0,0,0,0,0],"sum_hessian":[1.1706E4,1.1112E4,5.94E2,5.906E3,5.206E3,1.66E2,4.28E2,8.57E2,5.049E3,1.15E3,4.056E3,9.6E1,7E1,6.6E1,3.62E2,8.34E2,2.3E1,5.51E2,4.498E3,2.59E2,8.91E2,6.34E2,3.422E3,9.3E1,2.69E2],"tree_param":{"num_deleted":"0","num_feature":"2","num_nodes":"25","size_leaf_vector":"1"}}]},"name":"gbtree"},"learner_model_param":{"base_score":"[1.3426704E1]","boost_from_average":"1","num_class":"0","num_feature":"2","num_target":"1"},"objective":{"name":"reg:squarederror","reg_loss_param":{"scale_pos_weight":"1"}}},"version":[3,2,0]}